{"learner":{"attributes":{},"feature_names":["0","0.64","0.64.1","0.1","0.32","0.2","0.3","0.4","0.5","0.6","0.7","0.64.2","0.8","0.9","0.10","0.32.1","0.11","1.29","1.93","0.12","0.96","0.13","0.14","0.15","0.16","0.17","0.18","0.19","0.20","0.21","0.22","0.23","0.24","0.25","0.26","0.27","0.28","0.29","0.30","0.31","0.33","0.34","0.35","0.36","0.37","0.38","0.39","0.40","0.41","0.42","0.43","0.778","0.44","0.45","3.756","61","278"],"feature_types":["float","float","float","float","float","float","float","float","float","float","float","float","float","float","float","float","float","float","float","float","float","float","float","float","float","float","float","float","float","float","float","float","float","float","float","float","float","float","float","float","float","float","float","float","float","float","float","float","float","float","float","float","float","float","float","int","int"],"gradient_booster":{"model":{"gbtree_model_param":{"num_parallel_tree":"1","num_trees":"1"},"iteration_indptr":[0,1],"tree_info":[0],"trees":[{"base_weights":[-7.588694E-3,-6.6292E-1,2.0615537E0,-9.4872296E-1,2.1198215E0,2.2759204E0,-1.0981212E0,-1.1844593E0,1.0949442E0,2.2844799E0,-1.1869868E0,2.356585E0,-6.9998175E-1,-1.4357134E0,1.3918343E0,-1.3086908E0,2.270019E-1,-5.2048296E-1,1.9656408E0,2.3462472E0,-1.4101374E-1,-1.07467756E-1,2.4004238E0,3.019531E-1,-1.2397043E0,-1.5003135E0,-4.34705E-1,-1.3669579E0,6.2675375E-1,-1.2514347E-1,1.2325329E0,-8.292695E-1,1.5077661E0,2.1175184E0,-1.0250789E0,2.410482E0,1.002416E-1,-1.0755076E0,1.0946115E0,2.4206233E0,-4.34705E-1,-1.427087E0,-7.0570505E-1,-1.827064E-1,1.8299941E0,-5.8623064E-1,9.290118E-1,-4.0612826E-1,2.0010989E0,-1.3416545E0,-7.115316E-2,1.0698473E0,2.3529568E0,2.4427714E0,6.8273646E-1,2.435742E0,2.1929827E-2,-1.4494222E0,2.4293752E-1,-1.1115068E0,4.2200252E-1,9.068392E-1,-9.2359704E-1,4.7856465E-1,2.053854E0,-7.643383E-1,9.906835E-1,1.3008223E0,-2.674514E-1,-8.591906E-1,4.7856465E-1,2.1929283E0,4.7856465E-1,-1.491217E0,2.1929827E-2,-8.347434E-1,9.068392E-1,1.7695432E0,-1.07467756E-1,1.0242687E0,2.4380352E0,2.4456818E0,4.7856465E-1,-1.4557707E0,4.7856465E-1,1.5770826E0,-9.9543405E-1,-1.1898173E0,4.7856465E-1,1.0698473E0,-1.2149724E0,1.2118965E0,2.1929827E-2,-1.3299447E0,4.7856465E-1,2.5035545E-1,-9.6979266E-1,8.176159E-2,1.9165117E0,-8.9133984E-1,4.7856465E-1,-1.0308684E0,-1.4101374E-1,1.5077661E0,-4.34705E-1,4.7856465E-1,2.0009787E0,-8.0001616E-1,9.351995E-1,1.5064867E0,2.1929827E-2,2.4557495E0,4.7856465E-1,-1.4692805E0,-4.7681612E-1],"categories":[],"categories_nodes":[],"categories_segments":[],"categories_sizes":[],"default_left":[0,0,0,0,0,0,0,0,0,0,0,0,0,0,0,0,0,0,0,0,0,0,0,0,0,0,0,0,0,0,0,0,0,0,0,0,0,0,0,0,0,0,0,0,0,0,0,0,0,0,0,0,0,0,0,0,0,0,0,0,0,0,0,0,0,0,0,0,0,0,0,0,0,0,0,0,0,0,0,0,0,0,0,0,0,0,0,0,0,0,0,0,0,0,0,0,0,0,0,0,0,0,0,0,0,0,0,0,0,0,0,0,0,0,0],"id":0,"left_children":[1,3,5,7,9,11,13,15,17,19,-1,21,23,25,-1,27,29,31,33,35,-1,37,39,-1,-1,-1,-1,41,43,45,47,49,-1,51,-1,53,-1,-1,-1,55,-1,57,59,61,63,65,67,69,71,73,75,77,79,-1,-1,81,-1,83,85,87,89,91,93,-1,-1,95,-1,97,99,-1,-1,-1,-1,-1,-1,101,103,105,107,109,-1,111,-1,113,-1,-1,-1,-1,-1,-1,-1,-1,-1,-1,-1,-1,-1,-1,-1,-1,-1,-1,-1,-1,-1,-1,-1,-1,-1,-1,-1,-1,-1,-1,-1],"loss_changes":[1.1902725E3,5.3220746E2,1.4551215E2,2.928853E2,3.6688354E1,4.919214E1,1.3841568E1,9.5534485E1,8.9796646E1,9.2872925E0,0E0,2.1111816E1,3.617701E0,1.819458E-1,0E0,5.716919E1,1.6013914E1,1.5589256E1,2.0893585E1,8.177277E0,0E0,6.2180257E0,1.1917603E1,0E0,0E0,0E0,0E0,1.8279358E1,1.5215915E1,1.7109531E1,1.5559753E1,7.8735027E0,0E0,7.2391205E0,0E0,1.494812E0,0E0,0E0,0E0,6.7836914E0,0E0,1.6900635E1,1.9876822E1,8.945006E0,9.0359306E-1,7.588502E0,5.133443E0,2.2428508E0,1.3278465E0,2.5177994E0,7.7241387E0,7.6794453E0,1.0594025E0,0E0,0E0,2.4742432E0,0E0,6.057068E0,1.2658703E1,4.487068E0,1.3970108E1,1.2070324E0,4.324951E0,0E0,0E0,4.9165134E0,0E0,6.1312075E0,1.999658E0,0E0,0E0,0E0,0E0,0E0,0E0,6.3828945E-1,4.33947E0,7.632866E-1,3.876167E0,1.7156379E0,0E0,2.5114746E0,0E0,5.0755615E0,0E0,0E0,0E0,0E0,0E0,0E0,0E0,0E0,0E0,0E0,0E0,0E0,0E0,0E0,0E0,0E0,0E0,0E0,0E0,0E0,0E0,0E0,0E0,0E0,0E0,0E0,0E0,0E0,0E0,0E0,0E0],"parents":[2147483647,0,0,1,1,2,2,3,3,4,4,5,5,6,6,7,7,8,8,9,9,11,11,12,12,13,13,15,15,16,16,17,17,18,18,19,19,21,21,22,22,27,27,28,28,29,29,30,30,31,31,33,33,35,35,39,39,41,41,42,42,43,43,44,44,45,45,46,46,47,47,48,48,49,49,50,50,51,51,52,52,55,55,57,57,58,58,59,59,60,60,61,61,62,62,65,65,67,67,68,68,75,75,76,76,77,77,78,78,79,79,81,81,83,83],"right_children":[2,4,6,8,10,12,14,16,18,20,-1,22,24,26,-1,28,30,32,34,36,-1,38,40,-1,-1,-1,-1,42,44,46,48,50,-1,52,-1,54,-1,-1,-1,56,-1,58,60,62,64,66,68,70,72,74,76,78,80,-1,-1,82,-1,84,86,88,90,92,94,-1,-1,96,-1,98,100,-1,-1,-1,-1,-1,-1,102,104,106,108,110,-1,112,-1,114,-1,-1,-1,-1,-1,-1,-1,-1,-1,-1,-1,-1,-1,-1,-1,-1,-1,-1,-1,-1,-1,-1,-1,-1,-1,-1,-1,-1,-1,-1,-1],"split_conditions":[5.6E-2,6E-2,3.9E-1,5.11E-1,1E-2,1.7E-1,2E-2,2E-1,1E1,2E-2,-1.1869868E0,7E0,4.9E-1,2E-1,1.3918343E0,2E-2,6.1E-1,1E-2,2E-2,2.7E-1,-1.4101374E-1,1E-2,2.1E-1,3.019531E-1,-1.2397043E0,-1.5003135E0,-4.34705E-1,7.2E-1,2.4E-1,1.95E-1,1.69E0,9.69E-1,1.5077661E0,6.5E1,-1.0250789E0,4.8E-2,1.002416E-1,-1.0755076E0,1.0946115E0,6.45E-1,-4.34705E-1,1.2E-1,2.47E0,4.8E-2,1.6E-1,2.1E-1,4.4E1,9.1E-1,2.6E-1,2.276E0,1.5E1,1.3E1,5.64E-1,2.4427714E0,6.8273646E-1,7E-2,2.1929827E-2,2.13E2,3.08E-1,4.7E-1,1E-2,2E1,1.4E-1,4.7856465E-1,2.053854E0,1.7E-1,9.906835E-1,6.8E1,8E-2,-8.591906E-1,4.7856465E-1,2.1929283E0,4.7856465E-1,-1.491217E0,2.1929827E-2,3.26E0,1E-2,6.39E-1,2.52E0,5.46E-1,2.4380352E0,2E-1,4.7856465E-1,7.9E-1,4.7856465E-1,1.5770826E0,-9.9543405E-1,-1.1898173E0,4.7856465E-1,1.0698473E0,-1.2149724E0,1.2118965E0,2.1929827E-2,-1.3299447E0,4.7856465E-1,2.5035545E-1,-9.6979266E-1,8.176159E-2,1.9165117E0,-8.9133984E-1,4.7856465E-1,-1.0308684E0,-1.4101374E-1,1.5077661E0,-4.34705E-1,4.7856465E-1,2.0009787E0,-8.0001616E-1,9.351995E-1,1.5064867E0,2.1929827E-2,2.4557495E0,4.7856465E-1,-1.4692805E0,-4.7681612E-1],"split_indices":[52,6,24,51,26,45,6,15,55,45,0,55,45,0,0,23,4,15,45,24,0,17,26,0,0,0,0,4,4,51,18,51,0,56,0,52,0,0,0,49,0,21,18,49,11,7,55,15,51,54,56,55,51,0,0,25,0,55,48,7,26,55,2,0,0,18,0,56,11,0,0,0,0,0,0,51,44,51,18,51,0,47,0,5,0,0,0,0,0,0,0,0,0,0,0,0,0,0,0,0,0,0,0,0,0,0,0,0,0,0,0,0,0,0,0],"split_type":[0,0,0,0,0,0,0,0,0,0,0,0,0,0,0,0,0,0,0,0,0,0,0,0,0,0,0,0,0,0,0,0,0,0,0,0,0,0,0,0,0,0,0,0,0,0,0,0,0,0,0,0,0,0,0,0,0,0,0,0,0,0,0,0,0,0,0,0,0,0,0,0,0,0,0,0,0,0,0,0,0,0,0,0,0,0,0,0,0,0,0,0,0,0,0,0,0,0,0,0,0,0,0,0,0,0,0,0,0,0,0,0,0,0,0],"sum_hessian":[8.7579114E2,6.6564886E2,2.1014229E2,6.042483E2,6.1400578E1,1.9705301E2,1.308927E1,5.421338E2,6.2114536E1,5.8782722E1,2.617854E0,1.9205528E2,4.997721E0,1.1899337E1,1.1899337E0,4.983442E2,4.378956E1,2.189478E1,4.0219757E1,5.73548E1,1.4279203E0,3.3318143E0,1.8872348E2,1.9038938E0,3.0938275E0,1.0709403E1,1.1899337E0,4.84065E2,1.4279203E1,3.3080154E1,1.0709403E1,1.9514912E1,2.3798673E0,3.855385E1,1.6659071E0,5.5688896E1,1.6659071E0,1.9038938E0,1.4279203E0,1.8753354E2,1.1899337E0,4.426553E2,4.140969E1,9.043496E0,5.235708E0,2.3322699E1,9.757456E0,3.5698009E0,7.1396017E0,1.1185376E1,8.3295355E0,8.091549E0,3.0462301E1,5.4260975E1,1.4279203E0,1.8634361E2,1.1899337E0,4.3694363E2,5.7116814E0,3.0462301E1,1.094739E1,3.5698009E0,5.473695E0,1.1899337E0,4.0457745E0,2.1418806E1,1.9038938E0,7.3775887E0,2.3798673E0,2.3798673E0,1.1899337E0,5.9496684E0,1.1899337E0,9.995442E0,1.1899337E0,4.7597346E0,3.5698009E0,4.7597346E0,3.3318143E0,2.617854E0,2.7844448E1,1.8515367E2,1.1899337E0,4.357537E2,1.1899337E0,2.617854E0,3.0938275E0,2.9272367E1,1.1899337E0,8.091549E0,2.8558407E0,2.3798673E0,1.1899337E0,4.283761E0,1.1899337E0,3.5698009E0,1.7849005E1,2.8558407E0,4.521748E0,1.1899337E0,1.1899337E0,3.3318143E0,1.4279203E0,2.3798673E0,1.1899337E0,1.1899337E0,3.5698009E0,2.1418805E0,1.1899337E0,1.4279203E0,1.1899337E0,1.8396375E2,1.1899337E0,4.2932806E2,6.4256415E0],"tree_param":{"num_deleted":"0","num_feature":"57","num_nodes":"115","size_leaf_vector":"1"}}]},"name":"gbtree"},"learner_model_param":{"base_score":"-4.456522E-1","boost_from_average":"1","num_class":"0","num_feature":"57","num_target":"1"},"objective":{"name":"binary:logitraw","reg_loss_param":{"scale_pos_weight":"1"}}},"version":[2,0,3]}