{"learner":{"attributes":{},"feature_names":[],"feature_types":[],"gradient_booster":{"model":{"gbtree_model_param":{"num_parallel_tree":"1","num_trees":"4"},"iteration_indptr":[0,1,2,3,4],"tree_info":[0,0,0,0],"trees":[{"base_weights":[-4.1746333E-1,-6.9257927E-1,1.8130559E0,-7.623296E-1,1.6936042E0,1.2018731E0,2.7486725E0,-9.0842336E-1,-5.0010506E-2,-4.1817915E-1,2.5795045E0,1.5562633E0,2.465767E-1,2.9956667E0,2.2081325E0,-9.420072E-1,1.1212778E0,-5.936535E-1,2.9438615E0,-1.0748496E0,8.625432E-4,1.4412245E0,3.0039182E0,1.1363683E0,2.0190167E0,-1.7321503E-1,7.0188236E-1,2.2422137E0,3.1190922E0,1.5458115E0,2.670877E0,-1.038333E0,-4.416426E-1,-8.811242E-1,1.7543195E0,2.0702966E-1,-8.957882E-1,9.068929E-1,3.7551925E0,-1.1322024E0,-1.9335619E-1,4.0094575E-1,-8.4119076E-1,-3.6119342E-1,1.9895793E0,2.2519553E0,4.184922E0,8.718302E-1,1.8082206E0,1.7456734E0,2.8642275E0,2.756654E-1,-4.538692E-1,9.032115E-1,-5.9902024E-1,-1.19562194E-1,2.3468354E0,3.1400652E0,6.067368E-1,1.6719896E0,-7.2131056E-1,3.1149554E0,2.202266E0,-3.7517267E-1,-1.0672911E0,-9.895693E-2,-1.0300338E0,-5.3193673E-2,-1.0447448E0,1.1527805E0,2.7093246E0,-7.4667734E-1,9.3880504E-1,-9.436691E-1,1.8370341E0,1.1514607E-1,1.7128439E0,4.069626E0,2.2572062E0,-4.580477E-2,1.818166E0,-1.19562194E-1,-9.228063E-1,-7.9212767E-1,4.9842083E-1,1.061695E0,2.5532994E0,4.5281237E-1,2.4485939E0,5.523784E-1,1.5156482E0,1.007706E0,3.8348186E0,2.1225805E0,1.4137009E0,1.2419164E0,3.1123435E0,6.522314E-1,-5.855727E-1,-5.90685E-1,-5.517176E-3,1.9847153E-2,1.2100292E0,-9.7660524E-1,3.1675243E-1,1.7444815E-1,2.4638617E0,2.753827E0,3.3322873E0,1.3074478E0,2.8519661E0,3.4301534E0,7.740415E-1,3.348418E0,1.8697741E0,1.0514139E0,-1.0372164E0,-9.592392E-1,-1.157205E0,2.1970345E-1,-4.749757E-1,-1.1351769E0,-6.072858E-1,7.294295E-1,-7.2131056E-1,-1.1138552E0,-1.19562194E-1,-3.9497906E-1,1.3282379E0,3.0799665E0,6.25852E-1,-8.718969E-1,-2.8713465E-2,7.539449E-1,3.1742835E0,1.4049785E-1,-1.0008425E0,-2.7549842E-2,3.6546574E0,-3.6088914E-1,4.5439723E-1,1.9927417E0,1.669223E-1,9.3521744E-1,3.085728E0,1.043754E0,-2.734578E-1,-1.19562194E-1,2.4475534E0,-9.268993E-1,-1.19562194E-1,1.3645345E0,-6.142611E-1,1.6722949E0,8.094065E-2,3.0241506E0,3.484147E-1,-6.901291E-1,9.7324175E-1,2.554834E0,2.395663E-1,9.0669817E-1,6.5723164E-3,2.109722E0,8.259655E-1,8.052543E-1,2.7057538E0,1.1908224E0,4.0415087E0,2.2561965E0,-4.4604335E-3,1.792607E0,9.5049536E-1,1.8723952E-2,1.7573975E0,3.2037582E0,7.294295E-1,-8.4884144E-2,1.3739251E0,4.8537713E-2,-9.365712E-1,-6.170047E-2,-7.329865E-1,-4.720573E-1,6.9708073E-1,-4.390778E-1,8.3135176E-1,8.521806E-1,1.919975E0,2.6803666E-1,2.5695345E0,1.4055979E0,2.9370885E0,3.3696997E0,1.043754E0,2.2401254E0,6.9959503E-1,8.698356E-1,3.5390363E0,-3.6513746E-1,1.8592334E0,1.5732299E0,2.8177145E0,-5.6372064E-1,1.571161E0,-1.1067168E0,-8.626075E-2,5.4556805E-1,-9.938447E-1,-1.1044852E0,-1.2006485E0,2.6605735E0,4.3301515E-2,-6.2636065E-1,-1.2430984E-1,-4.7744828E-1,-1.1451577E0,-3.7943906E-1,-1.0150282E0,3.751367E-1,-7.960076E-1,1.4389294E0,-6.5474904E-1,7.294295E-1,3.2286468E0,1.3645345E0,-1.05625E-1,-9.0697986E-1,1.6978298E-1,9.153363E-1,-5.269617E-1,1.9369901E0,4.914566E-1,3.6164887E0,6.067368E-1,-1.6459298E-1,1.5886046E0,-1.142115E0,-7.031711E-1,-4.5186406E-1,8.698356E-1,-6.890986E-1,3.484147E-1,9.634226E-1,-2.7136838E-1,-1.19562194E-1,2.1590176E0,6.802532E-1,-6.142611E-1,1.3573841E0,-6.901291E-1,3.438612E0,1.4320654E0,-6.058325E-1,6.9708073E-1,2.6151812E0,4.3200153E-1,-7.489989E-1,7.3358494E-1,3.1692367E0,8.698356E-1,-6.901291E-1,1.3645345E0,1.4843343E0,-1.9335619E-1,2.6336715E0,-1.19562194E-1,1.8165084E0,5.222172E-1,-2.3887621E-1,7.3853725E-1,1.0584676E0,2.5488074E0,5.82902E-2,2.2606378E0,1.5781769E0,3.9140177E-1,2.6068884E-1,2.4254313E0,6.067368E-1,-6.5474904E-1,8.9782715E-1,1.9598101E0,1.1582572E0,-5.9788194E-2,1.7444815E-1,2.5317957E0,3.4033031E0,1.3914753E0,-7.53455E-1,6.7035884E-1,2.395663E-1,1.7201287E0,-6.901291E-1,8.698356E-1,-5.448561E-1,9.0524256E-1,-8.0646235E-1,9.196601E-2,-7.2349507E-1,2.6803666E-1,-3.1467226E-1,1.4713141E0,3.1675243E-1,-7.0138556E-1,1.8723952E-2,1.2751402E0,1.2973993E0,1.9928432E-1,6.4995176E-1,2.7295787E0,3.2101734E0,1.642292E0,1.6310056E0,1.7444815E-1,1.5016057E0,3.059097E0,2.6643069E0,3.5391135E0,1.8723952E-2,2.6676674E0,8.586876E-2,1.5086882E0,1.919001E0,2.4507768E-1,4.1998562E-1,-8.534972E-1,1.749996E0,-3.2893872E-1,-6.4844275E-1,1.1703082E0,-1.882917E-1,1.6419526E0,-1.0997963E0,-7.1211135E-1,-6.64836E-1,-1.1291146E0,-1.9335619E-1,2.9355385E0,-2.2953E-1,1.0590342E0,-7.056457E-1,2.1176922E-1,-4.367134E-1,3.2298514E-1,-7.960076E-1,9.196601E-2,-6.5847796E-1,-1.1603721E0,2.8655338E-1,-6.382248E-1,1.8723952E-2,-1.1313584E0,1.5770347E0,-1.5885486E-1,-6.7315835E-1,-1.0731465E0,8.698356E-1,-6.142611E-1,1.4923184E0,-6.142611E-1,6.067368E-1,-7.9868317E-1,-6.5474904E-1,2.1665785E0,2.816238E-1,1.5465441E0,3.9391134E0,1.1908224E0,-4.270753E-1,6.84043E-1,2.310714E0,9.196601E-2,-1.0467722E0,-1.1933738E0,-2.6866803E-1,-8.429284E-1,3.751367E-1,-8.344118E-1,-9.7660524E-1,3.751367E-1,-6.901291E-1,1.3645345E0,-4.508163E-1,1.5795684E0,-8.804288E-1,5.8475757E-1,2.968386E0,1.1462708E0,2.1476765E0,4.4079742E-1,1.043754E0,3.9802334E0,2.6803666E-1,1.9036027E0,-1.0212281E0,4.2640656E-2,-3.6513746E-1,1.6522152E0,-6.142611E-1,1.043754E0,-1.9335619E-1,1.3645345E0,3.751367E-1,1.8592334E0,1.7799118E0,2.9402575E0,2.1000636E0,-6.142611E-1,9.2665035E-1,2.2146782E-2,6.9708073E-1,-4.1261375E-1,-2.5784048E-1,1.0012934E0,1.541133E0,-1.05625E-1,2.7451224E0,6.067368E-1,-3.1985056E-1,9.6215993E-1,2.7034175E0,2.6803666E-1,9.196601E-2,1.8526416E0,1.3024675E0,-1.1920039E-1,9.2994887E-1,-6.901291E-1,1.0059075E0,2.6408107E0,1.6012765E0,-5.3193673E-2,1.6411991E0,3.0201893E0,-1.05625E-1,1.2854648E0,6.802532E-1,-6.0468376E-1,-3.1467226E-1,2.5317957E0,-1.19562194E-1,-8.9339453E-1,1.3607837E0,-6.5474904E-1,2.0360086E0,4.986043E-1,-8.804288E-1,2.6803666E-1,-1.19562194E-1,-8.41498E-1,-8.663759E-1,-1.19562194E-1,9.196601E-2,-9.620539E-1,2.3861985E0,6.3205826E-1,-2.0342323E-1,8.8105977E-1,1.0497864E0,-2.5784048E-1,3.4440753E0,3.751367E-1,9.421414E-1,2.868591E0,4.0258536E-1,1.9583309E0,9.196601E-2,2.0224767E0,3.1548407E0,1.3024675E0,1.1556965E0,2.9768035E0,-6.890986E-1,8.849613E-1,1.997339E0,-4.674836E-2,4.0258536E-1,2.0774655E0,8.698356E-1,-1.3977131E-1,8.698356E-1,-1.9335619E-1,-1.0339473E0,-2.072131E-1,2.1520123E0,7.676746E-1,3.751367E-1,-7.489989E-1,-9.54093E-1,3.751367E-1,-9.1704804E-1,2.3381734E-1,2.013777E0,-7.2131056E-1,-1.1668024E0,-9.9820065E-1,3.9056993E-1,-7.9248613E-1],"categories":[],"categories_nodes":[],"categories_segments":[],"categories_sizes":[],"default_left":[0,0,0,0,0,0,0,0,0,0,0,0,0,0,0,0,0,0,0,0,0,0,0,0,0,0,0,0,0,0,0,0,0,0,0,0,0,0,0,0,0,0,0,0,0,0,0,0,0,0,0,0,0,0,0,0,0,0,0,0,0,0,0,0,0,0,0,0,0,0,0,0,0,0,0,0,0,0,0,0,0,0,0,0,0,0,0,0,0,0,0,0,0,0,0,0,0,0,0,0,0,0,0,0,0,0,0,0,0,0,0,0,0,0,0,0,0,0,0,0,0,0,0,0,0,0,0,0,0,0,0,0,0,0,0,0,0,0,0,0,0,0,0,0,0,0,0,0,0,0,0,0,0,0,0,0,0,0,0,0,0,0,0,0,0,0,0,0,0,0,0,0,0,0,0,0,0,0,0,0,0,0,0,0,0,0,0,0,0,0,0,0,0,0,0,0,0,0,0,0,0,0,0,0,0,0,0,0,0,0,0,0,0,0,0,0,0,0,0,0,0,0,0,0,0,0,0,0,0,0,0,0,0,0,0,0,0,0,0,0,0,0,0,0,0,0,0,0,0,0,0,0,0,0,0,0,0,0,0,0,0,0,0,0,0,0,0,0,0,0,0,0,0,0,0,0,0,0,0,0,0,0,0,0,0,0,0,0,0,0,0,0,0,0,0,0,0,0,0,0,0,0,0,0,0,0,0,0,0,0,0,0,0,0,0,0,0,0,0,0,0,0,0,0,0,0,0,0,0,0,0,0,0,0,0,0,0,0,0,0,0,0,0,0,0,0,0,0,0,0,0,0,0,0,0,0,0,0,0,0,0,0,0,0,0,0,0,0,0,0,0,0,0,0,0,0,0,0,0,0,0,0,0,0,0,0,0,0,0,0,0,0,0,0,0,0,0,0,0,0,0,0,0,0,0,0,0,0,0,0,0,0,0,0,0,0,0,0,0,0,0,0,0,0,0,0,0,0,0,0,0,0,0,0,0,0,0,0,0,0,0,0,0,0,0,0,0,0,0,0,0,0,0,0,0,0,0,0,0,0,0,0,0,0,0,0,0,0,0,0,0,0,0,0,0,0,0,0,0,0,0,0,0,0,0,0,0,0,0,0,0,0,0,0,0,0,0,0,0],"id":0,"left_children":[1,3,5,7,9,11,13,15,17,19,21,23,25,27,29,31,33,35,37,39,41,43,45,47,49,51,53,55,57,59,61,63,65,67,69,71,73,75,77,-1,-1,79,81,83,85,87,-1,89,91,93,95,97,99,101,103,-1,105,107,-1,109,-1,111,113,115,117,119,121,123,125,127,129,131,133,135,137,139,141,-1,143,145,147,-1,-1,149,151,153,155,157,159,161,163,165,167,169,171,173,175,177,179,181,183,185,187,-1,-1,-1,189,191,193,195,-1,197,199,-1,201,203,205,207,209,211,213,215,217,-1,-1,-1,-1,219,221,223,225,227,229,231,233,235,237,239,-1,241,243,245,247,249,251,-1,253,-1,-1,-1,-1,-1,-1,255,257,259,261,-1,263,265,-1,267,269,271,273,275,-1,-1,-1,277,279,281,283,-1,285,287,-1,289,291,293,-1,295,297,299,301,303,305,307,309,-1,311,313,315,317,-1,319,321,-1,-1,-1,-1,323,-1,325,327,-1,329,331,333,335,-1,337,339,341,343,345,347,349,351,-1,-1,353,-1,-1,-1,-1,-1,355,357,359,361,363,365,367,-1,369,371,373,375,377,-1,379,381,383,385,-1,387,-1,-1,389,-1,391,393,395,397,-1,399,-1,401,-1,-1,-1,-1,403,-1,405,-1,407,409,411,413,415,417,419,421,423,425,427,429,-1,-1,431,433,435,437,-1,-1,-1,439,441,443,-1,445,-1,-1,447,-1,449,-1,451,-1,-1,-1,-1,453,-1,-1,455,457,459,-1,461,463,465,-1,467,-1,469,-1,-1,471,473,475,477,479,481,483,485,487,489,-1,491,493,495,497,-1,-1,-1,-1,-1,-1,-1,-1,-1,-1,-1,-1,-1,-1,-1,-1,-1,-1,-1,-1,-1,-1,-1,-1,-1,-1,-1,-1,-1,-1,-1,-1,-1,-1,-1,-1,-1,-1,-1,-1,-1,-1,-1,-1,-1,-1,-1,-1,-1,-1,-1,-1,-1,-1,-1,-1,-1,-1,-1,-1,-1,-1,-1,-1,-1,-1,-1,-1,-1,-1,-1,-1,-1,-1,-1,-1,-1,-1,-1,-1,-1,-1,-1,-1,-1,-1,-1,-1,-1,-1,-1,-1,-1,-1,-1,-1,-1,-1,-1,-1,-1,-1,-1,-1,-1,-1,-1,-1,-1,-1,-1,-1,-1,-1,-1,-1,-1,-1,-1,-1,-1,-1,-1,-1,-1,-1,-1,-1,-1,-1,-1,-1,-1,-1,-1,-1,-1,-1,-1,-1,-1,-1,-1,-1,-1,-1,-1,-1,-1,-1,-1,-1,-1,-1,-1,-1,-1,-1,-1,-1,-1,-1,-1,-1],"loss_changes":[3.2404707E3,7.835E2,3.282793E2,4.7521558E2,2.5136966E2,1.189606E2,2.3871216E1,2.593772E2,1.2685222E3,1.1117359E1,4.1269714E1,4.763147E1,1.8580647E1,7.3203125E0,1.8985992E1,1.7924805E2,8.031466E1,1.5973549E2,1.9454602E2,5.767212E-1,8.9819975E0,2.7955208E1,5.081427E1,2.2771957E1,2.294223E1,6.5564218E0,1.2726826E1,6.5128937E0,4.928955E0,1.0758743E1,2.0934753E0,5.962793E1,1.2161289E2,2.0566044E0,2.4191833E1,1.27370804E2,6.441461E1,2.2415344E1,3.1011108E1,0E0,0E0,1.1525773E1,3.9545488E-1,3.0895617E0,8.421463E0,1.43190155E1,0E0,1.9775902E1,5.7413185E1,8.754669E0,7.403305E0,6.9529257E0,1.946722E0,1.100425E1,2.6733682E0,0E0,5.722763E0,3.5546875E-1,0E0,1.0007973E1,0E0,1.1864075E1,3.0175247E0,1.26068405E2,2.7982666E1,4.594569E1,9.181305E0,2.4224033E0,6.9582653E-1,8.91964E0,1.1690323E1,7.109539E0,4.0230766E1,2.936322E1,2.9205622E1,3.2240055E0,7.234783E0,0E0,1.5790138E1,3.9356902E0,5.605295E0,0E0,0E0,3.6338878E-1,3.7706149E0,5.7064857E0,1.1952133E1,3.9571424E0,8.560654E0,1.325293E1,1.1640762E1,7.595583E0,8.373108E-1,1.1947647E1,7.588951E0,3.3578253E0,2.8077393E0,7.867691E0,1.5346498E0,1.7875023E0,3.09622E0,4.650146E0,6.032112E0,0E0,0E0,0E0,4.6221313E0,7.8359985E0,3.414795E0,1.3311317E1,0E0,1.6750336E0,5.162103E0,0E0,1.5087738E0,3.6513233E1,5.911339E0,7.167224E1,2.40625E0,8.934388E1,9.255146E0,6.1312866E-1,3.9237595E0,0E0,0E0,0E0,0E0,1.5087566E0,7.0870285E0,2.7879944E0,2.261342E0,2.6222115E0,6.512233E0,2.9038578E1,6.3964386E0,1.1082549E1,1.8034393E1,2.3851187E0,0E0,2.2053585E0,4.5121965E0,5.4268913E0,1.9306296E0,6.428922E0,9.38591E-1,0E0,4.604707E0,0E0,0E0,0E0,0E0,0E0,0E0,5.8416424E0,3.1460898E0,4.291916E-1,4.4607644E0,0E0,2.7973018E0,8.155701E0,0E0,1.3591171E1,5.205989E0,5.1054306E0,1.8326216E1,7.963814E0,0E0,0E0,0E0,1.2714844E1,1.7806486E0,2.4287643E0,5.516556E0,0E0,4.1827345E0,3.3830566E0,0E0,4.620303E0,2.502058E0,2.6233468E0,0E0,3.4145641E0,1.2315283E0,1.2489282E0,3.4180715E0,1.8090601E0,1.5997205E0,6.0976067E0,7.8061714E0,0E0,7.6305084E0,1.85571E0,2.7118225E0,3.692627E-2,0E0,9.353489E0,8.482273E0,0E0,0E0,0E0,0E0,7.963272E0,0E0,3.5135589E0,1.1575966E1,0E0,5.8977394E0,2.5534039E1,3.9083862E1,7.3564453E0,0E0,1.1543465E1,5.422132E1,8.293045E0,7.7232075E0,8.633742E-1,5.1934814E-1,5.586229E0,1.9488506E0,0E0,0E0,6.170368E0,0E0,0E0,0E0,0E0,0E0,1.8223457E0,2.204449E0,5.147522E0,3.2649083E0,1.1651344E1,1.7359903E1,2.0275116E-1,0E0,5.0003996E0,4.495326E0,2.2753906E-1,8.68631E0,1.6449924E0,0E0,2.2349968E0,4.4607644E0,6.796637E0,3.3949604E0,0E0,7.8229637E0,0E0,0E0,3.8999586E0,0E0,5.659981E0,1.400217E0,2.789232E0,4.4306746E0,0E0,3.0557127E0,0E0,2.1288102E0,0E0,0E0,0E0,0E0,5.6786823E-1,0E0,4.233185E0,0E0,9.522411E0,6.1725283E0,3.8196096E0,2.1626723E0,3.9221406E0,2.6099854E0,4.3900566E0,4.406145E0,3.5112476E0,8.90184E0,3.3209307E0,8.445587E0,0E0,0E0,4.268455E0,2.7265854E0,3.604435E0,2.5798154E0,0E0,0E0,0E0,8.420101E0,3.18434E-1,4.876343E0,0E0,1.1161022E0,0E0,0E0,1.5436865E0,0E0,3.2378674E-1,0E0,2.8489852E-1,0E0,0E0,0E0,0E0,1.3816226E0,0E0,0E0,7.7784653E0,2.9376838E0,2.0636635E0,0E0,6.531502E0,6.675358E0,1.7845955E0,0E0,3.6552877E0,0E0,8.841156E0,0E0,0E0,4.3728256E-1,7.3737955E0,5.733383E0,2.6298294E0,1.3092928E0,1.0480106E0,8.2131195E-1,1.0094925E1,1.3535404E0,2.1316285E0,0E0,6.2675414E0,1.2589001E1,5.4299316E0,3.2910355E1,0E0,0E0,0E0,0E0,0E0,0E0,0E0,0E0,0E0,0E0,0E0,0E0,0E0,0E0,0E0,0E0,0E0,0E0,0E0,0E0,0E0,0E0,0E0,0E0,0E0,0E0,0E0,0E0,0E0,0E0,0E0,0E0,0E0,0E0,0E0,0E0,0E0,0E0,0E0,0E0,0E0,0E0,0E0,0E0,0E0,0E0,0E0,0E0,0E0,0E0,0E0,0E0,0E0,0E0,0E0,0E0,0E0,0E0,0E0,0E0,0E0,0E0,0E0,0E0,0E0,0E0,0E0,0E0,0E0,0E0,0E0,0E0,0E0,0E0,0E0,0E0,0E0,0E0,0E0,0E0,0E0,0E0,0E0,0E0,0E0,0E0,0E0,0E0,0E0,0E0,0E0,0E0,0E0,0E0,0E0,0E0,0E0,0E0,0E0,0E0,0E0,0E0,0E0,0E0,0E0,0E0,0E0,0E0,0E0,0E0,0E0,0E0,0E0,0E0,0E0,0E0,0E0,0E0,0E0,0E0,0E0,0E0,0E0,0E0,0E0,0E0,0E0,0E0,0E0,0E0,0E0,0E0,0E0,0E0,0E0,0E0,0E0,0E0,0E0,0E0,0E0,0E0,0E0,0E0,0E0,0E0,0E0,0E0,0E0,0E0,0E0,0E0,0E0,0E0,0E0,0E0,0E0,0E0,0E0,0E0,0E0,0E0,0E0,0E0],"parents":[2147483647,0,0,1,1,2,2,3,3,4,4,5,5,6,6,7,7,8,8,9,9,10,10,11,11,12,12,13,13,14,14,15,15,16,16,17,17,18,18,19,19,20,20,21,21,22,22,23,23,24,24,25,25,26,26,27,27,28,28,29,29,30,30,31,31,32,32,33,33,34,34,35,35,36,36,37,37,38,38,41,41,42,42,43,43,44,44,45,45,47,47,48,48,49,49,50,50,51,51,52,52,53,53,54,54,56,56,57,57,59,59,61,61,62,62,63,63,64,64,65,65,66,66,67,67,68,68,69,69,70,70,71,71,72,72,73,73,74,74,75,75,76,76,78,78,79,79,80,80,83,83,84,84,85,85,86,86,87,87,88,88,89,89,90,90,91,91,92,92,93,93,94,94,95,95,96,96,97,97,98,98,99,99,100,100,101,101,102,102,106,106,107,107,108,108,109,109,111,111,112,112,114,114,115,115,116,116,117,117,118,118,119,119,120,120,121,121,122,122,127,127,128,128,129,129,130,130,131,131,132,132,133,133,134,134,135,135,136,136,137,137,139,139,140,140,141,141,142,142,143,143,144,144,146,146,153,153,154,154,155,155,156,156,158,158,159,159,161,161,162,162,163,163,164,164,165,165,169,169,170,170,171,171,172,172,174,174,175,175,177,177,178,178,179,179,181,181,182,182,183,183,184,184,185,185,186,186,187,187,188,188,190,190,191,191,192,192,193,193,195,195,196,196,201,201,203,203,204,204,206,206,207,207,208,208,209,209,211,211,212,212,213,213,214,214,215,215,216,216,217,217,218,218,221,221,227,227,228,228,229,229,230,230,231,231,232,232,233,233,235,235,236,236,237,237,238,238,239,239,241,241,242,242,243,243,244,244,246,246,249,249,251,251,252,252,253,253,254,254,256,256,258,258,263,263,265,265,267,267,268,268,269,269,270,270,271,271,272,272,273,273,274,274,275,275,276,276,277,277,278,278,281,281,282,282,283,283,284,284,288,288,289,289,290,290,292,292,295,295,297,297,299,299,304,304,307,307,308,308,309,309,311,311,312,312,313,313,315,315,317,317,320,320,321,321,322,322,323,323,324,324,325,325,326,326,327,327,328,328,329,329,331,331,332,332,333,333,334,334],"right_children":[2,4,6,8,10,12,14,16,18,20,22,24,26,28,30,32,34,36,38,40,42,44,46,48,50,52,54,56,58,60,62,64,66,68,70,72,74,76,78,-1,-1,80,82,84,86,88,-1,90,92,94,96,98,100,102,104,-1,106,108,-1,110,-1,112,114,116,118,120,122,124,126,128,130,132,134,136,138,140,142,-1,144,146,148,-1,-1,150,152,154,156,158,160,162,164,166,168,170,172,174,176,178,180,182,184,186,188,-1,-1,-1,190,192,194,196,-1,198,200,-1,202,204,206,208,210,212,214,216,218,-1,-1,-1,-1,220,222,224,226,228,230,232,234,236,238,240,-1,242,244,246,248,250,252,-1,254,-1,-1,-1,-1,-1,-1,256,258,260,262,-1,264,266,-1,268,270,272,274,276,-1,-1,-1,278,280,282,284,-1,286,288,-1,290,292,294,-1,296,298,300,302,304,306,308,310,-1,312,314,316,318,-1,320,322,-1,-1,-1,-1,324,-1,326,328,-1,330,332,334,336,-1,338,340,342,344,346,348,350,352,-1,-1,354,-1,-1,-1,-1,-1,356,358,360,362,364,366,368,-1,370,372,374,376,378,-1,380,382,384,386,-1,388,-1,-1,390,-1,392,394,396,398,-1,400,-1,402,-1,-1,-1,-1,404,-1,406,-1,408,410,412,414,416,418,420,422,424,426,428,430,-1,-1,432,434,436,438,-1,-1,-1,440,442,444,-1,446,-1,-1,448,-1,450,-1,452,-1,-1,-1,-1,454,-1,-1,456,458,460,-1,462,464,466,-1,468,-1,470,-1,-1,472,474,476,478,480,482,484,486,488,490,-1,492,494,496,498,-1,-1,-1,-1,-1,-1,-1,-1,-1,-1,-1,-1,-1,-1,-1,-1,-1,-1,-1,-1,-1,-1,-1,-1,-1,-1,-1,-1,-1,-1,-1,-1,-1,-1,-1,-1,-1,-1,-1,-1,-1,-1,-1,-1,-1,-1,-1,-1,-1,-1,-1,-1,-1,-1,-1,-1,-1,-1,-1,-1,-1,-1,-1,-1,-1,-1,-1,-1,-1,-1,-1,-1,-1,-1,-1,-1,-1,-1,-1,-1,-1,-1,-1,-1,-1,-1,-1,-1,-1,-1,-1,-1,-1,-1,-1,-1,-1,-1,-1,-1,-1,-1,-1,-1,-1,-1,-1,-1,-1,-1,-1,-1,-1,-1,-1,-1,-1,-1,-1,-1,-1,-1,-1,-1,-1,-1,-1,-1,-1,-1,-1,-1,-1,-1,-1,-1,-1,-1,-1,-1,-1,-1,-1,-1,-1,-1,-1,-1,-1,-1,-1,-1,-1,-1,-1,-1,-1,-1,-1,-1,-1,-1,-1,-1],"split_conditions":[5.23E2,1E1,7.99E2,1.5E1,1.3E2,2E0,1E0,6.1E1,2E0,7.9E1,2E0,6.35E2,6.35E2,2E0,1.002E3,3.13E2,1.26E2,1E0,1.62E2,2.9E1,5.5E1,1.7E2,7.1E1,5E0,9E0,7E0,2.651E3,3.6E1,1.3E1,6.7E3,7E0,1E0,2E0,1.98E2,2.99E2,1.59E2,3.78E2,1.18E2,2.03E2,-1.1322024E0,-1.9335619E-1,4.7E1,2E0,1E0,1.3E1,5E0,4.184922E0,6E0,2E0,1.6E1,1E0,4.8E1,3E0,4.5E1,5E0,-1.19562194E-1,-1.64E2,9.49E2,6.067368E-1,1.802E3,-7.2131056E-1,9E0,1E0,1E0,1E0,1E0,4.55E2,2E0,6.332E3,4E0,3.698E3,1.44E2,3.73E2,1E2,2.11E2,8E1,1.56E2,4.069626E0,2.73E2,8.5E1,2E0,-1.19562194E-1,-9.228063E-1,6.2E1,1.64E2,5E0,1E0,1.1E1,9.618E3,1E0,1.7E1,3.71E2,5E0,1E1,1E0,3E0,3E0,3E0,1.3E1,5.6E1,5.81E2,2.2E1,2E0,-9.7660524E-1,3.1675243E-1,1.7444815E-1,3E0,1E0,6.5E1,2E0,2.8519661E0,2E0,3E0,3.348418E0,3.111E3,1.08E2,2.1E1,2.6E1,1E0,1E0,2E0,6E0,8.59E2,7.294295E-1,-7.2131056E-1,-1.1138552E0,-1.19562194E-1,6.3E1,6E0,7E1,1.1E1,3.78E2,1.06E2,9.4E1,5.7E1,3.06E2,2.13E2,6E0,3.6546574E0,1.269E3,1.149E3,8.6E1,3.7E1,2.586E3,8E0,1.043754E0,9E0,-1.19562194E-1,2.4475534E0,-9.268993E-1,-1.19562194E-1,1.3645345E0,-6.142611E-1,3.8E1,2.73E2,7.3E1,2.38E2,-6.901291E-1,6E0,1.1E1,2.395663E-1,2E0,6.08E2,5.54E2,2.1E1,1E0,2.7057538E0,1.1908224E0,4.0415087E0,1E0,7.47E2,6.51E2,4.7E1,1.8723952E-2,1.55E2,4E0,7.294295E-1,6E0,5.54E2,1E1,-9.365712E-1,6E0,5.5E1,2E0,1.7E1,-1.64E2,4E0,7.14E2,7.02E2,2.6803666E-1,1.6E1,9.03E2,1E0,9E0,1.043754E0,2E0,1.9E1,8.698356E-1,3.5390363E0,-3.6513746E-1,1.8592334E0,2E0,2.8177145E0,2.15E2,1E0,-1.1067168E0,1.691E3,1.7E2,1.85E2,5E0,-1.2006485E0,1E0,6E0,5.5E1,2E0,1.49E2,-3.95E2,8E0,1E0,3.751367E-1,-7.960076E-1,3E0,-6.5474904E-1,7.294295E-1,3.2286468E0,1.3645345E0,-1.05625E-1,1.5E1,5.08E2,6E0,5E0,7E1,4.04E2,6E0,6.067368E-1,2.876E3,3.6E1,8E0,1.89E2,3.99E2,8.698356E-1,4.8E1,6.1E1,2E0,3E0,-1.19562194E-1,1.03E2,6.802532E-1,-6.142611E-1,1E0,-6.901291E-1,2.72E2,4.19E2,1.1E1,1.5E1,2.6151812E0,3E0,-7.489989E-1,2E0,3.1692367E0,8.698356E-1,-6.901291E-1,1.3645345E0,1.291E3,-1.9335619E-1,1.85E2,-1.19562194E-1,2.794E3,4E0,1E0,1E2,5.43E2,5.7E1,7E0,8E0,1E0,1.98E2,4.1E1,1E0,6.067368E-1,-6.5474904E-1,2.8E1,3E1,2.7E1,2E0,1.7444815E-1,2.5317957E0,3.4033031E0,3.61E2,1E0,5.95E2,2.395663E-1,5.95E2,-6.901291E-1,8.698356E-1,2.2E1,9.0524256E-1,2.8E1,9.196601E-2,2E0,2.6803666E-1,-3.1467226E-1,1.4713141E0,3.1675243E-1,1E0,1.8723952E-2,1.2751402E0,7E0,7.47E2,3.3E1,2.7295787E0,5.4E1,8E0,4E0,1.7444815E-1,1.6E1,3.059097E0,7E0,3.5391135E0,1.8723952E-2,8E0,9.03E2,1E0,1E0,8E0,3.6E1,9.6E1,2.7E1,1E0,4E0,1.1703082E0,8.9E1,1E0,1.15E2,4E0,-6.64836E-1,-1.1291146E0,-1.9335619E-1,2.9355385E0,-2.2953E-1,1.0590342E0,-7.056457E-1,2.1176922E-1,-4.367134E-1,3.2298514E-1,-7.960076E-1,9.196601E-2,-6.5847796E-1,-1.1603721E0,2.8655338E-1,-6.382248E-1,1.8723952E-2,-1.1313584E0,1.5770347E0,-1.5885486E-1,-6.7315835E-1,-1.0731465E0,8.698356E-1,-6.142611E-1,1.4923184E0,-6.142611E-1,6.067368E-1,-7.9868317E-1,-6.5474904E-1,2.1665785E0,2.816238E-1,1.5465441E0,3.9391134E0,1.1908224E0,-4.270753E-1,6.84043E-1,2.310714E0,9.196601E-2,-1.0467722E0,-1.1933738E0,-2.6866803E-1,-8.429284E-1,3.751367E-1,-8.344118E-1,-9.7660524E-1,3.751367E-1,-6.901291E-1,1.3645345E0,-4.508163E-1,1.5795684E0,-8.804288E-1,5.8475757E-1,2.968386E0,1.1462708E0,2.1476765E0,4.4079742E-1,1.043754E0,3.9802334E0,2.6803666E-1,1.9036027E0,-1.0212281E0,4.2640656E-2,-3.6513746E-1,1.6522152E0,-6.142611E-1,1.043754E0,-1.9335619E-1,1.3645345E0,3.751367E-1,1.8592334E0,1.7799118E0,2.9402575E0,2.1000636E0,-6.142611E-1,9.2665035E-1,2.2146782E-2,6.9708073E-1,-4.1261375E-1,-2.5784048E-1,1.0012934E0,1.541133E0,-1.05625E-1,2.7451224E0,6.067368E-1,-3.1985056E-1,9.6215993E-1,2.7034175E0,2.6803666E-1,9.196601E-2,1.8526416E0,1.3024675E0,-1.1920039E-1,9.2994887E-1,-6.901291E-1,1.0059075E0,2.6408107E0,1.6012765E0,-5.3193673E-2,1.6411991E0,3.0201893E0,-1.05625E-1,1.2854648E0,6.802532E-1,-6.0468376E-1,-3.1467226E-1,2.5317957E0,-1.19562194E-1,-8.9339453E-1,1.3607837E0,-6.5474904E-1,2.0360086E0,4.986043E-1,-8.804288E-1,2.6803666E-1,-1.19562194E-1,-8.41498E-1,-8.663759E-1,-1.19562194E-1,9.196601E-2,-9.620539E-1,2.3861985E0,6.3205826E-1,-2.0342323E-1,8.8105977E-1,1.0497864E0,-2.5784048E-1,3.4440753E0,3.751367E-1,9.421414E-1,2.868591E0,4.0258536E-1,1.9583309E0,9.196601E-2,2.0224767E0,3.1548407E0,1.3024675E0,1.1556965E0,2.9768035E0,-6.890986E-1,8.849613E-1,1.997339E0,-4.674836E-2,4.0258536E-1,2.0774655E0,8.698356E-1,-1.3977131E-1,8.698356E-1,-1.9335619E-1,-1.0339473E0,-2.072131E-1,2.1520123E0,7.676746E-1,3.751367E-1,-7.489989E-1,-9.54093E-1,3.751367E-1,-9.1704804E-1,2.3381734E-1,2.013777E0,-7.2131056E-1,-1.1668024E0,-9.9820065E-1,3.9056993E-1,-7.9248613E-1],"split_indices":[11,10,11,13,11,8,8,0,15,11,15,11,11,15,11,11,11,6,11,9,0,11,13,13,13,10,5,13,12,5,10,10,8,5,11,11,13,11,13,0,0,0,1,6,9,9,0,10,15,9,10,0,12,5,1,0,5,11,0,5,0,1,2,6,6,6,11,12,5,9,5,11,13,13,11,11,11,0,11,11,15,0,0,0,13,1,6,10,5,6,9,13,5,1,6,1,3,1,9,5,5,9,2,0,0,0,9,5,0,12,0,10,12,0,5,11,9,0,8,10,2,10,5,0,0,0,0,0,12,5,9,13,13,13,0,11,11,1,0,5,5,13,0,5,10,0,1,0,0,0,0,0,0,0,11,0,13,0,1,1,0,12,11,11,9,6,0,0,0,10,11,11,0,0,13,12,0,9,11,9,0,1,0,3,9,5,1,5,11,0,9,11,10,9,0,5,9,0,0,0,0,3,0,5,8,0,5,11,11,9,0,3,10,0,3,5,5,10,2,0,0,3,0,0,0,0,0,9,13,1,9,5,11,10,0,5,0,10,13,13,0,0,11,1,14,0,13,0,0,6,0,13,5,10,9,0,14,0,2,0,0,0,0,5,0,11,0,5,10,3,5,11,0,1,1,3,5,0,3,0,0,9,9,0,12,0,0,0,5,1,11,0,11,0,0,9,0,0,0,2,0,0,0,0,6,0,0,10,11,0,0,0,1,10,0,9,0,9,0,0,9,11,7,6,9,0,11,9,3,12,0,11,7,11,9,0,0,0,0,0,0,0,0,0,0,0,0,0,0,0,0,0,0,0,0,0,0,0,0,0,0,0,0,0,0,0,0,0,0,0,0,0,0,0,0,0,0,0,0,0,0,0,0,0,0,0,0,0,0,0,0,0,0,0,0,0,0,0,0,0,0,0,0,0,0,0,0,0,0,0,0,0,0,0,0,0,0,0,0,0,0,0,0,0,0,0,0,0,0,0,0,0,0,0,0,0,0,0,0,0,0,0,0,0,0,0,0,0,0,0,0,0,0,0,0,0,0,0,0,0,0,0,0,0,0,0,0,0,0,0,0,0,0,0,0,0,0,0,0,0,0,0,0,0,0,0,0,0,0,0,0,0,0,0,0,0,0,0,0],"split_type":[0,0,0,0,0,0,0,0,0,0,0,0,0,0,0,0,0,0,0,0,0,0,0,0,0,0,0,0,0,0,0,0,0,0,0,0,0,0,0,0,0,0,0,0,0,0,0,0,0,0,0,0,0,0,0,0,0,0,0,0,0,0,0,0,0,0,0,0,0,0,0,0,0,0,0,0,0,0,0,0,0,0,0,0,0,0,0,0,0,0,0,0,0,0,0,0,0,0,0,0,0,0,0,0,0,0,0,0,0,0,0,0,0,0,0,0,0,0,0,0,0,0,0,0,0,0,0,0,0,0,0,0,0,0,0,0,0,0,0,0,0,0,0,0,0,0,0,0,0,0,0,0,0,0,0,0,0,0,0,0,0,0,0,0,0,0,0,0,0,0,0,0,0,0,0,0,0,0,0,0,0,0,0,0,0,0,0,0,0,0,0,0,0,0,0,0,0,0,0,0,0,0,0,0,0,0,0,0,0,0,0,0,0,0,0,0,0,0,0,0,0,0,0,0,0,0,0,0,0,0,0,0,0,0,0,0,0,0,0,0,0,0,0,0,0,0,0,0,0,0,0,0,0,0,0,0,0,0,0,0,0,0,0,0,0,0,0,0,0,0,0,0,0,0,0,0,0,0,0,0,0,0,0,0,0,0,0,0,0,0,0,0,0,0,0,0,0,0,0,0,0,0,0,0,0,0,0,0,0,0,0,0,0,0,0,0,0,0,0,0,0,0,0,0,0,0,0,0,0,0,0,0,0,0,0,0,0,0,0,0,0,0,0,0,0,0,0,0,0,0,0,0,0,0,0,0,0,0,0,0,0,0,0,0,0,0,0,0,0,0,0,0,0,0,0,0,0,0,0,0,0,0,0,0,0,0,0,0,0,0,0,0,0,0,0,0,0,0,0,0,0,0,0,0,0,0,0,0,0,0,0,0,0,0,0,0,0,0,0,0,0,0,0,0,0,0,0,0,0,0,0,0,0,0,0,0,0,0,0,0,0,0,0,0,0,0,0,0,0,0,0,0,0,0,0,0,0,0,0,0,0,0,0,0,0,0,0,0,0,0,0,0,0,0,0,0,0,0,0,0,0,0,0,0,0,0,0,0,0,0,0,0,0,0,0,0,0,0,0],"sum_hessian":[5.2775913E3,4.6987314E3,5.7885986E2,4.5659453E3,1.327861E2,3.515184E2,2.2734149E2,3.7886357E3,7.7730945E2,3.9398075E1,9.338803E1,2.5594157E2,9.557681E1,1.529229E2,7.441859E1,3.7274958E3,6.1139977E1,6.5853156E2,1.187779E2,1.4737799E1,2.4660278E1,2.6557222E1,6.683081E1,1.3599632E2,1.1994525E2,5.0050148E1,4.5526665E1,2.422252E1,1.2870038E2,3.2393974E1,4.2024616E1,3.124851E3,6.0264465E2,1.459188E1,4.65481E1,1.8050156E2,4.7803E2,3.4436836E1,8.4341064E1,1.3570449E1,1.1673504E0,1.70725E1,7.5877776E0,6.2745085E0,2.0282713E1,4.260829E1,2.422252E1,9.9224785E1,3.6771538E1,9.295028E1,2.6994978E1,1.9261282E1,3.0788868E1,3.9689915E1,5.836752E0,1.0214316E0,2.320109E1,1.27387115E2,1.3132693E0,3.0934786E1,1.459188E0,1.8677607E1,2.3347008E1,1.3132692E2,2.9935242E3,3.8157767E2,2.2106699E2,2.6265385E0,1.1965342E1,2.9913355E1,1.6634743E1,7.83584E1,1.0214316E2,4.7044223E2,7.5877776E0,1.7948013E1,1.6488825E1,6.829E1,1.6051067E1,1.3716368E1,3.3561325E0,1.0214316E0,6.566346E0,4.231645E0,2.0428631E0,8.755128E0,1.1527585E1,4.523483E0,3.808481E1,6.75604E1,3.166438E1,2.7432735E1,9.338803E0,4.100318E1,5.1947094E1,4.377564E0,2.2617414E1,1.3570449E1,5.690833E0,2.3347008E1,7.441859E0,1.0506154E1,2.918376E1,4.0857263E0,1.7510257E0,1.3132693E0,2.188782E1,4.742361E1,7.99635E1,2.5243952E1,5.690833E0,1.6051067E1,2.6265385E0,3.2102137E0,2.0136795E1,4.144094E1,8.988598E1,1.3649244E3,1.6285997E3,2.0676694E2,1.7481073E2,1.7568623E2,4.538075E1,1.1673504E0,1.459188E0,1.094391E1,1.0214316E0,2.918376E0,2.6994978E1,1.3716368E1,2.918376E0,6.653897E1,1.1819423E1,9.557681E1,6.566346E0,2.3492928E1,4.4694928E2,4.231645E0,3.3561325E0,7.441859E0,1.0506154E1,1.3716368E1,2.7724571E0,7.0041027E0,9.046966E0,1.7510257E0,1.1965342E1,1.0214316E0,2.3347008E0,3.2102137E0,1.0214316E0,1.0214316E0,1.0214316E0,4.9612393E0,3.7938888E0,9.192884E0,2.3347008E0,1.3132693E0,3.2102137E0,3.6187862E1,1.8969444E0,4.0565426E1,2.6994978E1,1.5905149E1,1.5759231E1,2.5827627E1,1.6051068E0,1.1673504E0,8.1714525E0,3.8522564E1,2.4806197E0,2.6994978E1,2.4952114E1,1.6051068E0,2.7724571E0,2.1450064E1,1.1673504E0,7.150021E0,6.4204273E0,2.3347008E0,3.3561325E0,5.253077E0,1.8093931E1,4.6694016E0,2.7724571E0,7.0041027E0,3.5020514E0,2.0866388E1,8.317371E0,1.1673504E0,2.072047E1,6.712265E0,4.0711346E1,7.821248E1,1.7510257E0,8.901047E0,1.6342905E1,1.0214316E0,1.5029636E1,1.6051068E0,1.0214316E0,1.7364338E1,2.7724571E0,1.00683975E1,3.1372541E1,8.361147E1,6.2745085E0,3.035111E1,1.3345734E3,7.476879E2,8.809118E2,1.29867735E1,1.9378017E2,1.2155036E2,5.326036E1,3.3561325E0,1.7233011E2,3.035111E1,1.5029636E1,1.0214316E0,1.8969444E0,2.5827627E1,1.1673504E0,1.1673504E0,1.2549017E1,1.0214316E0,1.8969444E0,6.449611E1,2.0428631E0,3.7938888E0,8.025534E0,1.6196987E1,7.937983E1,5.253077E0,1.3132693E0,2.0136795E1,3.3561325E0,3.011764E2,1.4577289E2,3.2102137E0,1.0214316E0,5.107158E0,2.3347008E0,5.982671E0,4.523483E0,1.0214316E0,1.2694936E1,1.7510257E0,1.0214316E0,5.690833E0,1.3132693E0,6.566346E0,2.4806197E0,9.192884E0,2.7724571E0,2.188782E0,2.7724571E0,1.6051068E0,2.188782E0,8.1714525E0,1.0214316E0,1.3132693E0,1.0214316E0,2.0428631E0,1.1673504E0,3.516643E1,1.0214316E0,1.094391E1,2.9621517E1,2.072047E1,6.2745085E0,5.690833E0,1.0214316E1,1.094391E1,4.8153205E0,8.025534E0,1.7802094E1,3.2102137E0,3.531235E1,1.3132693E0,1.1673504E0,5.253077E0,2.1741901E1,2.057455E1,4.377564E0,1.3132693E0,1.459188E0,1.8531689E1,2.918376E0,3.7938888E0,3.3561325E0,1.8969444E0,4.523483E0,1.3132693E0,1.0214316E0,3.7938888E0,1.459188E0,1.6634743E1,1.459188E0,3.5020514E0,1.1673504E0,1.459188E0,1.3132693E0,1.7510257E0,5.253077E0,1.6051068E0,1.8969444E0,1.1819423E1,9.046966E0,3.9398077E0,4.377564E0,1.0797992E1,9.922479E0,5.398996E0,1.3132693E0,4.231645E0,3.6479702E1,1.8385769E1,5.982671E1,1.6051068E0,7.29594E0,9.922479E0,6.4204273E0,1.342453E1,3.9398077E0,2.188782E0,7.8796153E0,2.8746004E1,2.6265385E0,4.6694016E0,1.6051068E0,1.8677607E1,1.1673504E1,9.677335E2,3.6683987E2,4.11491E1,7.065388E2,1.1673504E0,1.1819423E1,1.5336066E2,4.041951E1,1.11190125E2,1.0360235E1,3.1372541E1,2.188782E1,1.8969444E0,1.459188E0,6.566346E0,1.6576376E2,8.46329E0,2.188782E1,1.6051068E0,1.342453E1,2.3784765E1,2.0428631E0,2.8891922E1,3.5604187E1,1.0214316E0,1.0214316E0,2.7724571E0,1.0214316E0,1.3132693E0,6.712265E0,1.1673504E0,1.5029636E1,6.726857E1,1.211126E1,4.0857263E0,1.1673504E0,1.5759231E1,4.377564E0,1.8969444E0,1.459188E0,1.12795235E2,1.8838118E2,3.6187862E1,1.0958502E2,1.0214316E0,2.188782E0,4.0857263E0,1.0214316E0,1.3132693E0,1.0214316E0,1.8969444E0,4.0857263E0,2.6265385E0,1.8969444E0,5.982671E0,6.712265E0,2.3347008E0,3.3561325E0,1.7510257E0,4.8153205E0,1.1673504E0,1.3132693E0,5.253077E0,3.9398077E0,1.6051068E0,1.1673504E0,1.0214316E0,1.7510257E0,1.1673504E0,1.0214316E0,1.0214316E0,1.0214316E0,1.10898285E1,2.4076603E1,9.922479E0,1.0214316E0,1.5905149E1,1.3716368E1,2.7724571E0,1.7948013E1,1.3132693E0,4.9612393E0,3.7938888E0,1.8969444E0,8.901047E0,1.3132693E0,8.1714525E0,2.7724571E0,3.64797E0,1.1673504E0,1.459188E0,6.566346E0,5.836752E0,1.1965342E1,1.8969444E0,1.3132693E0,5.398996E0,2.9913355E1,2.6265385E0,2.6265385E0,1.8677607E1,3.0642948E0,1.8969444E0,1.8677607E1,1.7510257E0,2.6265385E0,1.459188E0,1.459188E0,1.0214316E0,2.7724571E0,2.188782E0,1.1673504E0,3.0642948E0,1.459188E0,2.6265385E0,1.1673504E0,1.0214316E0,1.5613312E1,2.4806197E0,1.0214316E0,1.459188E0,3.7938888E0,3.5020514E0,8.317371E0,6.1285896E0,2.918376E0,2.6265385E0,1.3132693E0,9.77656E0,1.0214316E0,7.441859E0,2.4806197E0,1.6051068E0,3.7938888E0,1.459188E0,2.7724571E0,1.2549017E1,5.836752E0,2.0428631E0,5.253077E0,5.107158E0,4.8153205E0,4.6694016E0,1.7510257E0,1.6051068E0,1.1819423E1,1.0214316E0,2.918376E0,1.0214316E0,1.1673504E0,5.690833E0,2.188782E0,1.955312E1,9.192884E0,1.0214316E0,1.6051068E0,3.64797E0,1.0214316E0,6.4204273E0,1.2257179E1,1.0214316E1,1.459188E0,5.76817E2,3.9091647E2,2.4660278E1,3.421796E2],"tree_param":{"num_deleted":"0","num_feature":"48","num_nodes":"499","size_leaf_vector":"1"}},{"base_weights":[-5.9298694E-1,-7.858899E-1,-4.406806E-1,-9.7899634E-1,-6.977257E-1,-3.8130134E-1,-7.9345405E-1,-9.878699E-1,3.44176E-2,-6.0339886E-1,-9.95218E-1,-3.164413E-1,-7.574159E-1,-1.0716732E0,-5.628118E-1,-9.9716395E-1,-5.4918975E-1,1.0657111E0,-8.13339E-1,-8.9369875E-1,-5.2047294E-1,-1.0343322E0,1.3649597E0,-1.4866604E-1,-5.5453724E-1,-9.2016757E-1,-5.816537E-1,-4.1736454E-1,-1.2330736E0,-6.044491E-1,9.64922E-1,-1.0494387E0,-9.2822635E-1,8.510007E-1,-8.060673E-1,-9.3831845E-2,-9.230522E-1,-3.0740768E-1,-6.7996496E-1,-5.128045E-1,-1.0456886E0,1.5608881E-1,2.5773299E0,-2.0707981E-1,1.8059385E0,-7.859458E-1,-2.6528025E-1,-3.6555225E-1,-9.498005E-1,-6.539493E-1,3.631637E-1,-8.426742E-1,1.3387811E0,-9.153519E-1,-1.5704874E0,-4.6083435E-1,-1.1525726E0,1.3783791E0,-1.2609157E-1,-3.913171E-1,-1.0534995E0,-7.865501E-1,-9.887466E-1,-1.0082963E0,-1.11320235E-1,-5.482618E-1,5.368707E-1,-9.44529E-1,-9.763729E-2,-1.4360112E-1,-5.5676633E-1,-8.465293E-2,-7.674363E-1,-7.3906606E-1,3.576104E-1,-2.2195065E-1,-1.0497383E0,8.6635524E-1,-6.755525E-1,-3.4333792E-1,8.6593395E-3,2.899236E0,3.7727827E-1,6.391317E-1,-8.616462E-1,-5.159704E-1,-1.2630889E-1,5.012862E-1,-5.967996E-1,-7.488283E-1,-1.0739614E0,-2.839562E-1,-9.94297E-1,-4.897958E-1,8.5202587E-1,4.5868623E-1,-9.875913E-1,1.4683018E0,4.1457212E-1,-1.0816683E0,-1.1710465E-1,-1.8083662E0,-5.315334E-1,-5.874753E-1,1.3155994E-1,-1.3732249E0,8.4992856E-1,-5.42673E-1,-4.3408938E-2,-9.3865806E-1,-1.7481792E-1,-1.0008638E0,-3.795184E-1,2.32898E-1,-3.6413223E-1,-8.868764E-1,-2.5560038E-2,7.0913726E-1,7.101213E-2,-4.5154166E-1,-9.7823906E-1,9.623787E-1,-5.8942425E-1,-3.492076E-1,1.3829081E-1,-7.3555744E-1,-3.231696E-1,-4.780605E-1,4.5156115E-1,3.6294553E-1,-7.928818E-1,-8.4468293E-1,-2.6473314E-1,-5.056858E-1,-1.1393665E-1,-1.7319717E-1,2.9209557E-1,3.8442533E0,7.3194337E-1,-4.4680214E-3,1.7645522E0,1.403661E0,-8.0347407E-1,-5.746445E-1,-9.464664E-1,-7.0723015E-1,-1.6379092E-2,-3.0170313E-1,2.0146114E-1,-2.0700584E-1,-7.8132886E-1,-8.075121E-1,8.911726E-1,-1.0897503E0,-8.103059E-2,-5.252104E-1,7.873795E-2,-6.3434416E-1,-1.4065975E0,-8.3329535E-1,2.2183757E-1,1.2992067E0,5.6862596E-2,-1.1346749E0,-1.9564289E-1,-1.3448992E0,-4.7536585E-1,4.3216777E-1,-8.571294E-1,-5.310526E-1,-2.0522304E0,4.4357052E-1,-8.1771237E-1,5.1927544E-2,-6.7844135E-1,-3.0893168E-1,7.6807E-1,-1.5156783E0,1.16115965E-1,1.1299561E0,1.4413424E-1,-4.606003E-1,-9.8303163E-1,-8.053685E-1,1.461232E0,3.2055658E-1,-7.2449666E-1,-7.226893E-1,3.175691E-1,-9.888531E-1,-1.5021396E-1,3.086446E-1,-1.1099875E0,2.379414E-1,-4.5336542E-1,9.995052E-1,-1.8390246E-1,-5.5824E-1,-9.07193E-1,1.2067238E0,-3.9375547E-1,8.34758E-1,-5.680988E-1,1.5285944E0,-6.953554E-1,1.2613542E0,-6.4748055E-1,-5.0950146E-1,-8.561465E-1,-1.0333372E-1,-5.9078455E-1,1.1789078E0,-1.5058789E-1,-2.367071E-1,3.3972415E-1,3.512616E-1,-1.1849388E0,4.1769977E0,7.342204E-1,1.8413254E0,-6.9668984E-1,-6.336684E-1,8.3554935E-1,1.837126E0,9.585964E-2,-3.0223548E-1,-1.6072094E0,1.1384543E-1,-7.125157E-1,-8.607678E-1,-2.279084E0,-5.6580633E-2,-8.2967895E-1,1.2257437E-1,-1.4691303E0,1.3133942E0,-3.3649302E-1,6.938413E-3,1.2978238E0,-6.244774E-1,3.5002998E-1,-8.675286E-1,4.675429E-1,-2.7040316E-2,-8.048929E-1,-3.3032846E-1,5.4614407E-1,-8.8524055E-1,-2.6124258E-2,-6.9864047E-1,-1.7447213E0,8.2621205E-1,-7.720075E-1,-5.5724293E-1,-1.3824879E0,-7.6422316E-1,5.155234E-1,-1.5590364E0,-5.817536E-1,-8.5743904E-1,5.29153E-1,-2.3198421E-1,1.0658971E0,3.1658015E-1,-1.7456678E0,-1.5037957E0,1.5655933E-2,2.4810506E-1,-2.18627E0,-2.206474E-1,-1.4577873E0,3.9659747E-1,-1.2041501E0,-7.4333805E-1,2.5829145E-1,6.221593E-1,-7.7481794E-1,2.5923714E-1,1.219037E0,-1.7449504E0,-1.8458228E-1,-3.2577762E-1,4.8386145E-1,3.3373377E-1,-7.0054233E-1,-5.1048094E-1,-1.0207453E0,-9.725618E-1,-6.49419E-2,3.1566846E-1,1.7386813E0,-9.006447E-1,3.370863E-1,-1.541316E-1,7.8900456E-1,-9.96867E-1,1.0739345E-2,-2.769793E-1,7.6505625E-1,2.696841E-1,-5.479794E-1,1.7557659E0,-2.9885283E-1,3.9151257E-1,-4.3606478E-1,-7.370638E-1,1.5117011E0,-9.8211336E-1,4.004619E-1,-4.5690468E-1,6.049242E-1,-3.4569767E-1,-1.0031626E0,1.8337132E0,-3.944877E-1,-9.152923E-1,2.2395428E-1,-1.8146056E-1,2.3839164E0,1.7569353E-1,-1.0042831E0,-6.2435642E-2,-7.149626E-1,3.8258222E-1,-8.711444E-1,-3.5120738E-1,3.4758016E-1,-6.191903E-1,7.992424E-1,-3.4374687E-1,1.7169499E0,-5.472792E-2,-5.381265E-1,1.0028005E0,-2.6196826E-1,2.0306175E0,-9.71974E-2,4.4536915E-1,-6.0624087E-1,-1.5986143E0,6.349368E-2,1.5050627E0,4.59249E0,7.24121E-2,-1.1514523E0,1.3485368E0,-2.2829783E-1,2.4442894E0,9.7075E-1,1.086562E0,-7.7694106E-1,2.6061985E-1,-1.0584491E0,6.7764235E-1,-1.1800494E0,-8.192043E-1,3.2050082E-1,-8.7542504E-1,2.0798424E-1,-3.6763756E0,-1.1311432E0,-5.799901E-1,3.987267E-1,5.248085E-1,-8.944551E-1,-6.533768E-2,1.097586E0,-7.5180197E-1,-1.5311505E-1,2.4929038E-1,-8.356178E-1,8.939061E-2,1.8271148E0,-5.326626E-1,-1.0027151E0,-7.23839E-1,2.181412E-1,3.48031E-1,-9.228962E-1,-5.998116E-1,3.7729105E-1,-7.0391095E-1,8.010063E-1,-1.032674E0,-1.4905222E-1,4.110305E-1,-8.701206E-1,-1.08797E0,2.57006E-1,-2.0589068E0,-9.678621E-1,-1.1368932E0,1.863405E-1,-2.0034623E0,-7.065593E-1,-4.0476528E-1,-1.7004713E0,-1.1443573E0,1.0340434E0,8.4121875E-2,-1.1207181E0,8.503121E-1,-1.0235429E-2,-8.625435E-1,2.976735E-1,7.858428E-1,-5.7480526E-1,-2.39742E0,-2.1562646E-1,6.7296195E-1,-1.1211044E0,-1.7376175E0,-4.3280604E-1,-7.8033894E-1,7.063855E-1,6.75944E-1,-7.7954376E-1,7.932365E-1,-7.6325744E-1,1.7042054E-1,8.2084394E-1,-1.2423555E0,4.2543006E-1,-2.164424E-1,7.6233727E-1,-9.5978245E-2,-1.8490993E0,4.9079758E-1,-8.1579155E-1,-7.9456496E-1,-2.0817998E-1,2.9006138E-1,-8.0930793E-1,4.5359096E-1,-5.489048E-1,-2.345051E-2,-1.0393945E0,-7.3808074E-1,-1.0326971E0,-7.5962174E-1,3.0662897E-1,1.365731E0,-1.9424492E-2,-1.6048765E-1,1.3812891E0,-6.830609E-1,-1.1690676E-3,7.041277E-1,3.3938763E0,4.7179067E-1,-1.2974962E0,-2.3620002E-1,1.1257964E0,-6.320264E-1,9.567982E-1,-9.5275426E-1,-3.296845E-1,-1.0373987E0,-4.1829973E-1,-5.382477E-1,2.414819E-1,8.807416E-1,2.7062774E-2,-4.6722832E-1,8.386581E-1,-1.1031569E0,-1.699904E-1,2.2028232E0,-2.334636E-1,-1.2001307E0,-2.0896046E-1,6.038509E-1,-4.9916562E-1,-3.8176328E-1,-9.696638E-1,9.3526E-1,-2.3432069E-1,-8.09734E-1,-1.2456673E0,-4.615979E-1,8.649594E-1,5.2548623E-1,-4.8431796E-1,-4.3265545E-1,-8.0379945E-1,1.328436E0,-5.1353976E-2,2.3743713E0,4.877639E-1,-5.3740084E-1,5.263315E-2,-7.498269E-1,7.3253855E-2,1.7313547E0,-1.3042302E-1,-5.997814E-1,-1.904498E-1,2.356381E0,5.625516E-1],"categories":[],"categories_nodes":[],"categories_segments":[],"categories_sizes":[],"default_left":[0,0,0,0,0,0,0,0,0,0,0,0,0,0,0,0,0,0,0,0,0,0,0,0,0,0,0,0,0,0,0,0,0,0,0,0,0,0,0,0,0,0,0,0,0,0,0,0,0,0,0,0,0,0,0,0,0,0,0,0,0,0,0,0,0,0,0,0,0,0,0,0,0,0,0,0,0,0,0,0,0,0,0,0,0,0,0,0,0,0,0,0,0,0,0,0,0,0,0,0,0,0,0,0,0,0,0,0,0,0,0,0,0,0,0,0,0,0,0,0,0,0,0,0,0,0,0,0,0,0,0,0,0,0,0,0,0,0,0,0,0,0,0,0,0,0,0,0,0,0,0,0,0,0,0,0,0,0,0,0,0,0,0,0,0,0,0,0,0,0,0,0,0,0,0,0,0,0,0,0,0,0,0,0,0,0,0,0,0,0,0,0,0,0,0,0,0,0,0,0,0,0,0,0,0,0,0,0,0,0,0,0,0,0,0,0,0,0,0,0,0,0,0,0,0,0,0,0,0,0,0,0,0,0,0,0,0,0,0,0,0,0,0,0,0,0,0,0,0,0,0,0,0,0,0,0,0,0,0,0,0,0,0,0,0,0,0,0,0,0,0,0,0,0,0,0,0,0,0,0,0,0,0,0,0,0,0,0,0,0,0,0,0,0,0,0,0,0,0,0,0,0,0,0,0,0,0,0,0,0,0,0,0,0,0,0,0,0,0,0,0,0,0,0,0,0,0,0,0,0,0,0,0,0,0,0,0,0,0,0,0,0,0,0,0,0,0,0,0,0,0,0,0,0,0,0,0,0,0,0,0,0,0,0,0,0,0,0,0,0,0,0,0,0,0,0,0,0,0,0,0,0,0,0,0,0,0,0,0,0,0,0,0,0,0,0,0,0,0,0,0,0,0,0,0,0,0,0,0,0,0,0,0,0,0,0,0,0,0,0,0,0,0,0,0,0,0,0,0,0,0,0,0,0,0,0,0,0,0,0,0,0,0,0,0,0,0,0,0,0,0,0,0,0,0,0,0,0,0,0,0,0,0,0,0,0,0,0,0,0,0,0,0,0,0,0,0,0,0,0,0,0,0,0,0,0,0,0,0,0,0,0,0,0,0,0,0,0,0],"id":1,"left_children":[1,3,5,7,9,11,13,15,17,19,21,23,25,27,29,31,33,-1,-1,35,37,39,41,43,45,47,49,51,53,55,57,59,61,-1,63,65,67,69,71,73,75,77,-1,79,81,83,85,87,89,91,93,95,97,99,101,103,105,-1,-1,107,-1,109,111,-1,113,115,117,119,121,123,125,127,129,131,-1,-1,-1,-1,-1,133,135,137,139,141,143,145,147,-1,149,151,153,155,157,159,161,-1,163,-1,-1,165,167,169,171,173,175,177,179,-1,-1,181,183,-1,185,-1,-1,-1,-1,-1,-1,187,189,-1,191,193,195,197,199,201,203,205,207,-1,-1,209,211,213,215,217,219,221,-1,223,225,227,229,231,233,235,237,239,-1,241,-1,-1,-1,243,245,247,249,-1,-1,-1,251,253,255,257,259,261,263,265,267,-1,269,271,273,275,277,279,281,-1,-1,283,285,287,289,-1,-1,291,293,295,-1,-1,-1,297,299,301,303,305,307,-1,309,-1,311,313,315,317,319,321,323,325,327,329,331,333,335,337,339,341,-1,-1,-1,343,345,347,349,351,-1,353,355,357,359,361,363,365,-1,-1,367,369,371,-1,-1,373,-1,375,377,379,381,383,385,387,389,-1,-1,391,393,-1,-1,395,397,399,401,403,-1,-1,-1,-1,405,-1,407,409,411,413,-1,415,417,419,421,423,-1,425,427,-1,-1,-1,429,431,-1,-1,433,-1,-1,435,-1,-1,-1,437,-1,439,441,443,445,447,449,451,453,455,-1,457,-1,459,461,463,465,467,-1,469,-1,-1,-1,-1,-1,471,473,475,477,479,481,483,485,-1,487,489,491,493,495,497,-1,-1,-1,-1,-1,-1,-1,-1,-1,-1,-1,-1,-1,-1,-1,-1,-1,-1,-1,-1,-1,-1,-1,-1,-1,-1,-1,-1,-1,-1,-1,-1,-1,-1,-1,-1,-1,-1,-1,-1,-1,-1,-1,-1,-1,-1,-1,-1,-1,-1,-1,-1,-1,-1,-1,-1,-1,-1,-1,-1,-1,-1,-1,-1,-1,-1,-1,-1,-1,-1,-1,-1,-1,-1,-1,-1,-1,-1,-1,-1,-1,-1,-1,-1,-1,-1,-1,-1,-1,-1,-1,-1,-1,-1,-1,-1,-1,-1,-1,-1,-1,-1,-1,-1,-1,-1,-1,-1,-1,-1,-1,-1,-1,-1,-1,-1,-1,-1,-1,-1,-1,-1,-1,-1,-1,-1,-1,-1,-1,-1,-1,-1,-1,-1,-1,-1,-1,-1,-1,-1,-1,-1,-1,-1,-1,-1,-1,-1,-1,-1,-1,-1,-1,-1,-1,-1,-1,-1,-1,-1,-1,-1,-1],"loss_changes":[9.4170654E1,2.3459595E1,3.740164E1,4.00885E0,2.6817139E1,3.7390533E1,1.5977783E1,1.2390137E0,5.0660458E0,1.745462E1,2.2984085E1,5.2542557E1,5.934372E0,1.1736877E1,9.703941E0,5.678406E-1,4.7565603E0,0E0,0E0,3.7638397E0,1.9547607E1,8.2858276E-1,5.8127236E0,8.876684E1,3.6218475E1,1.5545044E0,7.850548E0,1.9402214E1,8.483658E0,1.0504696E1,2.063531E0,2.1768188E-1,8.7879944E-1,0E0,1.3034849E0,2.2772455E0,2.7100677E0,1.016091E1,1.7205856E1,1.617917E0,5.1612854E-1,2.4682777E0,0E0,2.2126968E1,3.4156418E1,3.3111023E1,8.413834E0,1.8014727E0,1.921051E0,1.2800121E1,3.98878E0,4.2832346E0,8.525848E-3,6.519478E0,9.785805E0,8.536215E0,1.3733528E1,0E0,0E0,1.3633251E-1,0E0,5.6715393E0,5.9072876E-1,0E0,3.8032696E-1,7.7662206E-1,2.2270358E-1,2.1167908E0,3.2384462E0,8.896421E0,3.8992367E0,9.416235E0,8.601807E0,6.6010475E-2,0E0,0E0,0E0,0E0,0E0,1.7122559E1,1.5117741E1,2.3064262E1,5.7979193E0,1.855199E1,6.443344E0,8.251331E0,9.13844E0,0E0,2.966411E-1,5.0514965E0,9.339447E-1,4.519398E0,7.079216E0,1.102864E0,1.9919138E0,0E0,1.9436626E0,0E0,0E0,5.9532623E0,4.3348594E0,9.802063E0,3.0186532E0,5.4489937E0,6.0343323E0,5.6921043E0,5.1710415E-1,0E0,0E0,6.078224E-1,1.5328247E1,0E0,1.240505E0,0E0,0E0,0E0,0E0,0E0,0E0,2.6717026E0,1.1103973E0,0E0,2.268868E0,5.5238285E0,1.8248415E1,1.1773224E0,5.305291E0,3.505278E0,2.449745E1,7.216034E0,4.6374817E0,0E0,0E0,9.178162E0,9.29724E0,5.901407E0,1.0432928E1,5.7948837E0,9.320876E0,5.588258E0,0E0,5.8838863E0,1.9750693E0,6.537939E0,2.316333E1,4.9334373E0,5.219483E0,6.2440815E0,1.1857555E1,1.0111018E0,0E0,3.7711487E0,0E0,0E0,0E0,4.2784967E0,4.2554145E0,4.6309366E0,4.5774918E0,0E0,0E0,0E0,2.638236E0,1.4435253E0,2.0601106E0,3.710556E0,5.84671E0,2.8832808E0,5.2355175E0,3.7221322E0,9.487938E0,0E0,2.6247768E0,5.898543E0,5.149872E0,6.0920153E0,1.6902652E0,6.9415817E0,6.7741257E-1,0E0,0E0,1.4018109E0,2.785797E-1,1.2424092E0,7.770052E-1,0E0,0E0,1.9940667E0,9.548967E-1,1.1422272E0,0E0,0E0,0E0,4.011513E0,5.316927E0,1.8081284E1,7.16774E0,1.2149174E1,2.9907818E0,0E0,3.0203538E0,0E0,2.0326815E0,6.6475983E0,2.2015872E0,7.0258207E0,1.3450284E0,4.9265003E0,4.6041565E0,5.522818E0,9.280983E0,5.029751E0,6.9562593E0,5.2597866E0,1.5045903E1,1.0269966E1,2.4994683E0,1.4391785E0,0E0,0E0,0E0,2.291962E0,2.7802074E0,1.8216763E0,4.05752E0,2.401382E0,0E0,9.707551E0,6.523712E0,3.4453278E0,1.6190414E1,2.846549E0,5.078968E0,4.4153924E0,0E0,0E0,7.6438837E0,1.0063271E1,5.1961384E0,0E0,0E0,1.383194E0,0E0,2.2305787E0,3.0056934E0,2.5124693E0,3.8529682E0,2.1863098E0,4.024034E0,3.8122382E0,1.8441391E0,0E0,0E0,2.9364052E0,2.8448906E0,0E0,0E0,2.816677E0,8.261728E0,2.712356E0,7.8655076E-1,1.5523702E0,0E0,0E0,0E0,0E0,2.92658E0,0E0,1.09328E1,4.9123483E0,2.640233E-1,4.4078474E0,0E0,4.4594994E0,3.8986192E0,2.969979E-1,5.6154723E0,1.452072E0,0E0,3.289154E0,2.3679976E0,0E0,0E0,0E0,6.740785E-2,1.506635E0,0E0,0E0,1.005416E0,0E0,0E0,9.4288397E-1,0E0,0E0,0E0,5.371704E-1,0E0,2.4343581E0,3.4114437E0,4.723031E0,4.9589443E0,1.73255E1,6.3347855E0,7.2812614E0,9.885584E0,2.156147E0,0E0,3.567295E-1,0E0,2.4870634E0,4.5717037E-1,2.9537446E0,4.6171904E-1,7.298126E0,0E0,1.3919525E0,0E0,0E0,0E0,0E0,0E0,5.5788627E0,2.7684517E0,1.3936708E0,4.222336E0,4.6520777E0,2.8656251E0,7.180855E0,2.2705836E0,0E0,2.2123814E0,7.8980694E0,4.8666773E0,3.0285006E0,3.6836681E0,6.699619E-1,0E0,0E0,0E0,0E0,0E0,0E0,0E0,0E0,0E0,0E0,0E0,0E0,0E0,0E0,0E0,0E0,0E0,0E0,0E0,0E0,0E0,0E0,0E0,0E0,0E0,0E0,0E0,0E0,0E0,0E0,0E0,0E0,0E0,0E0,0E0,0E0,0E0,0E0,0E0,0E0,0E0,0E0,0E0,0E0,0E0,0E0,0E0,0E0,0E0,0E0,0E0,0E0,0E0,0E0,0E0,0E0,0E0,0E0,0E0,0E0,0E0,0E0,0E0,0E0,0E0,0E0,0E0,0E0,0E0,0E0,0E0,0E0,0E0,0E0,0E0,0E0,0E0,0E0,0E0,0E0,0E0,0E0,0E0,0E0,0E0,0E0,0E0,0E0,0E0,0E0,0E0,0E0,0E0,0E0,0E0,0E0,0E0,0E0,0E0,0E0,0E0,0E0,0E0,0E0,0E0,0E0,0E0,0E0,0E0,0E0,0E0,0E0,0E0,0E0,0E0,0E0,0E0,0E0,0E0,0E0,0E0,0E0,0E0,0E0,0E0,0E0,0E0,0E0,0E0,0E0,0E0,0E0,0E0,0E0,0E0,0E0,0E0,0E0,0E0,0E0,0E0,0E0,0E0,0E0,0E0,0E0,0E0,0E0,0E0,0E0,0E0,0E0,0E0,0E0,0E0,0E0,0E0,0E0,0E0,0E0,0E0,0E0,0E0],"parents":[2147483647,0,0,1,1,2,2,3,3,4,4,5,5,6,6,7,7,8,8,9,9,10,10,11,11,12,12,13,13,14,14,15,15,16,16,19,19,20,20,21,21,22,22,23,23,24,24,25,25,26,26,27,27,28,28,29,29,30,30,31,31,32,32,34,34,35,35,36,36,37,37,38,38,39,39,40,40,41,41,43,43,44,44,45,45,46,46,47,47,48,48,49,49,50,50,51,51,52,52,53,53,54,54,55,55,56,56,59,59,61,61,62,62,64,64,65,65,66,66,67,67,68,68,69,69,70,70,71,71,72,72,73,73,79,79,80,80,81,81,82,82,83,83,84,84,85,85,86,86,88,88,89,89,90,90,91,91,92,92,93,93,94,94,96,96,99,99,100,100,101,101,102,102,103,103,104,104,105,105,106,106,109,109,110,110,112,112,119,119,120,120,122,122,123,123,124,124,125,125,126,126,127,127,128,128,129,129,130,130,133,133,134,134,135,135,136,136,137,137,138,138,139,139,141,141,142,142,143,143,144,144,145,145,146,146,147,147,148,148,149,149,151,151,155,155,156,156,157,157,158,158,162,162,163,163,164,164,165,165,166,166,167,167,168,168,169,169,170,170,172,172,173,173,174,174,175,175,176,176,177,177,178,178,181,181,182,182,183,183,184,184,187,187,188,188,189,189,193,193,194,194,195,195,196,196,197,197,198,198,200,200,202,202,203,203,204,204,205,205,206,206,207,207,208,208,209,209,210,210,211,211,212,212,213,213,214,214,215,215,216,216,217,217,221,221,222,222,223,223,224,224,225,225,227,227,228,228,229,229,230,230,231,231,232,232,233,233,236,236,237,237,238,238,241,241,243,243,244,244,245,245,246,246,247,247,248,248,249,249,250,250,253,253,254,254,257,257,258,258,259,259,260,260,261,261,266,266,268,268,269,269,270,270,271,271,273,273,274,274,275,275,276,276,277,277,279,279,280,280,284,284,285,285,288,288,291,291,295,295,297,297,298,298,299,299,300,300,301,301,302,302,303,303,304,304,305,305,307,307,309,309,310,310,311,311,312,312,313,313,315,315,321,321,322,322,323,323,324,324,325,325,326,326,327,327,328,328,330,330,331,331,332,332,333,333,334,334,335,335],"right_children":[2,4,6,8,10,12,14,16,18,20,22,24,26,28,30,32,34,-1,-1,36,38,40,42,44,46,48,50,52,54,56,58,60,62,-1,64,66,68,70,72,74,76,78,-1,80,82,84,86,88,90,92,94,96,98,100,102,104,106,-1,-1,108,-1,110,112,-1,114,116,118,120,122,124,126,128,130,132,-1,-1,-1,-1,-1,134,136,138,140,142,144,146,148,-1,150,152,154,156,158,160,162,-1,164,-1,-1,166,168,170,172,174,176,178,180,-1,-1,182,184,-1,186,-1,-1,-1,-1,-1,-1,188,190,-1,192,194,196,198,200,202,204,206,208,-1,-1,210,212,214,216,218,220,222,-1,224,226,228,230,232,234,236,238,240,-1,242,-1,-1,-1,244,246,248,250,-1,-1,-1,252,254,256,258,260,262,264,266,268,-1,270,272,274,276,278,280,282,-1,-1,284,286,288,290,-1,-1,292,294,296,-1,-1,-1,298,300,302,304,306,308,-1,310,-1,312,314,316,318,320,322,324,326,328,330,332,334,336,338,340,342,-1,-1,-1,344,346,348,350,352,-1,354,356,358,360,362,364,366,-1,-1,368,370,372,-1,-1,374,-1,376,378,380,382,384,386,388,390,-1,-1,392,394,-1,-1,396,398,400,402,404,-1,-1,-1,-1,406,-1,408,410,412,414,-1,416,418,420,422,424,-1,426,428,-1,-1,-1,430,432,-1,-1,434,-1,-1,436,-1,-1,-1,438,-1,440,442,444,446,448,450,452,454,456,-1,458,-1,460,462,464,466,468,-1,470,-1,-1,-1,-1,-1,472,474,476,478,480,482,484,486,-1,488,490,492,494,496,498,-1,-1,-1,-1,-1,-1,-1,-1,-1,-1,-1,-1,-1,-1,-1,-1,-1,-1,-1,-1,-1,-1,-1,-1,-1,-1,-1,-1,-1,-1,-1,-1,-1,-1,-1,-1,-1,-1,-1,-1,-1,-1,-1,-1,-1,-1,-1,-1,-1,-1,-1,-1,-1,-1,-1,-1,-1,-1,-1,-1,-1,-1,-1,-1,-1,-1,-1,-1,-1,-1,-1,-1,-1,-1,-1,-1,-1,-1,-1,-1,-1,-1,-1,-1,-1,-1,-1,-1,-1,-1,-1,-1,-1,-1,-1,-1,-1,-1,-1,-1,-1,-1,-1,-1,-1,-1,-1,-1,-1,-1,-1,-1,-1,-1,-1,-1,-1,-1,-1,-1,-1,-1,-1,-1,-1,-1,-1,-1,-1,-1,-1,-1,-1,-1,-1,-1,-1,-1,-1,-1,-1,-1,-1,-1,-1,-1,-1,-1,-1,-1,-1,-1,-1,-1,-1,-1,-1,-1,-1,-1,-1,-1,-1],"split_conditions":[2.06E2,8.9E1,7.72E2,3.78E2,2E0,1E0,6E0,1E1,4.26E2,6.5E1,9E0,8E0,3.7E2,1E0,7.1E1,6.3E1,1E0,1.0657111E0,-8.13339E-1,2.6E1,2E0,6E0,6E0,7E0,3.93E2,2.7E1,2.954E3,2.1E1,1.7E1,9E0,1.8E1,2.4E1,4E0,8.510007E-1,8.2E1,2E0,6.7E1,1E0,6E0,7.01E2,2.3E1,1.55E2,2.5773299E0,2E0,2E0,5E0,1E0,5E0,2E0,1.71E2,2E0,1E0,5.5E1,2.237E3,6E0,9E0,1.83E2,1.3783791E0,-1.2609157E-1,3.69E2,-1.0534995E0,2E0,8.692E3,-1.0082963E0,1.3E1,1.36E2,7E0,5E0,7.5E1,6E0,9.71E2,4E0,2.4E1,1.08E2,3.576104E-1,-2.2195065E-1,-1.0497383E0,8.6635524E-1,-6.755525E-1,4.09E2,1.129E3,3.84E2,1E0,2E0,2E0,2.1E1,2E0,5.012862E-1,1E1,3E1,6E3,6E0,5.67E2,2E0,7E0,4.5868623E-1,1.8E1,1.4683018E0,4.1457212E-1,7E0,1.002E3,5E0,1E0,1E0,8.4E2,1.1E1,3E0,-5.42673E-1,-4.3408938E-2,6.6E1,8E0,-1.0008638E0,1.6E1,2.32898E-1,-3.6413223E-1,-8.868764E-1,-2.5560038E-2,7.0913726E-1,7.101213E-2,6E0,1.1E1,9.623787E-1,1E0,2.8E1,8E0,8E0,1.006E3,1.2E2,8E0,6E0,2E0,-8.4468293E-1,-2.6473314E-1,3.1E1,2.5E1,1.54E2,6.9E1,6E1,4.8E1,5.2E1,1.7645522E0,4.6E1,2.651E3,1E2,9.2E1,6E0,1.1E1,5E0,1.76E2,2E0,-7.8132886E-1,1E1,8.911726E-1,-1.0897503E0,-8.103059E-2,3.4E1,5.43E2,7E0,3E0,-8.3329535E-1,2.2183757E-1,1.2992067E0,4.381E3,1.5E1,9.03E2,5.3E1,1.2E1,5E0,4.554E3,5E0,2.7E1,4.4357052E-1,1.047E3,5.6E1,2.8E1,9E0,1.063E3,1E0,9E0,1.1299561E0,1.4413424E-1,1E0,1E0,9.71E2,3.4E1,3.2055658E-1,-7.2449666E-1,2.9E1,5E0,8E0,-1.5021396E-1,3.086446E-1,-1.1099875E0,2.6E1,1E0,2E0,1.4E1,6E0,2.6E1,1.2067238E0,6E0,8.34758E-1,1.85E2,5.7E1,5.8E1,2E0,8E0,1.5E2,9E1,8.59E2,3.5E2,6E0,6.66E2,2E0,1.84E2,2E0,1.6E1,2.8E1,7.342204E-1,1.8413254E0,-6.9668984E-1,1.241E3,6.1E1,2E0,3.02E2,2E0,-1.6072094E0,3.33E2,2.2E1,7.2E1,1.79E2,5E0,2.5E1,1.82E2,-1.4691303E0,1.3133942E0,1.3E1,3.7E1,1.49E2,-6.244774E-1,3.5002998E-1,3.5E1,4.675429E-1,8E0,1E0,2E0,2.7E1,1.59E3,1.386E3,2E0,2E1,8.2621205E-1,-7.720075E-1,7E0,3E0,-7.6422316E-1,5.155234E-1,1E0,1E0,8E0,2.91E2,6E0,1.0658971E0,3.1658015E-1,-1.7456678E0,-1.5037957E0,2.4E1,2.4810506E-1,2E0,5E0,2.717E3,8.3E2,-1.2041501E0,-4.44E2,1.07E3,2E0,2E0,2E1,1.219037E0,1.4E1,2E0,-3.2577762E-1,4.8386145E-1,3.3373377E-1,1.269E3,1E0,-1.0207453E0,-9.725618E-1,3.7E1,3.1566846E-1,1.7386813E0,3.1E1,3.370863E-1,-1.541316E-1,7.8900456E-1,1E0,1.0739345E-2,1.4E1,2.7E1,1.14E2,2.794E3,7E0,2E0,9E0,1E0,4.8E1,1.5117011E0,1.91E2,4.004619E-1,1E1,1.29E2,5E0,5.5E1,4E0,-3.944877E-1,7E0,2.2395428E-1,-1.8146056E-1,2.3839164E0,1.7569353E-1,-1.0042831E0,1.6E1,8E0,3.7E1,9E0,3E1,1E0,1.6E1,5.3E1,-3.4374687E-1,5.04E2,1E0,1.84E3,2.99E2,2.48E2,2E0,-9.71974E-2,4.4536915E-1,-6.0624087E-1,-1.5986143E0,6.349368E-2,1.5050627E0,4.59249E0,7.24121E-2,-1.1514523E0,1.3485368E0,-2.2829783E-1,2.4442894E0,9.7075E-1,1.086562E0,-7.7694106E-1,2.6061985E-1,-1.0584491E0,6.7764235E-1,-1.1800494E0,-8.192043E-1,3.2050082E-1,-8.7542504E-1,2.0798424E-1,-3.6763756E0,-1.1311432E0,-5.799901E-1,3.987267E-1,5.248085E-1,-8.944551E-1,-6.533768E-2,1.097586E0,-7.5180197E-1,-1.5311505E-1,2.4929038E-1,-8.356178E-1,8.939061E-2,1.8271148E0,-5.326626E-1,-1.0027151E0,-7.23839E-1,2.181412E-1,3.48031E-1,-9.228962E-1,-5.998116E-1,3.7729105E-1,-7.0391095E-1,8.010063E-1,-1.032674E0,-1.4905222E-1,4.110305E-1,-8.701206E-1,-1.08797E0,2.57006E-1,-2.0589068E0,-9.678621E-1,-1.1368932E0,1.863405E-1,-2.0034623E0,-7.065593E-1,-4.0476528E-1,-1.7004713E0,-1.1443573E0,1.0340434E0,8.4121875E-2,-1.1207181E0,8.503121E-1,-1.0235429E-2,-8.625435E-1,2.976735E-1,7.858428E-1,-5.7480526E-1,-2.39742E0,-2.1562646E-1,6.7296195E-1,-1.1211044E0,-1.7376175E0,-4.3280604E-1,-7.8033894E-1,7.063855E-1,6.75944E-1,-7.7954376E-1,7.932365E-1,-7.6325744E-1,1.7042054E-1,8.2084394E-1,-1.2423555E0,4.2543006E-1,-2.164424E-1,7.6233727E-1,-9.5978245E-2,-1.8490993E0,4.9079758E-1,-8.1579155E-1,-7.9456496E-1,-2.0817998E-1,2.9006138E-1,-8.0930793E-1,4.5359096E-1,-5.489048E-1,-2.345051E-2,-1.0393945E0,-7.3808074E-1,-1.0326971E0,-7.5962174E-1,3.0662897E-1,1.365731E0,-1.9424492E-2,-1.6048765E-1,1.3812891E0,-6.830609E-1,-1.1690676E-3,7.041277E-1,3.3938763E0,4.7179067E-1,-1.2974962E0,-2.3620002E-1,1.1257964E0,-6.320264E-1,9.567982E-1,-9.5275426E-1,-3.296845E-1,-1.0373987E0,-4.1829973E-1,-5.382477E-1,2.414819E-1,8.807416E-1,2.7062774E-2,-4.6722832E-1,8.386581E-1,-1.1031569E0,-1.699904E-1,2.2028232E0,-2.334636E-1,-1.2001307E0,-2.0896046E-1,6.038509E-1,-4.9916562E-1,-3.8176328E-1,-9.696638E-1,9.3526E-1,-2.3432069E-1,-8.09734E-1,-1.2456673E0,-4.615979E-1,8.649594E-1,5.2548623E-1,-4.8431796E-1,-4.3265545E-1,-8.0379945E-1,1.328436E0,-5.1353976E-2,2.3743713E0,4.877639E-1,-5.3740084E-1,5.263315E-2,-7.498269E-1,7.3253855E-2,1.7313547E0,-1.3042302E-1,-5.997814E-1,-1.904498E-1,2.356381E0,5.625516E-1],"split_indices":[11,11,11,13,8,7,10,10,13,5,10,10,11,10,0,11,2,0,0,0,12,10,1,10,11,0,5,9,9,10,9,0,10,0,11,3,0,6,9,5,0,11,0,3,13,9,6,10,12,5,1,6,0,5,12,1,13,0,0,5,0,10,5,0,9,11,10,9,0,10,5,10,0,5,0,0,0,0,0,11,5,11,6,14,15,9,2,0,9,9,5,10,11,2,1,0,9,0,0,1,11,5,1,2,5,10,14,0,0,11,9,0,9,0,0,0,0,0,0,10,10,0,2,0,10,10,5,5,10,10,15,0,0,0,0,13,0,0,0,0,0,0,5,13,13,9,10,9,13,12,0,10,0,0,0,0,11,10,1,0,0,0,5,9,11,0,9,1,5,10,0,0,5,0,9,9,11,7,9,0,0,10,2,5,0,0,0,5,1,14,0,0,0,0,1,13,9,10,9,0,14,0,13,0,0,10,1,13,11,5,13,9,11,9,13,8,9,0,0,0,0,5,0,3,11,2,0,11,9,0,13,1,0,13,0,0,9,0,5,0,0,0,0,9,10,2,0,5,5,8,9,0,0,9,1,0,0,3,6,1,5,9,0,0,0,0,9,0,13,1,5,11,0,5,5,12,3,9,0,9,12,0,0,0,5,10,0,0,0,0,0,0,0,0,0,2,0,9,0,13,5,10,2,9,8,13,0,11,0,10,11,14,0,14,0,1,0,0,0,0,0,9,10,0,10,9,8,9,0,0,11,10,5,11,11,15,0,0,0,0,0,0,0,0,0,0,0,0,0,0,0,0,0,0,0,0,0,0,0,0,0,0,0,0,0,0,0,0,0,0,0,0,0,0,0,0,0,0,0,0,0,0,0,0,0,0,0,0,0,0,0,0,0,0,0,0,0,0,0,0,0,0,0,0,0,0,0,0,0,0,0,0,0,0,0,0,0,0,0,0,0,0,0,0,0,0,0,0,0,0,0,0,0,0,0,0,0,0,0,0,0,0,0,0,0,0,0,0,0,0,0,0,0,0,0,0,0,0,0,0,0,0,0,0,0,0,0,0,0,0,0,0,0,0,0,0,0,0,0,0,0,0,0,0,0,0,0,0,0,0,0,0,0,0,0,0,0,0,0],"split_type":[0,0,0,0,0,0,0,0,0,0,0,0,0,0,0,0,0,0,0,0,0,0,0,0,0,0,0,0,0,0,0,0,0,0,0,0,0,0,0,0,0,0,0,0,0,0,0,0,0,0,0,0,0,0,0,0,0,0,0,0,0,0,0,0,0,0,0,0,0,0,0,0,0,0,0,0,0,0,0,0,0,0,0,0,0,0,0,0,0,0,0,0,0,0,0,0,0,0,0,0,0,0,0,0,0,0,0,0,0,0,0,0,0,0,0,0,0,0,0,0,0,0,0,0,0,0,0,0,0,0,0,0,0,0,0,0,0,0,0,0,0,0,0,0,0,0,0,0,0,0,0,0,0,0,0,0,0,0,0,0,0,0,0,0,0,0,0,0,0,0,0,0,0,0,0,0,0,0,0,0,0,0,0,0,0,0,0,0,0,0,0,0,0,0,0,0,0,0,0,0,0,0,0,0,0,0,0,0,0,0,0,0,0,0,0,0,0,0,0,0,0,0,0,0,0,0,0,0,0,0,0,0,0,0,0,0,0,0,0,0,0,0,0,0,0,0,0,0,0,0,0,0,0,0,0,0,0,0,0,0,0,0,0,0,0,0,0,0,0,0,0,0,0,0,0,0,0,0,0,0,0,0,0,0,0,0,0,0,0,0,0,0,0,0,0,0,0,0,0,0,0,0,0,0,0,0,0,0,0,0,0,0,0,0,0,0,0,0,0,0,0,0,0,0,0,0,0,0,0,0,0,0,0,0,0,0,0,0,0,0,0,0,0,0,0,0,0,0,0,0,0,0,0,0,0,0,0,0,0,0,0,0,0,0,0,0,0,0,0,0,0,0,0,0,0,0,0,0,0,0,0,0,0,0,0,0,0,0,0,0,0,0,0,0,0,0,0,0,0,0,0,0,0,0,0,0,0,0,0,0,0,0,0,0,0,0,0,0,0,0,0,0,0,0,0,0,0,0,0,0,0,0,0,0,0,0,0,0,0,0,0,0,0,0,0,0,0,0,0,0,0,0,0,0,0,0,0,0,0,0,0,0,0,0,0,0,0,0,0,0,0,0,0,0,0,0,0,0,0,0,0,0,0,0,0,0,0,0,0,0,0,0,0,0,0,0,0,0,0],"sum_hessian":[3.216013E3,1.4170693E3,1.7989437E3,4.4101306E2,9.760562E2,1.5415492E3,2.5739456E2,4.3721E2,3.8030756E0,7.4337897E2,2.3267726E2,1.3163834E3,2.2516576E2,1.1501174E2,1.4238281E2,4.2689264E2,1.0317352E1,1.5998124E0,2.203263E0,1.6299686E2,5.803821E2,2.2943666E2,3.240598E0,7.73182E2,5.432014E2,1.14710884E2,1.1045487E2,2.3466352E1,9.154539E1,1.3919354E2,3.1892757E0,2.346993E2,1.9219334E2,1.2408501E0,9.076503E0,5.9184566E0,1.570784E2,2.4971526E2,3.3066687E2,5.8732057E0,2.2356346E2,2.1878295E0,1.0527683E0,7.516139E2,2.1568087E1,3.008229E2,2.423785E2,6.4945107E0,1.0821637E2,1.028898E2,7.565074E0,1.9309956E1,4.1563973E0,4.9060745E1,4.2484642E1,1.1175356E2,2.7439981E1,2.1217947E0,1.0674812E0,2.0363772E0,2.3266292E2,6.171551E1,1.3047783E2,6.6805844E0,2.3959181E0,3.5159082E0,2.402548E0,1.5295432E2,4.1240864E0,1.5166237E2,9.805288E1,4.2613804E1,2.8805304E2,4.781241E0,1.0919646E0,1.3667532E0,2.221967E2,1.1575112E0,1.0303184E0,4.6030173E2,2.913122E2,1.1634966E1,9.933121E0,1.479831E1,2.860246E2,8.547589E1,1.569026E2,1.1217699E0,5.3727407E0,4.401037E1,6.4206E1,5.017677E1,5.2713028E1,2.7554665E0,4.8096075E0,1.7179099E0,1.7592047E1,3.1291585E0,1.0272388E0,4.030754E1,8.753205E0,3.3966995E1,8.517648E0,9.2077675E1,1.9675888E1,2.4999567E1,2.4404137E0,1.0289292E0,1.007448E0,4.899774E1,1.2717771E1,1.2730302E2,3.1748178E0,1.0479048E0,1.3480134E0,1.710866E0,1.8050423E0,1.3727229E0,1.0298252E0,1.0710793E1,1.4224353E2,1.003723E0,3.1203635E0,8.7559425E1,6.410294E1,5.4324768E1,4.3728115E1,2.464258E1,1.7971226E1,6.0494647E0,2.820036E2,3.2719214E0,1.5093195E0,2.688392E2,1.9146252E2,1.7769173E2,1.1362046E2,7.563326E0,4.07164E0,8.571279E0,1.361842E0,9.68997E0,5.1083403E0,6.702171E1,2.1900287E2,6.1511635E1,2.3964258E1,1.0226091E2,5.4641685E1,2.407988E0,2.9647527E0,4.2980034E1,1.0303308E0,6.310504E1,1.1009648E0,2.9863985E1,2.0312784E1,2.9498419E1,2.321461E1,1.7431169E0,1.0123497E0,2.6726732E0,2.1369343E0,1.4471569E1,3.1204765E0,2.7255955E1,1.3051584E1,5.2629027E0,3.4903023E0,5.954758E0,2.8012236E1,1.8078258E0,6.7098217E0,1.1521544E1,8.055613E1,1.1932646E1,7.743243E0,2.2800999E1,2.1985683E0,1.3169402E0,1.1234735E0,5.1282897E0,4.3869453E1,9.546274E0,3.1714969E0,1.071395E0,2.1034229E0,7.9636054E0,2.7471871E0,1.4025148E2,1.992045E0,1.2943914E0,1.8259721E0,1.29988785E1,7.456055E1,1.6880255E1,4.7222687E1,2.8811724E1,2.5513042E1,1.2186651E0,4.250945E1,1.0507522E0,2.3591827E1,9.096347E0,8.874879E0,3.0707784E0,2.978686E0,5.3119625E1,2.2888397E2,4.732031E1,2.2151889E2,4.419031E0,1.8704349E2,1.5859322E2,1.909851E1,1.0997726E2,3.6432068E0,6.522417E0,1.0409088E0,2.1292968E0,1.9423432E0,5.041031E0,3.5302482E0,6.9737935E0,2.7161765E0,3.9937387E0,1.1146017E0,1.1211067E1,5.5810642E1,2.0731657E2,1.1686294E1,9.974226E0,5.153741E1,2.2707907E1,1.256351E0,1.381332E0,1.0087958E2,4.726245E1,7.379236E0,1.3072184E0,1.1007696E0,4.135317E1,1.6268678E0,1.1132132E1,1.8731855E1,1.0988818E1,9.323966E0,2.056125E1,8.937169E0,8.49473E0,1.4719878E1,1.109922E0,1.0270123E0,5.321207E0,9.150362E0,1.6926169E0,1.4278594E0,2.0469378E1,6.7865767E0,9.561315E0,3.49027E0,2.8793085E0,2.383594E0,1.7811756E0,1.7091267E0,1.5126705E0,4.4420877E0,1.4955318E0,2.6516705E1,4.1672816E0,2.5425398E0,9.577672E0,1.943873E0,7.5529884E1,5.0262423E0,3.8676236E0,8.0650215E0,4.3781543E0,3.365089E0,1.9185513E1,3.6154854E0,1.0504452E0,1.1481233E0,1.0990304E0,4.0292597E0,4.3167224E0,3.955273E1,7.531985E0,2.0142887E0,1.0351613E0,2.1363356E0,6.9472003E0,1.0164051E0,1.7096422E0,1.037545E0,1.391387E2,1.1127708E0,6.8155427E0,6.183336E0,8.413487E0,6.614706E1,1.0444375E1,6.4358807E0,1.4220342E1,3.3002346E1,2.7113304E1,1.6984196E0,2.4365976E1,1.1470662E0,4.049155E1,2.0178998E0,1.6798939E1,6.792889E0,7.890846E0,1.2055011E0,7.165068E0,1.7098106E0,1.7105639E0,1.3602145E0,1.0541834E0,1.9245028E0,1.7136326E1,3.59833E1,2.4448605E0,2.264391E2,3.067755E1,1.6642757E1,2.1762617E2,3.892725E0,1.2480832E0,3.170948E0,1.5086688E2,3.61766E1,2.3946729E0,1.5619855E2,3.1726706E0,1.592584E1,1.006225E2,9.35476E0,2.5257778E0,1.117429E0,1.4998151E0,5.022602E0,2.4966297E0,2.5444012E0,2.2012167E0,1.3290316E0,3.0294502E0,3.9443433E0,1.1574543E0,1.5587224E0,2.6652992E0,1.3284395E0,8.140314E0,3.0707533E0,5.0773777E1,5.036866E0,2.0469028E2,2.6263046E0,4.2773056E0,7.4089885E0,4.5127E0,5.461526E0,2.0280652E0,4.9509346E1,1.982086E1,2.8870468E0,2.9949991E1,7.092959E1,3.725157E1,1.0010877E1,2.6036613E0,4.775575E0,1.3313912E1,2.8039255E1,2.3893657E0,8.742765E0,1.5582272E0,1.7173628E1,8.068457E0,2.9203618E0,1.2806542E0,8.043312E0,1.6795046E1,3.7662046E0,6.225576E0,2.711593E0,5.937381E0,2.5573494E0,9.305964E0,5.4139132E0,2.6929874E0,2.6282196E0,3.7454286E0,5.404934E0,2.6559162E0,1.7813461E1,5.25026E0,1.5363168E0,2.2380164E0,7.3232985E0,1.8263807E0,1.6638892E0,1.0275338E0,1.8517747E0,1.7840755E0,2.6580124E0,2.3754856E1,2.7618475E0,2.2183979E0,1.9488839E0,1.4511056E0,1.0914342E0,1.6791928E0,7.898479E0,1.4392958E0,7.409059E1,3.4454775E0,1.5807649E0,1.7489263E0,2.1186974E0,5.7788715E0,2.2861505E0,2.5432768E0,1.8348773E0,1.2539217E0,1.7931591E1,1.8540943E0,1.761391E0,2.8678312E0,1.1614282E0,1.1813307E0,3.1353917E0,1.0027105E0,1.0115783E0,1.1084497E0,5.8387504E0,1.9548334E1,1.1959038E2,3.5653844E0,3.250158E0,3.082295E0,3.1010408E0,6.682934E0,1.7305536E0,5.284364E1,1.3303421E1,7.231634E0,3.212741E0,3.9303982E0,2.5054824E0,8.032217E0,6.188124E0,2.9410788E1,3.5915587E0,1.6852085E1,1.0261218E1,2.1425142E1,2.9408338E0,3.6472767E1,4.0187836E0,1.0111371E0,1.0067627E0,1.5784717E1,1.0142219E0,5.7756696E0,1.0172198E0,6.639665E0,1.2511808E0,4.6078033E0,2.557265E0,6.633469E0,1.0502856E1,1.6671959E1,1.9311338E1,1.0173599E0,1.4275005E0,1.9725697E2,2.9182125E1,2.8693512E1,1.9840388E0,1.4014094E1,2.6286633E0,1.0991165E2,1.0771452E2,2.053427E0,1.8392979E0,1.4589682E0,1.7119799E0,2.6722513E1,1.2414438E2,2.6703594E1,9.473005E0,1.1363163E0,1.2583567E0,2.6000475E1,1.3019807E2,2.1013002E0,1.0713702E0],"tree_param":{"num_deleted":"0","num_feature":"48","num_nodes":"499","size_leaf_vector":"1"}},{"base_weights":[-1.9830419E-1,-6.632161E-1,-9.368903E-2,-9.010778E-1,-5.383339E-1,-2.1545753E-2,-4.1704115E-1,-9.1521746E-1,-3.7394825E-1,-4.017258E-1,-7.13963E-1,-7.043327E-2,2.946469E-1,-8.3446234E-1,-1.3474114E-2,-9.2841387E-1,-4.9890974E-1,4.0727952E-1,-7.8281003E-1,-1.3064161E-1,-5.555744E-1,-7.3894185E-1,6.6636276E-1,-3.314537E-2,-3.6036116E-1,1.8288156E-1,5.76477E-1,-8.990814E-1,1.2906523E0,2.9628307E-2,-6.881945E-1,-9.41906E-1,-4.8953354E-1,-8.9894336E-1,2.0765384E-1,7.278105E-2,-5.575708E-1,-6.454528E-1,-3.8511477E-2,-7.8064215E-1,1.3310006E-2,-1.07848905E-1,7.354711E-2,-4.5654726E-1,-7.565839E-2,2.6814085E-1,-1.4221993E-1,-2.647523E-1,7.934421E-1,-9.727019E-1,-5.9665203E-1,-2.4848223E-2,1.8559449E0,1.583806E-1,-6.863832E-2,-1.2970777E0,-1.2825295E-1,-5.964708E-1,-9.580437E-1,-7.86865E-1,1.1393913E-1,-2.049706E-1,5.1768106E-1,-2.681405E-1,7.31458E-1,-8.2232815E-1,9.169168E-2,-7.190331E-1,-1.1492205E-1,3.654752E-1,-6.492845E-1,-7.92524E-1,2.5444794E-1,2.847246E-1,-8.0109537E-1,-6.4780205E-3,-3.251571E-1,7.5271255E-1,-2.4817124E-2,1.0724235E0,-4.8013392E-1,-5.886338E-1,7.8404054E-2,5.9187472E-2,4.620831E-1,2.857169E-1,-5.310474E-1,5.439729E-1,-5.2202916E-1,9.439212E-1,-7.2819315E-2,-5.5187815E-1,-9.863722E-1,8.895439E-2,-7.65147E-1,2.5044158E-1,-5.4853153E-1,-9.973132E-2,8.325855E-1,-1.5167353E0,-3.6059895E-1,-7.0064783E-1,2.456947E-1,1.1685719E-1,-8.743171E-1,-3.174305E-1,-9.647641E-1,-1.5483282E-2,-7.5151014E-1,1.7226235E0,3.0010608E-1,-1.1020641E0,1.03375785E-1,6.9466865E-1,-8.095629E-1,-7.5627553E-1,-1.7800513E-1,-5.9362054E-1,6.40494E-1,-3.8026565E-1,7.559987E-1,-1.066167E0,3.1564203E-1,-4.4809833E-1,-8.4492934E-1,-1.3123451E-1,9.6037924E-1,-7.931244E-2,5.778662E-1,1.3508036E0,-4.0933263E-1,-6.8481493E-1,9.4666E-1,-1.1823332E-1,4.3215308E-1,-1.6171698E-1,-6.0155076E-1,8.513348E-1,-9.0272593E-1,9.4360995E-1,-6.0465313E-2,1.3202894E-1,-7.766043E-1,5.49471E-1,-7.0426255E-1,-1.1081072E0,4.519484E-1,-7.346296E-2,-1.0699947E0,1.6151059E-1,7.5502E-1,3.098439E-1,-8.122969E-1,-2.89862E-1,1.0665549E0,-4.5070592E-1,8.4476864E-1,-9.7018814E-1,2.6706058E-1,7.4927735E-1,-6.107573E-1,2.728598E-1,-8.230904E-1,-7.238488E-1,3.3316657E-1,7.9811946E-2,-1.0502807E0,-1.3329987E-1,5.6655324E-1,1.3868557E0,-1.7578223E-1,9.5056343E-1,-2.9151905E-1,-5.38728E-1,6.7647356E-1,7.8963846E-1,-3.1554013E-1,2.4160789E-1,-9.140013E-1,4.917721E-1,2.042475E0,-2.567159E-1,7.8374785E-1,-4.2575072E-2,-1.2358354E0,9.993701E-1,-1.0124172E0,1.004569E0,2.8871868E-2,-7.825185E-1,-6.2994495E-2,-8.92115E-1,1.5888289E-1,-9.0515053E-1,1.9659743E-1,-1.7508107E-1,1.2706046E0,2.7643597E-1,-9.323037E-1,1.2201157E0,-4.1903295E-3,-7.943718E-1,-3.8561415E-2,-9.380693E-1,-6.5053433E-1,3.724375E-1,-4.60586E-1,-1.8710408E-1,1.9908944E-1,2.6601326E-1,1.8233745E0,-3.3334628E-1,1.9374772E0,-4.399966E-1,1.0372927E0,-1.1489009E0,8.4666654E-2,1.0546075E0,-1.4307998E0,-4.8718864E-1,-5.3459276E-2,8.781132E-1,1.2612918E-1,-3.5772407E-1,8.290329E-1,-8.532117E-1,-3.312993E-1,-1.163366E0,-2.5524536E-1,-5.1445216E-1,1.9732889E0,7.0065564E-1,-3.240412E-1,-1.1645439E-3,5.951654E-1,6.0095924E-1,-1.3053811E0,7.119263E-1,-1.8517742E-1,-2.255232E-1,-1.2020961E0,-2.9919738E-1,7.6688105E-1,9.7241515E-1,-8.009846E-1,-1.4864441E0,3.4981406E-1,-2.957544E-1,8.11093E-1,-4.044023E-1,-1.5857376E0,-6.5937215E-1,4.5193285E-1,4.935188E-1,1.2763971E0,5.259844E-1,-8.2278544E-1,-5.8630764E-2,1.2836499E0,-7.5886256E-1,-6.1479468E-2,-8.971409E-1,-4.437536E-1,-9.899422E-1,-3.1292602E-1,4.35081E-1,-3.726745E-1,6.8151546E-1,-6.396276E-1,-1.354181E0,7.1327575E-2,-2.5375897E-1,1.2083468E-1,1.4958435E0,-1.3527825E-1,-6.653481E-1,2.839453E-1,-1.9097915E-1,1.1267123E0,-7.299822E-1,3.1504188E-2,-9.889009E-1,-3.2470173E-1,-7.21175E-1,5.420799E-1,1.3483083E0,-8.061406E-1,-2.2235839E-1,-1.32951E0,3.2251212E-1,1.1945057E0,5.008431E-2,-8.024958E-1,4.961153E-1,-6.1283445E-1,1.0377558E0,-4.8356605E-1,-1.0199476E0,-1.8647932E-1,-1.7888846E-1,4.7210398E-1,3.025296E-1,-5.5643123E-1,1.6359426E0,3.7145206E-1,-5.260406E-1,6.09198E-1,-1.0994067E-2,-9.7140825E-1,4.2724082E-1,-5.9282905E-1,-1.006268E0,-7.1201766E-1,-4.901706E-1,-9.644411E-1,-5.9549344E-1,-1.3779692E-1,2.55904E-1,-2.3143233E-1,-3.2502535E-1,1.7833819E0,-4.4749236E-1,6.041793E-1,2.3603635E0,1.6113997E-1,3.0163476E-1,-8.500022E-1,2.2699444E0,1.0592253E-1,-6.5303093E-1,-2.686137E-1,1.5464534E0,-2.0590736E-1,-3.0114615E-1,-1.2919897E0,7.227168E-1,-7.0467275E-1,-6.230758E-1,1.1811984E0,6.6672546E-1,-6.521711E-1,1.929162E-2,-3.3603516E-1,4.452883E-1,1.5349127E0,9.73436E-1,-4.0153466E-2,-6.760347E-1,4.8234618E-1,-1.7649601E-1,1.4249592E0,-7.0346814E-1,-1.202088E0,-4.6051097E-1,1.1282893E0,-1.3560228E0,-1.4992918E-1,-6.5695703E-1,2.8083885E-1,1.1081141E0,-1.7748539E-1,-6.821078E-1,-2.1445965E-2,1.1289574E-1,-5.299928E-1,8.6235476E-1,-7.5881636E-1,-5.548382E-2,-1.8014933E0,7.585666E-1,-5.38645E-1,7.127654E-1,-6.004657E-1,3.4439057E-1,-6.991827E-1,1.5965901E-1,-7.0098406E-1,9.9960464E-1,-7.166032E-1,2.9589844E-1,1.1794361E0,-1.2899377E0,7.438E-1,-1.7729224E0,-2.6462803E-2,2.2494815E-1,-8.781965E-1,-1.5943913E-1,-8.105181E-1,8.287568E-1,-1.16780326E-1,1.4745144E0,7.6459676E-1,-9.7053444E-1,-1.9565326E-1,-9.7235906E-1,-3.3444044E-1,-8.486829E-1,4.5598134E-1,-5.8658123E-1,1.917376E-1,2.1177448E-1,8.282612E-1,-9.336469E-1,3.3845883E-2,-2.632916E-1,-1.6434643E0,-4.260969E-1,8.5373625E-2,1.3156863E0,-1.3063342E-2,-7.1669775E-1,6.2178195E-1,1.4204882E0,9.3405806E-2,-9.637573E-1,-1.5770303E-1,-3.2228577E-1,9.862503E-1,-1.0204881E0,1.8794138E-2,2.1128354E0,3.6122832E-1,-4.904639E-1,-8.5093385E-1,5.88848E-2,-7.175867E-1,7.8991735E-1,-5.127477E-1,-5.172751E-2,-7.472684E-1,-1.0266078E0,-4.6162662E-1,-2.353323E-1,-9.0022284E-1,-5.433145E-1,3.104205E-1,-2.1524236E-2,1.2583537E0,-2.5704172E-1,8.5643744E-1,7.82017E-1,-4.3147343E-1,2.95083E0,5.6863916E-1,4.7059375E-1,-1.0209383E0,4.329828E-1,1.7686665E0,1.065549E0,2.7455664E0,-6.753495E-1,7.742814E-1,2.5783446E0,3.308975E-1,-2.8224653E-1,-8.0076516E-1,-3.24977E-1,1.2219177E0,2.1529894E0,4.482534E-1,-9.218871E-1,1.970959E-1,1.5083476E0,5.0672144E-1,1.1366423E0,-7.1758324E-1,-4.5498833E-1,-9.352195E-1,9.804232E-2,-3.4817094E-1,1.6460272E0,-4.1657904E-1,6.9906014E-1,-7.021343E-1,2.3425238E0,5.64091E-1,1.663427E0,1.3200136E-1,1.377726E0,-1.9161756E-1,-5.1635936E-2,-8.0333215E-1,-1.15904965E-1,1.4452181E0,1.9568559E0,1.2089834E-1,-7.744431E-1,5.2720696E-1,-7.264993E-1,-1.7912127E-1,1.3961273E-1,1.5081394E0,2.9972205E-1,2.015271E0,2.4438326E-1,-4.8593384E-1,-7.816049E-1,8.095011E-2],"categories":[],"categories_nodes":[],"categories_segments":[],"categories_sizes":[],"default_left":[0,0,0,0,0,0,0,0,0,0,0,0,0,0,0,0,0,0,0,0,0,0,0,0,0,0,0,0,0,0,0,0,0,0,0,0,0,0,0,0,0,0,0,0,0,0,0,0,0,0,0,0,0,0,0,0,0,0,0,0,0,0,0,0,0,0,0,0,0,0,0,0,0,0,0,0,0,0,0,0,0,0,0,0,0,0,0,0,0,0,0,0,0,0,0,0,0,0,0,0,0,0,0,0,0,0,0,0,0,0,0,0,0,0,0,0,0,0,0,0,0,0,0,0,0,0,0,0,0,0,0,0,0,0,0,0,0,0,0,0,0,0,0,0,0,0,0,0,0,0,0,0,0,0,0,0,0,0,0,0,0,0,0,0,0,0,0,0,0,0,0,0,0,0,0,0,0,0,0,0,0,0,0,0,0,0,0,0,0,0,0,0,0,0,0,0,0,0,0,0,0,0,0,0,0,0,0,0,0,0,0,0,0,0,0,0,0,0,0,0,0,0,0,0,0,0,0,0,0,0,0,0,0,0,0,0,0,0,0,0,0,0,0,0,0,0,0,0,0,0,0,0,0,0,0,0,0,0,0,0,0,0,0,0,0,0,0,0,0,0,0,0,0,0,0,0,0,0,0,0,0,0,0,0,0,0,0,0,0,0,0,0,0,0,0,0,0,0,0,0,0,0,0,0,0,0,0,0,0,0,0,0,0,0,0,0,0,0,0,0,0,0,0,0,0,0,0,0,0,0,0,0,0,0,0,0,0,0,0,0,0,0,0,0,0,0,0,0,0,0,0,0,0,0,0,0,0,0,0,0,0,0,0,0,0,0,0,0,0,0,0,0,0,0,0,0,0,0,0,0,0,0,0,0,0,0,0,0,0,0,0,0,0,0,0,0,0,0,0,0,0,0,0,0,0,0,0,0,0,0,0,0,0,0,0,0,0,0,0,0,0,0,0,0,0,0,0,0,0,0,0,0,0,0,0,0,0,0,0,0,0,0,0,0,0,0,0,0,0,0,0,0,0,0,0,0,0,0,0,0,0,0,0,0,0,0,0,0,0,0,0,0,0,0,0,0,0,0,0,0,0,0,0,0,0,0,0,0,0,0,0,0,0,0,0,0,0,0,0],"id":2,"left_children":[1,3,5,7,9,11,13,15,17,19,21,23,25,27,29,31,33,-1,-1,35,37,39,-1,41,43,45,47,49,51,53,55,57,59,-1,61,63,65,67,69,71,73,75,77,79,81,83,85,87,89,91,93,-1,-1,95,97,99,101,103,105,-1,-1,-1,-1,107,109,111,113,115,117,119,121,123,-1,125,-1,127,129,131,133,-1,135,137,139,141,143,145,147,149,151,153,155,157,-1,159,161,163,165,167,169,-1,-1,-1,171,173,-1,-1,-1,175,177,179,181,183,185,187,-1,189,191,193,195,197,199,-1,-1,201,203,205,-1,207,209,211,213,215,217,219,221,223,225,-1,227,229,231,233,235,237,239,-1,241,243,245,-1,-1,247,249,251,253,255,-1,-1,-1,257,259,-1,261,263,265,267,269,271,273,-1,-1,-1,275,-1,-1,277,279,-1,281,-1,-1,283,285,-1,287,-1,-1,289,-1,291,293,-1,295,297,299,301,-1,-1,-1,303,305,307,309,311,313,-1,315,317,319,321,323,325,327,329,331,333,335,337,-1,339,341,343,345,347,349,351,353,355,357,-1,-1,359,361,363,365,-1,367,369,371,373,-1,375,377,379,381,383,-1,-1,-1,385,-1,387,-1,389,391,-1,393,-1,-1,-1,-1,395,397,-1,399,401,403,-1,-1,405,-1,407,409,-1,411,-1,-1,-1,413,415,417,-1,-1,419,-1,421,-1,-1,-1,-1,-1,-1,423,-1,-1,-1,425,-1,-1,-1,-1,-1,-1,-1,-1,-1,-1,-1,-1,427,429,431,433,435,-1,-1,-1,437,439,441,443,445,447,449,451,-1,-1,453,-1,455,457,459,-1,-1,-1,-1,-1,461,463,465,467,469,471,473,475,477,479,481,483,-1,485,487,-1,489,491,-1,-1,-1,-1,493,495,497,-1,-1,-1,-1,-1,-1,-1,-1,-1,-1,-1,-1,-1,-1,-1,-1,-1,-1,-1,-1,-1,-1,-1,-1,-1,-1,-1,-1,-1,-1,-1,-1,-1,-1,-1,-1,-1,-1,-1,-1,-1,-1,-1,-1,-1,-1,-1,-1,-1,-1,-1,-1,-1,-1,-1,-1,-1,-1,-1,-1,-1,-1,-1,-1,-1,-1,-1,-1,-1,-1,-1,-1,-1,-1,-1,-1,-1,-1,-1,-1,-1,-1,-1,-1,-1,-1,-1,-1,-1,-1,-1,-1,-1,-1,-1,-1,-1,-1,-1,-1,-1,-1,-1,-1,-1,-1,-1,-1,-1,-1,-1,-1,-1,-1,-1,-1,-1,-1,-1,-1,-1,-1,-1,-1,-1,-1,-1,-1,-1,-1,-1,-1,-1,-1,-1,-1,-1],"loss_changes":[1.1495435E2,1.2413315E1,4.505033E1,7.6091003E-1,6.604149E0,2.4448692E1,5.9334633E1,3.2486725E-1,2.0938869E0,6.7605667E0,4.7807045E0,1.4793266E1,6.5662823E0,2.4938713E1,5.259057E0,3.5533905E-1,2.043394E0,0E0,0E0,5.3058386E0,4.8182755E0,3.8574142E0,0E0,9.688067E0,4.236288E0,4.2825193E0,1.1102772E1,3.1743011E0,4.1513443E0,2.165215E0,3.5354247E0,1.6822052E-1,1.2011304E0,0E0,5.138107E-1,9.615471E0,3.4584193E0,3.3806343E0,4.3075757E0,1.6309357E0,1.8692045E0,1.5743097E1,3.347272E1,4.711788E0,3.253425E0,4.9028873E0,5.554242E0,2.9859748E0,6.2858677E0,2.2671509E-1,4.18073E0,0E0,0E0,4.953713E0,2.808675E0,5.004654E-1,1.6203458E0,1.8010297E0,2.3239136E-1,0E0,0E0,0E0,0E0,3.453334E0,5.714177E0,3.7600117E0,4.149265E0,1.4314232E0,4.71819E0,3.3653584E0,3.1231384E0,1.699585E0,0E0,1.8984144E0,0E0,2.083299E1,3.2625183E1,1.8319855E1,1.8765007E1,0E0,4.360285E0,5.061033E0,3.9129407E0,3.7377117E0,6.8030424E0,4.2327533E0,4.202931E0,1.7056942E-1,2.753841E0,6.4682465E0,3.1502502E0,2.4814315E0,0E0,4.1165423E0,1.9496784E0,5.57407E0,2.871105E0,2.1984735E0,2.1166341E0,0E0,0E0,0E0,2.10708E0,1.5695888E0,0E0,0E0,0E0,4.9971395E0,1.7890892E0,6.523886E-1,3.262075E0,1.4920111E0,5.1924024E0,8.979962E-1,0E0,1.2680969E0,1.6605846E0,2.1133735E0,2.8609097E0,1.8157276E0,2.5704126E0,0E0,0E0,2.4275584E0,1.1786728E0,9.64989E-1,0E0,1.3096274E1,2.0587002E1,1.1617912E1,1.0092888E1,2.9952443E0,1.5949635E1,8.691323E0,1.0073103E1,6.7430134E0,5.369257E0,0E0,1.0998173E0,7.769285E0,5.963244E0,3.4414697E0,4.377092E0,7.188051E0,8.7908363E-1,0E0,3.8017468E0,8.740256E0,5.190008E0,0E0,0E0,1.2732925E0,1.8693366E0,1.5222954E0,3.8481178E0,2.7256613E0,0E0,0E0,0E0,2.0280821E0,3.1094885E-1,0E0,3.719616E-1,2.9091024E-1,4.5986176E0,2.5374398E0,1.7961931E0,2.8217735E0,3.2959046E0,0E0,0E0,0E0,9.4353914E-1,0E0,0E0,2.0733116E0,2.1850705E0,0E0,5.676222E-2,0E0,0E0,2.6305356E0,6.7681293E0,0E0,6.196556E-1,0E0,0E0,8.090019E-3,0E0,1.1991959E0,1.4502567E0,0E0,3.4031866E0,2.8973913E-1,3.9941382E-1,7.3599243E-1,0E0,0E0,0E0,9.8672915E-1,1.5217476E0,1.2848635E0,2.574995E0,2.7843094E-1,1.3025885E0,0E0,6.33502E-2,6.229806E0,1.01836464E2,1.1021614E1,9.163975E0,1.4775078E0,4.8640213E0,7.6170235E0,3.3612108E0,2.3330498E-1,2.5159774E0,1.2289406E1,0E0,1.0781955E1,6.408374E0,7.901663E0,6.4386067E0,7.923486E0,3.7174735E0,1.3692379E0,8.385136E0,8.9399004E-1,9.7194254E-1,0E0,0E0,2.941443E0,2.3606315E0,2.7330143E0,5.1621323E0,0E0,2.305521E0,3.2446442E0,4.716451E0,1.237185E0,0E0,1.0669833E0,4.4865775E0,3.1542778E-1,6.034531E0,2.5870066E0,0E0,0E0,0E0,2.1514125E0,0E0,1.267885E-1,0E0,2.4725974E0,1.572586E0,0E0,2.6958942E-1,0E0,0E0,0E0,0E0,6.041889E-1,2.7391906E0,0E0,6.125991E-1,4.5967855E0,1.9289286E0,0E0,0E0,8.2116556E-1,0E0,3.670391E0,4.8163047E0,0E0,2.0387754E0,0E0,0E0,0E0,1.1812544E0,7.700856E-1,3.4051416E0,0E0,0E0,9.5963836E-1,0E0,3.043991E0,0E0,0E0,0E0,0E0,0E0,0E0,6.120224E-1,0E0,0E0,0E0,5.056891E-1,0E0,0E0,0E0,0E0,0E0,0E0,0E0,0E0,0E0,0E0,0E0,0E0,2.2689404E0,3.3950603E-1,4.850769E-2,1.4368601E0,1.2483172E0,0E0,0E0,0E0,8.107906E0,8.192562E0,1.1235147E1,4.1529564E1,8.32613E0,5.345709E0,1.0688744E0,2.4124515E0,0E0,0E0,3.3602562E0,0E0,4.947933E0,1.0476468E1,1.384779E0,0E0,0E0,0E0,0E0,0E0,1.2775495E0,1.04732895E1,5.5600276E0,2.2567043E0,7.2280416E0,1.0873133E1,6.201616E0,7.7636414E0,4.1296425E0,8.624559E0,1.6293545E0,5.00097E0,0E0,2.3589501E0,3.2099438E0,0E0,2.7906895E0,1.1720805E0,0E0,0E0,0E0,0E0,3.339785E0,5.4728454E-1,8.23123E-1,0E0,0E0,0E0,0E0,0E0,0E0,0E0,0E0,0E0,0E0,0E0,0E0,0E0,0E0,0E0,0E0,0E0,0E0,0E0,0E0,0E0,0E0,0E0,0E0,0E0,0E0,0E0,0E0,0E0,0E0,0E0,0E0,0E0,0E0,0E0,0E0,0E0,0E0,0E0,0E0,0E0,0E0,0E0,0E0,0E0,0E0,0E0,0E0,0E0,0E0,0E0,0E0,0E0,0E0,0E0,0E0,0E0,0E0,0E0,0E0,0E0,0E0,0E0,0E0,0E0,0E0,0E0,0E0,0E0,0E0,0E0,0E0,0E0,0E0,0E0,0E0,0E0,0E0,0E0,0E0,0E0,0E0,0E0,0E0,0E0,0E0,0E0,0E0,0E0,0E0,0E0,0E0,0E0,0E0,0E0,0E0,0E0,0E0,0E0,0E0,0E0,0E0,0E0,0E0,0E0,0E0,0E0,0E0,0E0,0E0,0E0,0E0,0E0,0E0,0E0,0E0,0E0,0E0,0E0,0E0,0E0,0E0,0E0,0E0,0E0,0E0,0E0,0E0,0E0,0E0,0E0,0E0,0E0,0E0,0E0,0E0,0E0],"parents":[2147483647,0,0,1,1,2,2,3,3,4,4,5,5,6,6,7,7,8,8,9,9,10,10,11,11,12,12,13,13,14,14,15,15,16,16,19,19,20,20,21,21,23,23,24,24,25,25,26,26,27,27,28,28,29,29,30,30,31,31,32,32,34,34,35,35,36,36,37,37,38,38,39,39,40,40,41,41,42,42,43,43,44,44,45,45,46,46,47,47,48,48,49,49,50,50,53,53,54,54,55,55,56,56,57,57,58,58,63,63,64,64,65,65,66,66,67,67,68,68,69,69,70,70,71,71,73,73,75,75,76,76,77,77,78,78,80,80,81,81,82,82,83,83,84,84,85,85,86,86,87,87,88,88,89,89,90,90,91,91,93,93,94,94,95,95,96,96,97,97,98,98,102,102,103,103,107,107,108,108,109,109,110,110,111,111,112,112,113,113,115,115,116,116,117,117,118,118,119,119,120,120,123,123,124,124,125,125,127,127,128,128,129,129,130,130,131,131,132,132,133,133,134,134,135,135,136,136,138,138,139,139,140,140,141,141,142,142,143,143,144,144,146,146,147,147,148,148,151,151,152,152,153,153,154,154,155,155,159,159,160,160,162,162,163,163,164,164,165,165,166,166,167,167,168,168,172,172,175,175,176,176,178,178,181,181,182,182,184,184,187,187,189,189,190,190,192,192,193,193,194,194,195,195,199,199,200,200,201,201,202,202,203,203,204,204,206,206,207,207,208,208,209,209,210,210,211,211,212,212,213,213,214,214,215,215,216,216,217,217,219,219,220,220,221,221,222,222,223,223,224,224,225,225,226,226,227,227,228,228,231,231,232,232,233,233,234,234,236,236,237,237,238,238,239,239,241,241,242,242,243,243,244,244,245,245,249,249,251,251,253,253,254,254,256,256,261,261,262,262,264,264,265,265,266,266,269,269,271,271,272,272,274,274,278,278,279,279,280,280,283,283,285,285,292,292,296,296,309,309,310,310,311,311,312,312,313,313,317,317,318,318,319,319,320,320,321,321,322,322,323,323,324,324,327,327,329,329,330,330,331,331,337,337,338,338,339,339,340,340,341,341,342,342,343,343,344,344,345,345,346,346,347,347,348,348,350,350,351,351,353,353,354,354,359,359,360,360,361,361],"right_children":[2,4,6,8,10,12,14,16,18,20,22,24,26,28,30,32,34,-1,-1,36,38,40,-1,42,44,46,48,50,52,54,56,58,60,-1,62,64,66,68,70,72,74,76,78,80,82,84,86,88,90,92,94,-1,-1,96,98,100,102,104,106,-1,-1,-1,-1,108,110,112,114,116,118,120,122,124,-1,126,-1,128,130,132,134,-1,136,138,140,142,144,146,148,150,152,154,156,158,-1,160,162,164,166,168,170,-1,-1,-1,172,174,-1,-1,-1,176,178,180,182,184,186,188,-1,190,192,194,196,198,200,-1,-1,202,204,206,-1,208,210,212,214,216,218,220,222,224,226,-1,228,230,232,234,236,238,240,-1,242,244,246,-1,-1,248,250,252,254,256,-1,-1,-1,258,260,-1,262,264,266,268,270,272,274,-1,-1,-1,276,-1,-1,278,280,-1,282,-1,-1,284,286,-1,288,-1,-1,290,-1,292,294,-1,296,298,300,302,-1,-1,-1,304,306,308,310,312,314,-1,316,318,320,322,324,326,328,330,332,334,336,338,-1,340,342,344,346,348,350,352,354,356,358,-1,-1,360,362,364,366,-1,368,370,372,374,-1,376,378,380,382,384,-1,-1,-1,386,-1,388,-1,390,392,-1,394,-1,-1,-1,-1,396,398,-1,400,402,404,-1,-1,406,-1,408,410,-1,412,-1,-1,-1,414,416,418,-1,-1,420,-1,422,-1,-1,-1,-1,-1,-1,424,-1,-1,-1,426,-1,-1,-1,-1,-1,-1,-1,-1,-1,-1,-1,-1,428,430,432,434,436,-1,-1,-1,438,440,442,444,446,448,450,452,-1,-1,454,-1,456,458,460,-1,-1,-1,-1,-1,462,464,466,468,470,472,474,476,478,480,482,484,-1,486,488,-1,490,492,-1,-1,-1,-1,494,496,498,-1,-1,-1,-1,-1,-1,-1,-1,-1,-1,-1,-1,-1,-1,-1,-1,-1,-1,-1,-1,-1,-1,-1,-1,-1,-1,-1,-1,-1,-1,-1,-1,-1,-1,-1,-1,-1,-1,-1,-1,-1,-1,-1,-1,-1,-1,-1,-1,-1,-1,-1,-1,-1,-1,-1,-1,-1,-1,-1,-1,-1,-1,-1,-1,-1,-1,-1,-1,-1,-1,-1,-1,-1,-1,-1,-1,-1,-1,-1,-1,-1,-1,-1,-1,-1,-1,-1,-1,-1,-1,-1,-1,-1,-1,-1,-1,-1,-1,-1,-1,-1,-1,-1,-1,-1,-1,-1,-1,-1,-1,-1,-1,-1,-1,-1,-1,-1,-1,-1,-1,-1,-1,-1,-1,-1,-1,-1,-1,-1,-1,-1,-1,-1,-1,-1,-1,-1],"split_conditions":[1.35E2,7.8E1,2E0,8.692E3,1E0,7.99E2,4.7E2,3.57E2,1.2E1,3.5E1,6.1E1,1E0,2.1E1,9E0,4.554E3,5E0,2E0,4.0727952E-1,-7.8281003E-1,1.089E3,2E0,1E1,6.6636276E-1,6E0,5.32E2,8E0,8.8E1,3.7E2,6.35E2,2E0,2E0,1E0,6.3E1,-8.9894336E-1,2.66E2,6E0,2.1E1,6.1E1,5E0,3.89E2,1E0,4E0,7E0,2E0,2E0,4E0,1E0,3E0,3.698E3,6E0,3.1E1,-2.4848223E-2,1.8559449E0,5E0,1E0,2E0,4E0,2.31E2,2.4E1,-7.86865E-1,1.1393913E-1,-2.049706E-1,5.1768106E-1,4E0,9.4E1,9E0,3.1E1,1E1,1.7E1,3E0,9E0,1E0,2.5444794E-1,7E0,-8.0109537E-1,2.7E1,7E0,1.57E2,2.2E1,1.0724235E0,4E0,-2.15E2,5.54E2,6E0,2E1,1E0,3.7E1,2.9E1,0E0,2E0,7.624E3,4E0,-9.863722E-1,3E0,-3.95E2,4E0,3.7E1,5.9E1,4E0,-1.5167353E0,-3.6059895E-1,-7.0064783E-1,6E3,2E0,-8.743171E-1,-3.174305E-1,-9.647641E-1,4E0,2E0,2.7E1,1.1E1,2.4E1,4E0,2E0,-8.095629E-1,9E1,2.84E2,2E0,1.26E2,1.75E2,1.3E1,-1.066167E0,3.1564203E-1,3.7E1,2E0,2E0,9.6037924E-1,2E0,1E0,2.13E2,2.89E2,1.194E3,6.9E1,1.85E2,2.6E1,2.1E1,6E0,8.513348E-1,7E0,1.5E1,1E1,1E0,2.08E2,1.365E3,3E0,-1.1081072E0,3.2E1,1.002E3,1.365E3,1.6151059E-1,7.5502E-1,4.1E1,5.6E1,1.619E3,3.5E1,3.6E1,8.4476864E-1,-9.7018814E-1,2.6706058E-1,2E0,7.14E2,2.728598E-1,5.1E1,1E0,1.767E3,7E0,7.95E2,9E0,1.2E1,1.3868557E0,-1.7578223E-1,9.5056343E-1,1.002E3,-5.38728E-1,6.7647356E-1,1.04E2,1.4E1,2.4160789E-1,1.28E2,4.917721E-1,2.042475E0,3.1E1,2.6E1,-4.2575072E-2,9E1,9.993701E-1,-1.0124172E0,7E0,2.8871868E-2,7.9E1,7.8E2,-8.92115E-1,8.25E2,3E0,1.1E1,2.49E2,1.2706046E0,2.7643597E-1,-9.323037E-1,4E0,1.9E1,1E0,8E0,9E0,1.18E2,3.724375E-1,1.05E2,3E1,1E1,2.23E2,2.53E3,4E0,2E0,3.41E2,6E0,7.9E1,3.196E3,2.5E1,-1.4307998E0,5E0,1.9E1,2E0,1E0,9.52E2,1.99E2,2.8E1,2.2E1,5E1,2.53E2,-5.1445216E-1,1.9732889E0,6.66E2,6.51E2,5.3E1,2E0,6.0095924E-1,1.3E1,9.618E3,3.7E1,2E0,-1.2020961E0,2.9E1,5.8E1,3.1E1,1.8E1,4E0,3.4981406E-1,-2.957544E-1,8.11093E-1,5E0,-1.5857376E0,1.41E2,4.5193285E-1,3E0,1E0,5.259844E-1,5.4E1,-5.8630764E-2,1.2836499E0,-7.5886256E-1,-6.1479468E-2,4E0,1.8E1,-9.899422E-1,6.66E2,4.1E1,7.23E2,6.8151546E-1,-6.396276E-1,6E0,7.1327575E-2,7.53E2,1E0,1.4958435E0,3E0,-6.653481E-1,2.839453E-1,-1.9097915E-1,7.1E1,3E0,5.72E2,-9.889009E-1,-3.2470173E-1,1.18E2,5.420799E-1,3E1,-8.061406E-1,-2.2235839E-1,-1.32951E0,3.2251212E-1,1.1945057E0,5.008431E-2,1E0,4.961153E-1,-6.1283445E-1,1.0377558E0,4.4E1,-1.0199476E0,-1.8647932E-1,-1.7888846E-1,4.7210398E-1,3.025296E-1,-5.5643123E-1,1.6359426E0,3.7145206E-1,-5.260406E-1,6.09198E-1,-1.0994067E-2,-9.7140825E-1,2E0,9.8E1,1.32E2,5E0,1.16E2,-9.644411E-1,-5.9549344E-1,-1.3779692E-1,3E0,3.51E2,3E0,2E0,2.9E1,3E0,3.3E1,2.64E2,3.0163476E-1,-8.500022E-1,4.86E2,1.0592253E-1,1.5E1,6.2E1,3.78E2,-2.0590736E-1,-3.0114615E-1,-1.2919897E0,7.227168E-1,-7.0467275E-1,3.3E2,2E0,1E1,9.5E1,2.81E2,9E0,4E0,1E1,3.5E1,1E0,1.73E2,2E0,-1.7649601E-1,4.8E1,9.1E1,-1.202088E0,2.76E2,1.98E2,-1.3560228E0,-1.4992918E-1,-6.5695703E-1,2.8083885E-1,3.6E1,2E0,2.717E3,-2.1445965E-2,1.1289574E-1,-5.299928E-1,8.6235476E-1,-7.5881636E-1,-5.548382E-2,-1.8014933E0,7.585666E-1,-5.38645E-1,7.127654E-1,-6.004657E-1,3.4439057E-1,-6.991827E-1,1.5965901E-1,-7.0098406E-1,9.9960464E-1,-7.166032E-1,2.9589844E-1,1.1794361E0,-1.2899377E0,7.438E-1,-1.7729224E0,-2.6462803E-2,2.2494815E-1,-8.781965E-1,-1.5943913E-1,-8.105181E-1,8.287568E-1,-1.16780326E-1,1.4745144E0,7.6459676E-1,-9.7053444E-1,-1.9565326E-1,-9.7235906E-1,-3.3444044E-1,-8.486829E-1,4.5598134E-1,-5.8658123E-1,1.917376E-1,2.1177448E-1,8.282612E-1,-9.336469E-1,3.3845883E-2,-2.632916E-1,-1.6434643E0,-4.260969E-1,8.5373625E-2,1.3156863E0,-1.3063342E-2,-7.1669775E-1,6.2178195E-1,1.4204882E0,9.3405806E-2,-9.637573E-1,-1.5770303E-1,-3.2228577E-1,9.862503E-1,-1.0204881E0,1.8794138E-2,2.1128354E0,3.6122832E-1,-4.904639E-1,-8.5093385E-1,5.88848E-2,-7.175867E-1,7.8991735E-1,-5.127477E-1,-5.172751E-2,-7.472684E-1,-1.0266078E0,-4.6162662E-1,-2.353323E-1,-9.0022284E-1,-5.433145E-1,3.104205E-1,-2.1524236E-2,1.2583537E0,-2.5704172E-1,8.5643744E-1,7.82017E-1,-4.3147343E-1,2.95083E0,5.6863916E-1,4.7059375E-1,-1.0209383E0,4.329828E-1,1.7686665E0,1.065549E0,2.7455664E0,-6.753495E-1,7.742814E-1,2.5783446E0,3.308975E-1,-2.8224653E-1,-8.0076516E-1,-3.24977E-1,1.2219177E0,2.1529894E0,4.482534E-1,-9.218871E-1,1.970959E-1,1.5083476E0,5.0672144E-1,1.1366423E0,-7.1758324E-1,-4.5498833E-1,-9.352195E-1,9.804232E-2,-3.4817094E-1,1.6460272E0,-4.1657904E-1,6.9906014E-1,-7.021343E-1,2.3425238E0,5.64091E-1,1.663427E0,1.3200136E-1,1.377726E0,-1.9161756E-1,-5.1635936E-2,-8.0333215E-1,-1.15904965E-1,1.4452181E0,1.9568559E0,1.2089834E-1,-7.744431E-1,5.2720696E-1,-7.264993E-1,-1.7912127E-1,1.3961273E-1,1.5081394E0,2.9972205E-1,2.015271E0,2.4438326E-1,-4.8593384E-1,-7.816049E-1,8.095011E-2],"split_indices":[11,11,8,5,6,11,11,13,9,0,0,7,9,10,5,14,8,0,0,5,14,10,0,10,11,1,5,11,5,1,12,10,11,0,5,10,9,0,1,13,7,10,10,9,15,1,6,1,5,10,0,0,0,12,4,3,1,5,0,0,0,0,0,10,11,1,0,10,9,1,10,1,0,1,0,9,9,11,9,0,10,5,11,12,9,3,0,9,5,15,5,9,0,1,5,9,0,0,12,0,0,0,5,3,0,0,0,1,15,0,9,0,10,12,0,13,5,3,11,13,9,0,0,0,3,13,0,10,6,11,13,5,0,11,9,9,10,0,1,9,9,7,5,11,12,0,0,11,11,0,0,0,0,5,0,0,0,0,0,12,5,0,0,1,5,10,5,1,9,0,0,0,11,0,0,11,9,0,11,0,0,0,9,0,11,0,0,1,0,11,5,0,5,12,9,5,0,0,0,14,9,15,10,1,11,0,11,0,9,11,5,9,13,11,1,5,5,0,0,9,9,12,1,5,11,9,9,0,13,0,0,11,11,0,1,0,9,5,0,3,0,0,0,0,9,12,0,0,0,5,0,13,0,12,6,0,0,0,0,0,0,12,9,0,11,0,11,0,0,12,0,5,3,0,12,0,0,0,13,10,5,0,0,11,0,0,0,0,0,0,0,0,2,0,0,0,0,0,0,0,0,0,0,0,0,0,0,0,0,14,11,11,10,11,0,0,0,12,13,10,13,9,14,0,11,0,0,11,0,9,0,13,0,0,0,0,0,11,13,10,13,13,10,14,10,0,2,11,10,0,0,13,0,11,11,0,0,0,0,0,12,5,0,0,0,0,0,0,0,0,0,0,0,0,0,0,0,0,0,0,0,0,0,0,0,0,0,0,0,0,0,0,0,0,0,0,0,0,0,0,0,0,0,0,0,0,0,0,0,0,0,0,0,0,0,0,0,0,0,0,0,0,0,0,0,0,0,0,0,0,0,0,0,0,0,0,0,0,0,0,0,0,0,0,0,0,0,0,0,0,0,0,0,0,0,0,0,0,0,0,0,0,0,0,0,0,0,0,0,0,0,0,0,0,0,0,0,0,0,0,0,0,0,0,0,0,0,0,0,0,0,0,0,0,0,0,0,0,0],"split_type":[0,0,0,0,0,0,0,0,0,0,0,0,0,0,0,0,0,0,0,0,0,0,0,0,0,0,0,0,0,0,0,0,0,0,0,0,0,0,0,0,0,0,0,0,0,0,0,0,0,0,0,0,0,0,0,0,0,0,0,0,0,0,0,0,0,0,0,0,0,0,0,0,0,0,0,0,0,0,0,0,0,0,0,0,0,0,0,0,0,0,0,0,0,0,0,0,0,0,0,0,0,0,0,0,0,0,0,0,0,0,0,0,0,0,0,0,0,0,0,0,0,0,0,0,0,0,0,0,0,0,0,0,0,0,0,0,0,0,0,0,0,0,0,0,0,0,0,0,0,0,0,0,0,0,0,0,0,0,0,0,0,0,0,0,0,0,0,0,0,0,0,0,0,0,0,0,0,0,0,0,0,0,0,0,0,0,0,0,0,0,0,0,0,0,0,0,0,0,0,0,0,0,0,0,0,0,0,0,0,0,0,0,0,0,0,0,0,0,0,0,0,0,0,0,0,0,0,0,0,0,0,0,0,0,0,0,0,0,0,0,0,0,0,0,0,0,0,0,0,0,0,0,0,0,0,0,0,0,0,0,0,0,0,0,0,0,0,0,0,0,0,0,0,0,0,0,0,0,0,0,0,0,0,0,0,0,0,0,0,0,0,0,0,0,0,0,0,0,0,0,0,0,0,0,0,0,0,0,0,0,0,0,0,0,0,0,0,0,0,0,0,0,0,0,0,0,0,0,0,0,0,0,0,0,0,0,0,0,0,0,0,0,0,0,0,0,0,0,0,0,0,0,0,0,0,0,0,0,0,0,0,0,0,0,0,0,0,0,0,0,0,0,0,0,0,0,0,0,0,0,0,0,0,0,0,0,0,0,0,0,0,0,0,0,0,0,0,0,0,0,0,0,0,0,0,0,0,0,0,0,0,0,0,0,0,0,0,0,0,0,0,0,0,0,0,0,0,0,0,0,0,0,0,0,0,0,0,0,0,0,0,0,0,0,0,0,0,0,0,0,0,0,0,0,0,0,0,0,0,0,0,0,0,0,0,0,0,0,0,0,0,0,0,0,0,0,0,0,0,0,0,0,0,0,0,0,0,0,0,0,0,0,0,0,0,0,0,0,0],"sum_hessian":[2.363802E3,4.3322073E2,1.9305814E3,1.4700554E2,2.862152E2,1.5792914E3,3.5128998E2,1.4244829E2,4.5572495E0,1.6284114E2,1.23374054E2,1.3684833E3,2.1080814E2,1.7215613E2,1.7913383E2,1.3687929E2,5.5690084E0,1.5669975E0,2.990252E0,5.962678E1,1.0321436E2,1.2163751E2,1.7365395E0,1.213525E3,1.5495824E2,1.5212776E2,5.8680374E1,1.6763571E2,4.52043E0,1.6927623E2,9.8576E0,1.3168486E2,5.1944327E0,3.38197E0,2.1870384E0,4.0946278E1,1.8680504E1,8.771842E1,1.5495946E1,1.1521306E2,6.4244566E0,7.137579E2,4.9976712E2,1.15375374E2,3.9582867E1,1.20659485E2,3.1468271E1,1.1986269E1,4.6694103E1,1.3303473E2,3.4600975E1,1.646013E0,2.8744168E0,7.300753E1,9.626871E1,4.091754E0,5.765846E0,7.5716305E0,1.2411322E2,3.2763011E0,1.9181314E0,1.0836453E0,1.1033931E0,2.7371897E1,1.3574382E1,1.3080116E1,5.600388E0,7.672234E1,1.0996077E1,9.568574E0,5.927372E0,1.1413722E2,1.0758361E0,5.306398E0,1.1180586E0,4.8741583E2,2.2634206E2,6.2383293E1,4.3738382E2,1.0772444E0,1.14298134E2,8.490766E0,3.10921E1,5.8710243E1,6.194924E1,1.51069765E1,1.6361294E1,2.6239104E0,9.362358E0,3.9706924E1,6.9871798E0,5.4872313E0,1.275475E2,6.91912E0,2.7681856E1,6.516662E1,7.840907E0,9.39178E1,2.3509076E0,2.8124573E0,1.2792966E0,1.9331523E0,3.8326933E0,2.2849047E0,5.286726E0,1.789264E0,1.2232396E2,1.8653664E1,8.718233E0,3.2084417E0,1.036594E1,9.898423E0,3.181693E0,3.4927876E0,2.1076002E0,7.140896E1,5.3133836E0,6.8619304E0,4.134146E0,3.2976573E0,6.270917E0,4.065857E0,1.8615152E0,1.6334179E1,9.780304E1,3.783126E0,1.5232717E0,4.3416455E2,5.32513E1,1.0104804E1,2.1623724E2,7.1151648E0,5.5268127E1,3.6376282E2,7.3621E1,3.2195915E1,8.210221E1,1.2141199E0,7.2766457E0,3.4987416E0,2.7593359E1,5.477821E1,3.932035E0,5.812328E1,3.825965E0,1.0059769E0,1.4101E1,9.463105E0,6.8981886E0,1.560761E0,1.0631495E0,2.4043458E0,6.9580126E0,3.4666185E0,3.6240307E1,5.309432E0,1.6777476E0,3.5097685E0,1.9774626E0,3.5233097E0,3.39581E0,1.267453E0,2.6414402E1,4.4935813E0,6.0673042E1,3.8546448E0,3.9862623E0,9.017458E1,3.7432148E0,1.274826E0,1.0760815E0,1.3248926E0,2.5078008E0,1.0694181E0,1.2154866E0,4.6214957E0,1.4032168E1,1.1574148E0,7.5608187E0,1.1851712E0,2.0232704E0,5.0365305E0,5.3294096E0,1.2574553E0,8.640967E0,1.8225255E0,1.3591675E0,2.0361998E0,1.4565878E0,6.868046E1,2.7285042E0,1.1748723E0,4.1385117E0,4.817334E0,2.0445962E0,2.116642E0,2.0175042E0,1.7340661E0,1.5635911E0,3.5180383E0,2.7528784E0,8.34153E0,7.9926496E0,6.3535744E1,3.4267296E1,1.4440076E0,2.3391185E0,3.1321997E2,1.2094458E2,4.355859E1,9.69271E0,2.7221622E0,7.3826423E0,2.1243024E2,3.8070145E0,4.1307583E0,2.9844062E0,5.339994E1,1.8681867E0,5.335119E1,3.1041162E2,2.9199686E1,4.4421318E1,2.7411783E1,4.784132E0,4.1396378E1,4.0705837E1,4.6200924E0,2.6565533E0,1.6552395E0,1.8435022E0,6.6711087E0,2.092225E1,4.3317894E1,1.1460316E1,1.0527953E0,2.8792396E0,4.7623142E1,1.0500136E1,2.691095E0,1.1348697E0,4.180368E0,9.920631E0,3.7440631E0,5.7190423E0,5.2974434E0,1.6007456E0,1.2744943E0,1.1298515E0,5.5525746E0,1.4054377E0,2.3881314E0,1.078487E0,1.0612258E1,2.5628048E1,1.3505834E0,3.9588485E0,1.7570856E0,1.7662241E0,2.3741019E0,1.0217081E0,2.095813E1,5.4562716E0,1.8721792E0,2.6214023E0,5.335313E1,7.319912E0,2.1277845E0,1.7268602E0,2.9732912E0,1.0129713E0,6.1177906E1,2.8996681E1,1.1238242E0,2.6193907E0,1.4255508E0,1.0822499E0,1.2930799E0,3.3284159E0,5.8922215E0,8.139946E0,6.1065807E0,1.4542379E0,3.2462018E0,1.7903287E0,4.0450006E0,1.284409E0,1.0165465E0,7.624421E0,1.0311977E0,1.0050023E0,1.5739723E0,6.710648E1,1.4012946E0,1.3272097E0,1.4878345E0,2.650677E0,3.7923496E0,1.0249847E0,1.0137104E0,1.0308858E0,1.0314815E0,1.0851604E0,1.7385278E0,1.7795104E0,1.5643682E0,1.1885103E0,1.733404E0,6.608126E0,4.467433E0,3.5252163E0,4.615846E1,1.7377289E1,2.4375988E1,9.891307E0,1.0538372E0,1.2852814E0,2.805643E1,2.8516354E2,9.147704E1,2.9467539E1,1.3902352E1,2.9656239E1,7.008578E0,2.6841323E0,1.4079459E0,1.3142164E0,6.0458364E0,1.3368056E0,9.345383E1,1.1897641E2,2.5278058E0,1.2792088E0,1.0448676E0,3.0858908E0,1.6970364E0,1.2873698E0,3.4714565E0,4.9928482E1,6.293341E0,4.705785E1,2.475978E2,6.2813843E1,1.861231E1,1.0587376E1,6.49113E0,3.7930187E1,2.0020927E1,7.3908563E0,2.0421553E0,2.7419767E0,3.1074892E1,1.03214855E1,3.8024197E1,2.68164E0,3.5980504E0,1.0220418E0,1.3897091E0,1.2668443E0,4.3778806E0,2.2932281E0,9.00833E0,1.1913919E1,3.6279476E1,7.038419E0,9.874765E0,1.5855501E0,1.1340272E0,1.7452124E0,4.6290165E1,1.332978E0,3.093977E0,7.4061594E0,1.345312E0,1.3457831E0,2.232916E0,1.9474518E0,8.857307E0,1.0633242E0,1.4464792E0,2.297584E0,4.4693747E0,1.2496676E0,4.2492976E0,1.0481454E0,2.6103773E0,2.9421973E0,1.0314286E0,1.3567029E0,6.618666E0,3.9935925E0,1.7119915E1,8.508132E0,2.760835E0,1.1980135E0,1.784474E1,3.1133914E0,3.8019366E0,1.6543353E0,1.5944737E0,1.0269287E0,3.5008617E1,1.8344511E1,2.5308373E0,4.7890744E0,1.0235665E0,1.9497247E0,4.0394226E1,2.0783678E1,2.0325947E0,2.6964087E1,1.5117143E0,1.1076764E0,2.2998512E0,1.0285646E0,3.6976638E0,2.194558E0,6.422477E0,1.7174696E0,2.0413802E0,1.2048216E0,1.6367733E0,2.4082272E0,1.0512421E1,5.6594063E1,1.0244406E0,1.6262363E0,3.338853E0,1.1285802E0,1.0791584E0,2.446058E0,4.3643646E1,2.51481E0,5.5558515E0,1.1821436E1,2.3159967E1,1.2160202E0,2.2741299E1,5.315132E0,2.793511E2,5.8124437E0,7.4677033E0,8.400934E1,1.4297508E1,1.5170031E1,5.4139633E0,8.488389E0,2.705115E1,2.6050892E0,2.4704967E0,4.538081E0,1.0923778E0,1.5917544E0,4.9317575E0,1.1140789E0,2.7455732E1,6.599809E1,1.1539481E2,3.581595E0,1.0096853E0,1.5181205E0,2.4535449E0,1.0179117E0,3.2788418E1,1.7140066E1,4.8319864E0,1.4613546E0,2.927275E1,1.7785097E1,2.0450388E2,4.3093918E1,1.6938701E0,6.1119972E1,1.55614E1,3.0509098E0,5.0082026E0,5.5791726E0,3.0297713E0,3.4613585E0,2.8794203E0,3.505077E1,3.6285224E0,1.6392405E1,5.101081E0,2.2897754E0,1.5920354E0,1.1499414E0,2.9730976E1,1.3439156E0,1.8733866E1,1.929033E1,1.1238974E0,1.5577424E0,3.0184526E0,1.3594279E0,1.0562643E0,1.2369639E0,7.9477034E0,1.0606276E0],"tree_param":{"num_deleted":"0","num_feature":"48","num_nodes":"499","size_leaf_vector":"1"}},{"base_weights":[-1.2308957E-1,-5.0795555E-1,-8.185752E-2,-4.0213004E-1,-8.344878E-1,-3.369789E-2,-2.4958764E-1,-5.687637E-1,-1.5274224E-1,-9.12357E-1,-1.9112882E-1,-7.740914E-2,4.6830557E-2,-4.9198988E-1,-1.1653743E-2,-6.098675E-1,4.6972594E-1,-5.640766E-1,3.1881277E-2,-4.1796213E-1,-9.6320933E-1,1.0516217E0,-6.785953E-1,9.437807E-3,-1.802117E-1,-1.6586037E-1,1.2060519E-1,-5.937246E-1,3.199864E-2,1.1268561E0,-3.1753644E-2,2.0311812E-1,-6.45729E-1,-5.4713076E-1,1.2795823E0,2.6973364E-1,-6.932955E-1,2.9668376E-1,-2.0397353E-1,-7.306315E-1,9.392104E-2,-8.1280935E-1,-7.8218006E-2,-2.1015422E-2,4.8274258E-1,-2.9883873E-1,1.1645769E-2,2.3033285E-1,-2.6143092E-1,1.9786313E-1,-1.8923424E-1,2.064803E-1,-6.9725925E-1,8.2096404E-1,-4.6786273E-1,-8.042111E-3,-1.1842514E0,-2.05549E-1,6.543519E-1,-6.7988807E-1,8.049269E-2,-1.1456222E-1,-7.770182E-1,1.0944524E0,1.823692E-1,2.0918754E-1,-4.8501328E-1,3.3758456E-1,-6.886604E-2,-2.0633616E-1,8.639828E-1,-4.7583276E-1,-1.1295423E-1,-1.9072738E-2,8.776125E-1,1.2453479E-2,1.2278427E0,-5.706596E-1,-1.3059355E-1,2.5541157E-1,-1.005688E-1,-3.1048745E-1,4.87069E-1,3.82603E-1,-9.6806484E-1,-8.237052E-1,-3.1704423E-1,1.8141838E0,-6.198874E-1,2.8793597E-1,-7.298694E-1,-9.782202E-2,1.3257383E-1,-1.6412177E0,1.2482221E-2,-4.755891E-1,-7.718212E-1,-4.999873E-1,7.1154225E-1,9.5325045E-2,-2.661926E-1,-9.383896E-1,-4.8344973E-1,-6.5139597E-3,7.204047E-1,-2.5381416E-1,1.6638833E0,3.8244497E-2,-7.4444616E-1,6.8730927E-1,1.1333658E-2,-7.836325E-1,-4.986818E-2,-7.7307E-1,3.4956303E-1,1.0695515E0,-5.5623263E-1,-6.9693947E-1,-5.4820303E-2,-1.8642858E-1,7.01031E-1,2.7471064E-2,-8.035244E-1,1.5043311E0,-1.5331426E-3,9.1132945E-1,-4.0176272E-1,1.8488884E0,1.6486788E-1,-3.5385033E-1,-1.1393883E0,-2.1041317E-1,5.572421E-1,1.9269606E-1,7.076073E-1,-3.906076E-1,3.2158512E-1,-3.9648652E-1,6.487676E-1,-7.3757917E-1,7.751239E-1,9.7516334E-1,-1.5599078E-1,-8.5222006E-1,8.900918E-2,1.9063406E-2,-7.543152E-1,-5.833185E-1,2.2434852E0,-1.3514528E0,9.360472E-1,-5.132048E-1,7.31507E-1,-8.351797E-1,3.8174766E-1,-6.1584786E-2,-1.6644431E0,2.4695005E-2,8.084298E-1,-7.23932E-1,-1.9049209E-2,-8.0866027E-1,-2.650998E-1,-7.166669E-1,4.226929E-1,-3.3561796E-1,3.7975273E-1,1.4829853E0,5.612068E-2,-5.562748E-1,6.7645323E-1,-5.1549417E-1,1.2441801E0,-7.2357215E-2,-8.7215513E-1,-5.44368E-1,8.520494E-1,4.0197575E-1,-5.599886E-1,2.5644338E-1,-1.1474407E0,-5.983172E-1,-3.1948492E-2,-9.9097615E-1,6.249286E-2,-6.496945E-1,7.700343E-1,1.8760933E0,7.9275006E-1,6.730295E-1,-7.365327E-1,-3.77526E-1,2.78707E-1,-2.1638373E-1,1.031266E0,1.4758539E0,-3.3442732E-2,-6.5848688E-3,9.0716E-1,-1.385645E0,-3.3173054E-2,-5.3405803E-1,5.212724E-1,1.3792174E0,-7.073705E-1,-7.5449926E-1,-6.1732598E-2,-1.0268167E0,-6.4924665E-2,-1.7326304E0,-8.522554E-2,3.3521095E-1,-2.9021817E-1,9.5592326E-1,-5.054084E-1,3.5311678E-1,1.12360574E-1,-6.415235E-1,1.0459744E0,7.650796E-1,-4.9727905E-1,9.1685843E-1,-1.794711E-1,-2.7578256E-1,-1.0317552E0,1.2563223E0,-6.2536263E-1,1.0149915E0,-4.6888933E-1,1.6043869E0,-8.443328E-2,-3.3902055E-1,6.5845263E-1,-9.492738E-1,-6.7233026E-1,-6.0605705E-1,7.275773E-1,-3.2498682E-1,7.451058E-1,1.5047015E-2,-9.6981484E-1,2.473276E-1,2.9681914E0,-1.555351E0,-3.5414937E-1,9.673085E-1,4.6113846E-3,-9.4029206E-1,-8.5298635E-2,1.127066E-1,-2.4936275E-1,1.4812331E-1,-8.674651E-1,-3.4005058E-1,1.0036056E0,-8.1124216E-1,2.9426533E-1,-9.339032E-1,1.4682345E0,-9.245009E-1,-5.174751E-1,-7.749198E-1,6.338846E-1,-8.368171E-1,-1.3091035E-1,-8.8627565E-1,2.1160531E-1,1.5422711E0,-1.17195114E-1,-6.602627E-1,8.5436285E-1,-7.240578E-1,1.7893864E-2,1.995183E-1,-7.971521E-1,-2.3689076E-2,-7.8155494E-1,4.1879672E-1,1.582835E0,6.794732E-1,-9.37734E-1,-7.987564E-1,7.670192E-1,7.3833555E-1,-4.004106E-1,1.2024874E-2,-1.5200136E0,9.716807E-2,-8.645377E-1,5.497053E-1,-5.0658897E-2,1.3358781E0,1.2328527E-1,1.8510584E0,5.4759645E-1,-6.8564177E-1,-1.7722008E0,-6.2690836E-1,1.003926E0,-1.19689904E-1,1.4625732E0,-1.8132807E-1,-1.1246765E0,1.979659E0,1.356845E-2,-7.1725357E-1,7.6388377E-1,3.2665335E-2,-9.653219E-1,1.8486341E0,1.0648078E-1,-4.5297363E-1,4.5501631E-1,1.6961061E0,1.0379881E-1,-1.1307008E0,-1.4896177E-1,-3.73288E-1,2.8204575E-1,-1.2029612E0,-1.7927077E-1,-6.9039065E-1,1.8224101E-1,-6.2636894E-1,-1.9906622E0,-5.413838E-1,5.5781406E-1,-6.370556E-1,7.705028E-1,-4.288543E-2,-5.743653E-1,1.2224381E0,5.384866E-2,-1.1673057E0,3.9258906E-1,4.7734776E-1,5.5673935E-2,-1.105158E0,6.649391E-1,-5.375577E-1,1.2675074E0,-2.6030065E-3,-7.394614E-1,1.5749481E0,5.8258265E-1,-6.259604E-1,1.6685905E-1,-7.710596E-1,-6.443031E-2,-8.012175E-2,-1.1488539E0,5.079461E-2,1.6461111E0,1.3456789E0,-7.0162594E-2,2.4036832E0,1.3475844E-1,4.6180007E-1,-4.0759566E-1,5.822028E-1,-5.8579564E-1,-1.0025831E0,-3.8463706E-1,3.946899E-1,-7.755466E-1,-4.835364E-1,7.87347E-1,-2.044416E-1,1.4107194E0,5.945387E-1,-9.999676E-1,-2.5523156E-1,-1.0325274E0,3.3669364E0,9.7385395E-1,-1.3165443E0,-5.421726E-1,2.3562968E-1,-3.597148E-1,-3.486243E-1,2.8779128E-1,7.5250226E-1,4.747692E-2,-1.0548785E0,1.0824718E-1,1.2806906E0,-7.4048236E-2,-5.122148E-1,-9.448511E-1,-4.8157085E-2,2.2160702E0,-2.8021064E-1,-9.668697E-1,-6.161828E-1,4.26932E-1,6.973127E-1,-6.1873484E-1,-5.619129E-1,7.871136E-1,-4.8233125E-2,-8.777333E-1,1.0726647E0,-1.0868691E-1,1.6197997E-1,2.0176528E0,1.0187664E0,-7.108238E-2,-3.0312335E-1,-1.2096887E0,-9.5323277E-1,3.29076E-2,-1.9144158E0,5.0774198E-2,9.08232E-1,-7.8511286E-1,-8.50701E-2,1.2246888E0,-9.670912E-3,-2.6702723E-1,-4.9228203E-1,7.340221E-1,-2.1281976E-1,1.1963599E0,-7.510865E-1,7.50007E-1,-2.7782482E-1,-1.0396988E0,1.9740361E0,-7.5954247E-1,8.4855723E-1,-5.2537507E-1,2.000318E0,2.422519E-1,4.8276E-2,-3.502624E-1,-1.8977474E-1,-1.623562E0,-1.8270376E-1,-8.726027E-1,9.8803943E-1,1.1500952E-1,1.907844E-1,-1.9660777E-1,-1.3360273E0,1.2309694E-1,-5.96941E-1,5.4552597E-1,-8.011914E-1,1.2161911E-1,4.609022E-1,1.9591002E0,-3.1458518E-1,-1.2901313E0,7.191996E-1,-9.8577136E-1,-6.4869845E-1,3.0605507E-1,-1.211608E-1,7.177373E-1,-1.9385493E-1,-1.3911382E0,-8.632715E-1,-5.465685E-2,-3.0964634E-1,8.044281E-1,-7.817381E-1,-1.70576E-1,-3.2905257E-1,1.2136589E0,9.12094E-1,-1.5948184E-1,-7.3719364E-1,1.5033177E-1,2.625813E-1,1.4273005E0,1.4473544E0,3.1640202E-1,5.888841E-1,-7.653765E-1,1.8358085E-2,8.9871854E-1,-8.839457E-2,-1.3687485E0,2.2286531E-1,-9.328284E-1,-2.9805112E-1,1.4225506E0,-4.762124E-1,5.611842E-1,-8.487947E-1,4.4470698E-1,1.748167E-1,9.496359E-1,-1.1261281E0,-1.2793921E-1,4.7039676E-1,-6.5800554E-1,-1.0329701E0,-7.755476E-2],"categories":[],"categories_nodes":[],"categories_segments":[],"categories_sizes":[],"default_left":[0,0,0,0,0,0,0,0,0,0,0,0,0,0,0,0,0,0,0,0,0,0,0,0,0,0,0,0,0,0,0,0,0,0,0,0,0,0,0,0,0,0,0,0,0,0,0,0,0,0,0,0,0,0,0,0,0,0,0,0,0,0,0,0,0,0,0,0,0,0,0,0,0,0,0,0,0,0,0,0,0,0,0,0,0,0,0,0,0,0,0,0,0,0,0,0,0,0,0,0,0,0,0,0,0,0,0,0,0,0,0,0,0,0,0,0,0,0,0,0,0,0,0,0,0,0,0,0,0,0,0,0,0,0,0,0,0,0,0,0,0,0,0,0,0,0,0,0,0,0,0,0,0,0,0,0,0,0,0,0,0,0,0,0,0,0,0,0,0,0,0,0,0,0,0,0,0,0,0,0,0,0,0,0,0,0,0,0,0,0,0,0,0,0,0,0,0,0,0,0,0,0,0,0,0,0,0,0,0,0,0,0,0,0,0,0,0,0,0,0,0,0,0,0,0,0,0,0,0,0,0,0,0,0,0,0,0,0,0,0,0,0,0,0,0,0,0,0,0,0,0,0,0,0,0,0,0,0,0,0,0,0,0,0,0,0,0,0,0,0,0,0,0,0,0,0,0,0,0,0,0,0,0,0,0,0,0,0,0,0,0,0,0,0,0,0,0,0,0,0,0,0,0,0,0,0,0,0,0,0,0,0,0,0,0,0,0,0,0,0,0,0,0,0,0,0,0,0,0,0,0,0,0,0,0,0,0,0,0,0,0,0,0,0,0,0,0,0,0,0,0,0,0,0,0,0,0,0,0,0,0,0,0,0,0,0,0,0,0,0,0,0,0,0,0,0,0,0,0,0,0,0,0,0,0,0,0,0,0,0,0,0,0,0,0,0,0,0,0,0,0,0,0,0,0,0,0,0,0,0,0,0,0,0,0,0,0,0,0,0,0,0,0,0,0,0,0,0,0,0,0,0,0,0,0,0,0,0,0,0,0,0,0,0,0,0,0,0,0,0,0,0,0,0,0,0,0,0,0,0,0,0,0,0,0,0,0,0,0,0,0,0,0,0,0,0,0,0,0,0,0,0,0,0,0,0,0,0,0,0,0,0,0,0,0,0,0,0,0],"id":3,"left_children":[1,3,5,7,9,11,13,15,17,19,21,23,25,27,29,31,33,35,37,39,-1,-1,41,43,45,47,49,51,53,-1,55,57,59,-1,-1,-1,61,63,65,-1,-1,-1,-1,67,69,71,73,75,77,79,81,83,85,87,89,91,93,-1,-1,95,97,99,101,-1,103,105,107,109,111,113,115,117,119,121,123,125,127,129,131,133,135,137,139,141,-1,143,145,147,149,151,153,155,157,-1,-1,159,161,-1,-1,-1,-1,-1,163,165,167,169,-1,171,173,175,177,179,181,183,185,187,-1,189,191,193,195,197,199,-1,201,203,205,-1,-1,207,209,211,213,215,217,219,221,223,225,-1,227,229,231,233,235,237,239,-1,241,243,-1,-1,245,247,-1,249,-1,251,253,255,257,259,261,263,-1,265,267,-1,269,271,-1,273,-1,-1,-1,275,277,279,281,283,285,287,289,-1,-1,-1,291,-1,293,-1,295,297,299,301,-1,303,305,307,309,-1,311,-1,-1,313,-1,315,317,319,321,323,325,327,329,331,-1,333,335,337,339,-1,341,343,345,347,349,351,-1,353,-1,355,357,359,-1,361,363,-1,-1,365,367,369,371,-1,373,-1,-1,-1,-1,375,-1,377,379,381,383,-1,385,387,-1,-1,389,391,393,-1,-1,-1,-1,-1,395,-1,397,-1,-1,399,-1,-1,-1,-1,-1,401,403,405,407,409,-1,-1,-1,-1,411,413,-1,415,417,-1,419,-1,421,423,-1,425,427,429,431,433,435,-1,-1,437,439,441,443,-1,445,447,-1,449,-1,451,453,455,457,459,-1,461,463,-1,-1,-1,-1,465,467,469,471,473,-1,-1,475,477,479,481,-1,483,485,487,489,-1,491,493,495,497,-1,-1,-1,-1,-1,-1,-1,-1,-1,-1,-1,-1,-1,-1,-1,-1,-1,-1,-1,-1,-1,-1,-1,-1,-1,-1,-1,-1,-1,-1,-1,-1,-1,-1,-1,-1,-1,-1,-1,-1,-1,-1,-1,-1,-1,-1,-1,-1,-1,-1,-1,-1,-1,-1,-1,-1,-1,-1,-1,-1,-1,-1,-1,-1,-1,-1,-1,-1,-1,-1,-1,-1,-1,-1,-1,-1,-1,-1,-1,-1,-1,-1,-1,-1,-1,-1,-1,-1,-1,-1,-1,-1,-1,-1,-1,-1,-1,-1,-1,-1,-1,-1,-1,-1,-1,-1,-1,-1,-1,-1,-1,-1,-1,-1,-1,-1,-1,-1,-1,-1,-1,-1,-1,-1,-1,-1,-1,-1,-1,-1,-1,-1,-1,-1,-1,-1,-1,-1,-1,-1,-1,-1,-1,-1,-1,-1,-1,-1,-1,-1,-1],"loss_changes":[3.09598E1,6.190277E0,1.4255025E1,5.9204216E0,2.0947495E0,4.836632E0,2.2703466E1,3.9698048E0,4.5189443E0,6.065407E-1,4.442485E0,7.9505835E0,7.6096845E0,1.041478E1,4.606284E0,2.5638142E0,3.870796E0,2.1710496E0,2.674503E0,9.5051044E-1,0E0,0E0,3.4164786E-1,6.9800735E0,9.283864E0,4.792804E0,8.647844E0,1.3678036E1,1.3262635E1,0E0,5.380361E0,9.248187E-1,2.043087E0,0E0,0E0,0E0,6.970701E-1,1.6356831E0,2.7406945E0,0E0,0E0,0E0,0E0,7.835674E0,7.868733E0,8.237286E0,4.1866174E0,5.3794527E0,4.0185056E0,4.9787683E0,6.0802417E0,4.4013925E0,6.7038193E0,1.9769115E1,4.294888E0,2.4654493E0,2.191132E0,0E0,0E0,1.0727158E0,2.0023012E0,1.2795793E-1,2.0958328E-1,0E0,1.9154716E0,7.090556E0,1.9057724E0,6.1272388E0,5.426755E0,3.8096254E0,6.153594E0,1.1949533E1,7.5602865E0,5.585088E0,2.972826E0,8.327467E0,2.6259594E0,3.2690086E0,4.091367E0,6.7283974E0,5.922085E0,5.365338E0,4.5866737E0,5.788947E0,0E0,2.8890228E0,5.56707E0,9.508476E0,8.164634E0,2.5172129E0,2.1450787E0,6.6610255E0,5.5303283E0,0E0,0E0,2.9789138E0,7.425499E-1,0E0,0E0,0E0,0E0,0E0,1.788296E0,2.0225325E0,2.3961887E0,2.7335477E0,0E0,4.337467E0,7.3462343E-1,5.72612E0,6.660631E0,4.2119584E0,3.8449388E0,1.1315072E0,3.1725307E0,2.3022938E0,0E0,5.070923E0,4.9947457E0,4.4081078E0,6.021906E0,4.3438926E0,3.7957582E0,0E0,1.1812053E0,6.3159103E0,1.7922883E0,0E0,0E0,4.4077187E0,4.710966E0,2.9530451E0,3.7878973E0,2.7176218E0,1.3959027E1,3.8955069E0,6.078538E0,4.120413E0,5.022987E0,0E0,3.370883E0,5.8343525E0,1.7309628E0,1.1934204E0,2.2962744E0,5.821799E0,2.7409925E0,0E0,9.339081E0,3.7078285E-1,0E0,0E0,7.3112416E-1,1.0677557E0,0E0,3.873134E0,0E0,7.4709105E0,2.682993E0,1.756136E0,1.5422199E1,1.1170902E0,2.7653768E0,3.0997944E-1,0E0,2.7730496E0,4.4138308E0,0E0,2.6543095E0,6.7487645E-1,0E0,1.0653487E0,0E0,0E0,0E0,4.346937E-1,6.7030888E0,7.2203045E0,4.4552283E0,1.4036362E0,3.4107637E0,2.3767905E0,4.1827855E0,0E0,0E0,0E0,1.640975E0,0E0,2.7143993E0,0E0,3.130909E0,8.730018E0,1.098288E1,3.3878055E0,0E0,3.7519712E0,4.0185604E0,5.314613E0,3.8767128E0,0E0,1.1717637E0,0E0,0E0,2.1717453E0,0E0,1.5255194E0,1.0580367E0,8.0618715E-1,2.7797754E0,1.57444E-1,1.4311464E0,4.2289753E0,4.0340767E0,1.3810573E0,0E0,4.7147846E0,2.9533298E0,4.645686E0,8.978554E0,0E0,3.1979423E0,1.111958E0,1.8985361E0,5.146412E0,8.8941574E-1,1.814228E0,0E0,3.1264553E0,0E0,6.0344706E0,9.180911E-1,2.3685684E0,0E0,1.592495E0,4.732744E0,0E0,0E0,3.1762948E0,5.0193806E0,3.2901502E0,