{"learner":{"attributes":{},"feature_names":["age","job","marital","education","default","balance","housing","loan","contact","day","month","duration","campaign","pdays","previous","poutcome"],"feature_types":["int","int","int","int","int","int","int","int","int","int","int","int","int","int","int","int"],"gradient_booster":{"model":{"gbtree_model_param":{"num_parallel_tree":"1","num_trees":"1"},"iteration_indptr":[0,1],"tree_info":[0],"trees":[{"base_weights":[-4.1746333E-1,-6.9257927E-1,1.8130559E0,-7.623296E-1,1.6936042E0,1.2018731E0,2.7486725E0,-9.0842336E-1,-5.0010506E-2,-4.1817915E-1,2.5795045E0,1.5562633E0,2.465767E-1,2.9956667E0,2.2081325E0,-9.420072E-1,1.1212778E0,-5.936535E-1,2.9438615E0],"categories":[],"categories_nodes":[],"categories_segments":[],"categories_sizes":[],"default_left":[0,0,0,0,0,0,0,0,0,0,0,0,0,0,0,0,0,0,0],"id":0,"left_children":[1,3,5,7,9,11,13,15,17,-1,-1,-1,-1,-1,-1,-1,-1,-1,-1],"loss_changes":[3.2404707E3,7.835E2,3.282793E2,4.7521558E2,2.5136966E2,1.189606E2,2.3871216E1,2.593772E2,1.2685222E3,0E0,0E0,0E0,0E0,0E0,0E0,0E0,0E0,0E0,0E0],"parents":[2147483647,0,0,1,1,2,2,3,3,4,4,5,5,6,6,7,7,8,8],"right_children":[2,4,6,8,10,12,14,16,18,-1,-1,-1,-1,-1,-1,-1,-1,-1,-1],"split_conditions":[5.23E2,1E1,7.99E2,1.5E1,1.3E2,2E0,1E0,6.1E1,2E0,-4.1817915E-1,2.5795045E0,1.5562633E0,2.465767E-1,2.9956667E0,2.2081325E0,-9.420072E-1,1.1212778E0,-5.936535E-1,2.9438615E0],"split_indices":[11,10,11,13,11,8,8,0,15,0,0,0,0,0,0,0,0,0,0],"split_type":[0,0,0,0,0,0,0,0,0,0,0,0,0,0,0,0,0,0,0],"sum_hessian":[5.2775913E3,4.6987314E3,5.7885986E2,4.5659453E3,1.327861E2,3.515184E2,2.2734149E2,3.7886357E3,7.7730945E2,3.9398075E1,9.338803E1,2.5594157E2,9.557681E1,1.529229E2,7.441859E1,3.7274958E3,6.1139977E1,6.5853156E2,1.187779E2],"tree_param":{"num_deleted":"0","num_feature":"16","num_nodes":"19","size_leaf_vector":"1"}}]},"name":"gbtree"},"learner_model_param":{"base_score":"-1.5341738E0","boost_from_average":"1","num_class":"0","num_feature":"16","num_target":"1"},"objective":{"name":"binary:logitraw","reg_loss_param":{"scale_pos_weight":"1"}}},"version":[2,0,3]}