{"learner":{"attributes":{},"feature_names":["age","job","marital","education","default","balance","housing","loan","contact","day","month","duration","campaign","pdays","previous","poutcome"],"feature_types":["int","int","int","int","int","int","int","int","int","int","int","int","int","int","int","int"],"gradient_booster":{"model":{"gbtree_model_param":{"num_parallel_tree":"1","num_trees":"1"},"iteration_indptr":[0,1],"tree_info":[0],"trees":[{"base_weights":[-4.1746333E-1,-6.9257927E-1,1.8130559E0,-7.623296E-1,1.6936042E0,1.2018731E0,2.7486725E0,-9.0842336E-1,-5.0010506E-2,-4.1817915E-1,2.5795045E0,1.5562633E0,2.465767E-1,2.9956667E0,2.2081325E0,-9.420072E-1,1.1212778E0,-5.936535E-1,2.9438615E0,-1.0748496E0,8.625432E-4,1.4412245E0,3.0039182E0,1.1363683E0,2.0190167E0,-1.7321503E-1,7.0188236E-1,2.2422137E0,3.1190922E0,1.5458115E0,2.670877E0,-1.038333E0,-4.416426E-1,-8.811242E-1,1.7543195E0,2.0702966E-1,-8.957882E-1,9.068929E-1,3.7551925E0,-1.1322024E0,-1.9335619E-1,4.0094575E-1,-8.4119076E-1,-3.6119342E-1,1.9895793E0,2.2519553E0,4.184922E0,8.718302E-1,1.8082206E0,1.7456734E0,2.8642275E0,2.756654E-1,-4.538692E-1,9.032115E-1,-5.9902024E-1,-1.19562194E-1,2.3468354E0,3.1400652E0,6.067368E-1,1.6719896E0,-7.2131056E-1,3.1149554E0,2.202266E0,-3.7517267E-1,-1.0672911E0,-9.895693E-2,-1.0300338E0,-5.3193673E-2,-1.0447448E0,1.1527805E0,2.7093246E0,-7.4667734E-1,9.3880504E-1,-9.436691E-1,1.8370341E0,1.1514607E-1,1.7128439E0,4.069626E0,2.2572062E0,-4.580477E-2,1.818166E0,-1.19562194E-1,-9.228063E-1,-7.9212767E-1,4.9842083E-1,1.061695E0,2.5532994E0,4.5281237E-1,2.4485939E0,5.523784E-1,1.5156482E0,1.007706E0,3.8348186E0,2.1225805E0,1.4137009E0,1.2419164E0,3.1123435E0,6.522314E-1,-5.855727E-1,-5.90685E-1,-5.517176E-3,1.9847153E-2,1.2100292E0,-9.7660524E-1,3.1675243E-1,1.7444815E-1,2.4638617E0,2.753827E0,3.3322873E0,1.3074478E0,2.8519661E0,3.4301534E0,7.740415E-1,3.348418E0,1.8697741E0,1.0514139E0,-1.0372164E0,-9.592392E-1,-1.157205E0,2.1970345E-1,-4.749757E-1,-1.1351769E0,-6.072858E-1,7.294295E-1,-7.2131056E-1,-1.1138552E0,-1.19562194E-1,-3.9497906E-1,1.3282379E0,3.0799665E0,6.25852E-1,-8.718969E-1,-2.8713465E-2,7.539449E-1,3.1742835E0,1.4049785E-1,-1.0008425E0,-2.7549842E-2,3.6546574E0,-3.6088914E-1,4.5439723E-1,1.9927417E0,1.669223E-1,9.3521744E-1,3.085728E0,1.043754E0,-2.734578E-1,-1.19562194E-1,2.4475534E0,-9.268993E-1,-1.19562194E-1,1.3645345E0,-6.142611E-1,1.6722949E0,8.094065E-2,3.0241506E0,3.484147E-1,-6.901291E-1,9.7324175E-1,2.554834E0,2.395663E-1,9.0669817E-1,6.5723164E-3,2.109722E0,8.259655E-1,8.052543E-1,2.7057538E0,1.1908224E0,4.0415087E0,2.2561965E0,-4.4604335E-3,1.792607E0,9.5049536E-1,1.8723952E-2,1.7573975E0,3.2037582E0,7.294295E-1,-8.4884144E-2,1.3739251E0,4.8537713E-2,-9.365712E-1,-6.170047E-2,-7.329865E-1,-4.720573E-1,6.9708073E-1,-4.390778E-1,8.3135176E-1,8.521806E-1,1.919975E0,2.6803666E-1,2.5695345E0,1.4055979E0,2.9370885E0,3.3696997E0,1.043754E0,2.2401254E0,6.9959503E-1,8.698356E-1,3.5390363E0,-3.6513746E-1,1.8592334E0,1.5732299E0,2.8177145E0,-5.6372064E-1,1.571161E0,-1.1067168E0,-8.626075E-2,5.4556805E-1,-9.938447E-1,-1.1044852E0,-1.2006485E0,2.6605735E0,4.3301515E-2,-6.2636065E-1,-1.2430984E-1,-4.7744828E-1,-1.1451577E0,-3.7943906E-1,-1.0150282E0,3.751367E-1,-7.960076E-1,1.4389294E0,-6.5474904E-1,7.294295E-1,3.2286468E0,1.3645345E0,-1.05625E-1,-9.0697986E-1,1.6978298E-1,9.153363E-1,-5.269617E-1,1.9369901E0,4.914566E-1,3.6164887E0,6.067368E-1,-1.6459298E-1,1.5886046E0,-1.142115E0,-7.031711E-1,-4.5186406E-1,8.698356E-1,-6.890986E-1,3.484147E-1,9.634226E-1,-2.7136838E-1,-1.19562194E-1,2.1590176E0,6.802532E-1,-6.142611E-1,1.3573841E0,-6.901291E-1,3.438612E0,1.4320654E0,-6.058325E-1,6.9708073E-1,2.6151812E0,4.3200153E-1,-7.489989E-1,7.3358494E-1,3.1692367E0,8.698356E-1,-6.901291E-1,1.3645345E0,1.4843343E0,-1.9335619E-1,2.6336715E0,-1.19562194E-1,1.8165084E0,5.222172E-1,-2.3887621E-1,7.3853725E-1,1.0584676E0,2.5488074E0,5.82902E-2,2.2606378E0,1.5781769E0,3.9140177E-1,2.6068884E-1,2.4254313E0,6.067368E-1,-6.5474904E-1,8.9782715E-1,1.9598101E0,1.1582572E0,-5.9788194E-2,1.7444815E-1,2.5317957E0,3.4033031E0,1.3914753E0,-7.53455E-1,6.7035884E-1,2.395663E-1,1.7201287E0,-6.901291E-1,8.698356E-1,-5.448561E-1,9.0524256E-1,-8.0646235E-1,9.196601E-2],"categories":[],"categories_nodes":[],"categories_segments":[],"categories_sizes":[],"default_left":[0,0,0,0,0,0,0,0,0,0,0,0,0,0,0,0,0,0,0,0,0,0,0,0,0,0,0,0,0,0,0,0,0,0,0,0,0,0,0,0,0,0,0,0,0,0,0,0,0,0,0,0,0,0,0,0,0,0,0,0,0,0,0,0,0,0,0,0,0,0,0,0,0,0,0,0,0,0,0,0,0,0,0,0,0,0,0,0,0,0,0,0,0,0,0,0,0,0,0,0,0,0,0,0,0,0,0,0,0,0,0,0,0,0,0,0,0,0,0,0,0,0,0,0,0,0,0,0,0,0,0,0,0,0,0,0,0,0,0,0,0,0,0,0,0,0,0,0,0,0,0,0,0,0,0,0,0,0,0,0,0,0,0,0,0,0,0,0,0,0,0,0,0,0,0,0,0,0,0,0,0,0,0,0,0,0,0,0,0,0,0,0,0,0,0,0,0,0,0,0,0,0,0,0,0,0,0,0,0,0,0,0,0,0,0,0,0,0,0,0,0,0,0,0,0,0,0,0,0,0,0,0,0,0,0,0,0,0,0,0,0,0,0,0,0,0,0,0,0,0,0,0,0,0,0,0,0,0,0,0,0,0,0,0,0,0,0,0,0,0,0,0,0,0,0,0,0,0,0,0,0,0,0,0,0,0,0,0,0,0,0,0,0,0,0,0,0,0,0],"id":0,"left_children":[1,3,5,7,9,11,13,15,17,19,21,23,25,27,29,31,33,35,37,39,41,43,45,47,49,51,53,55,57,59,61,63,65,67,69,71,73,75,77,-1,-1,79,81,83,85,87,-1,89,91,93,95,97,99,101,103,-1,105,107,-1,109,-1,111,113,115,117,119,121,123,125,127,129,131,133,135,137,139,141,-1,143,145,147,-1,-1,149,151,153,155,157,159,161,163,165,167,169,171,173,175,177,179,181,183,185,187,-1,-1,-1,189,191,193,195,-1,197,199,-1,201,203,205,207,209,211,213,215,217,-1,-1,-1,-1,219,221,223,225,227,229,231,233,235,237,239,-1,241,243,245,247,249,251,-1,253,-1,-1,-1,-1,-1,-1,255,257,259,261,-1,263,265,-1,267,269,271,273,275,-1,-1,-1,277,279,281,283,-1,285,287,-1,289,291,293,-1,295,297,-1,-1,-1,-1,-1,-1,-1,-1,-1,-1,-1,-1,-1,-1,-1,-1,-1,-1,-1,-1,-1,-1,-1,-1,-1,-1,-1,-1,-1,-1,-1,-1,-1,-1,-1,-1,-1,-1,-1,-1,-1,-1,-1,-1,-1,-1,-1,-1,-1,-1,-1,-1,-1,-1,-1,-1,-1,-1,-1,-1,-1,-1,-1,-1,-1,-1,-1,-1,-1,-1,-1,-1,-1,-1,-1,-1,-1,-1,-1,-1,-1,-1,-1,-1,-1,-1,-1,-1,-1,-1,-1,-1,-1,-1,-1,-1,-1,-1,-1,-1,-1,-1,-1,-1,-1,-1,-1,-1,-1,-1,-1,-1,-1,-1,-1,-1],"loss_changes":[3.2404707E3,7.835E2,3.282793E2,4.7521558E2,2.5136966E2,1.189606E2,2.3871216E1,2.593772E2,1.2685222E3,1.1117359E1,4.1269714E1,4.763147E1,1.8580647E1,7.3203125E0,1.8985992E1,1.7924805E2,8.031466E1,1.5973549E2,1.9454602E2,5.767212E-1,8.9819975E0,2.7955208E1,5.081427E1,2.2771957E1,2.294223E1,6.5564218E0,1.2726826E1,6.5128937E0,4.928955E0,1.0758743E1,2.0934753E0,5.962793E1,1.2161289E2,2.0566044E0,2.4191833E1,1.27370804E2,6.441461E1,2.2415344E1,3.1011108E1,0E0,0E0,1.1525773E1,3.9545488E-1,3.0895617E0,8.421463E0,1.43190155E1,0E0,1.9775902E1,5.7413185E1,8.754669E0,7.403305E0,6.9529257E0,1.946722E0,1.100425E1,2.6733682E0,0E0,5.722763E0,3.5546875E-1,0E0,1.0007973E1,0E0,1.1864075E1,3.0175247E0,1.26068405E2,2.7982666E1,4.594569E1,9.181305E0,2.4224033E0,6.9582653E-1,8.91964E0,1.1690323E1,7.109539E0,4.0230766E1,2.936322E1,2.9205622E1,3.2240055E0,7.234783E0,0E0,1.5790138E1,3.9356902E0,5.605295E0,0E0,0E0,3.6338878E-1,3.7706149E0,5.7064857E0,1.1952133E1,3.9571424E0,8.560654E0,1.325293E1,1.1640762E1,7.595583E0,8.373108E-1,1.1947647E1,7.588951E0,3.3578253E0,2.8077393E0,7.867691E0,1.5346498E0,1.7875023E0,3.09622E0,4.650146E0,6.032112E0,0E0,0E0,0E0,4.6221313E0,7.8359985E0,3.414795E0,1.3311317E1,0E0,1.6750336E0,5.162103E0,0E0,1.5087738E0,3.6513233E1,5.911339E0,7.167224E1,2.40625E0,8.934388E1,9.255146E0,6.1312866E-1,3.9237595E0,0E0,0E0,0E0,0E0,1.5087566E0,7.0870285E0,2.7879944E0,2.261342E0,2.6222115E0,6.512233E0,2.9038578E1,6.3964386E0,1.1082549E1,1.8034393E1,2.3851187E0,0E0,2.2053585E0,4.5121965E0,5.4268913E0,1.9306296E0,6.428922E0,9.38591E-1,0E0,4.604707E0,0E0,0E0,0E0,0E0,0E0,0E0,5.8416424E0,3.1460898E0,4.291916E-1,4.4607644E0,0E0,2.7973018E0,8.155701E0,0E0,1.3591171E1,5.205989E0,5.1054306E0,1.8326216E1,7.963814E0,0E0,0E0,0E0,1.2714844E1,1.7806486E0,2.4287643E0,5.516556E0,0E0,4.1827345E0,3.3830566E0,0E0,4.620303E0,2.502058E0,2.6233468E0,0E0,3.4145641E0,1.2315283E0,0E0,0E0,0E0,0E0,0E0,0E0,0E0,0E0,0E0,0E0,0E0,0E0,0E0,0E0,0E0,0E0,0E0,0E0,0E0,0E0,0E0,0E0,0E0,0E0,0E0,0E0,0E0,0E0,0E0,0E0,0E0,0E0,0E0,0E0,0E0,0E0,0E0,0E0,0E0,0E0,0E0,0E0,0E0,0E0,0E0,0E0,0E0,0E0,0E0,0E0,0E0,0E0,0E0,0E0,0E0,0E0,0E0,0E0,0E0,0E0,0E0,0E0,0E0,0E0,0E0,0E0,0E0,0E0,0E0,0E0,0E0,0E0,0E0,0E0,0E0,0E0,0E0,0E0,0E0,0E0,0E0,0E0,0E0,0E0,0E0,0E0,0E0,0E0,0E0,0E0,0E0,0E0,0E0,0E0,0E0,0E0,0E0,0E0,0E0,0E0,0E0,0E0,0E0,0E0,0E0,0E0,0E0,0E0,0E0,0E0,0E0,0E0,0E0,0E0,0E0,0E0],"parents":[2147483647,0,0,1,1,2,2,3,3,4,4,5,5,6,6,7,7,8,8,9,9,10,10,11,11,12,12,13,13,14,14,15,15,16,16,17,17,18,18,19,19,20,20,21,21,22,22,23,23,24,24,25,25,26,26,27,27,28,28,29,29,30,30,31,31,32,32,33,33,34,34,35,35,36,36,37,37,38,38,41,41,42,42,43,43,44,44,45,45,47,47,48,48,49,49,50,50,51,51,52,52,53,53,54,54,56,56,57,57,59,59,61,61,62,62,63,63,64,64,65,65,66,66,67,67,68,68,69,69,70,70,71,71,72,72,73,73,74,74,75,75,76,76,78,78,79,79,80,80,83,83,84,84,85,85,86,86,87,87,88,88,89,89,90,90,91,91,92,92,93,93,94,94,95,95,96,96,97,97,98,98,99,99,100,100,101,101,102,102,106,106,107,107,108,108,109,109,111,111,112,112,114,114,115,115,116,116,117,117,118,118,119,119,120,120,121,121,122,122,127,127,128,128,129,129,130,130,131,131,132,132,133,133,134,134,135,135,136,136,137,137,139,139,140,140,141,141,142,142,143,143,144,144,146,146,153,153,154,154,155,155,156,156,158,158,159,159,161,161,162,162,163,163,164,164,165,165,169,169,170,170,171,171,172,172,174,174,175,175,177,177,178,178,179,179,181,181,182,182],"right_children":[2,4,6,8,10,12,14,16,18,20,22,24,26,28,30,32,34,36,38,40,42,44,46,48,50,52,54,56,58,60,62,64,66,68,70,72,74,76,78,-1,-1,80,82,84,86,88,-1,90,92,94,96,98,100,102,104,-1,106,108,-1,110,-1,112,114,116,118,120,122,124,126,128,130,132,134,136,138,140,142,-1,144,146,148,-1,-1,150,152,154,156,158,160,162,164,166,168,170,172,174,176,178,180,182,184,186,188,-1,-1,-1,190,192,194,196,-1,198,200,-1,202,204,206,208,210,212,214,216,218,-1,-1,-1,-1,220,222,224,226,228,230,232,234,236,238,240,-1,242,244,246,248,250,252,-1,254,-1,-1,-1,-1,-1,-1,256,258,260,262,-1,264,266,-1,268,270,272,274,276,-1,-1,-1,278,280,282,284,-1,286,288,-1,290,292,294,-1,296,298,-1,-1,-1,-1,-1,-1,-1,-1,-1,-1,-1,-1,-1,-1,-1,-1,-1,-1,-1,-1,-1,-1,-1,-1,-1,-1,-1,-1,-1,-1,-1,-1,-1,-1,-1,-1,-1,-1,-1,-1,-1,-1,-1,-1,-1,-1,-1,-1,-1,-1,-1,-1,-1,-1,-1,-1,-1,-1,-1,-1,-1,-1,-1,-1,-1,-1,-1,-1,-1,-1,-1,-1,-1,-1,-1,-1,-1,-1,-1,-1,-1,-1,-1,-1,-1,-1,-1,-1,-1,-1,-1,-1,-1,-1,-1,-1,-1,-1,-1,-1,-1,-1,-1,-1,-1,-1,-1,-1,-1,-1,-1,-1,-1,-1,-1,-1],"split_conditions":[5.23E2,1E1,7.99E2,1.5E1,1.3E2,2E0,1E0,6.1E1,2E0,7.9E1,2E0,6.35E2,6.35E2,2E0,1.002E3,3.13E2,1.26E2,1E0,1.62E2,2.9E1,5.5E1,1.7E2,7.1E1,5E0,9E0,7E0,2.651E3,3.6E1,1.3E1,6.7E3,7E0,1E0,2E0,1.98E2,2.99E2,1.59E2,3.78E2,1.18E2,2.03E2,-1.1322024E0,-1.9335619E-1,4.7E1,2E0,1E0,1.3E1,5E0,4.184922E0,6E0,2E0,1.6E1,1E0,4.8E1,3E0,4.5E1,5E0,-1.19562194E-1,-1.64E2,9.49E2,6.067368E-1,1.802E3,-7.2131056E-1,9E0,1E0,1E0,1E0,1E0,4.55E2,2E0,6.332E3,4E0,3.698E3,1.44E2,3.73E2,1E2,2.11E2,8E1,1.56E2,4.069626E0,2.73E2,8.5E1,2E0,-1.19562194E-1,-9.228063E-1,6.2E1,1.64E2,5E0,1E0,1.1E1,9.618E3,1E0,1.7E1,3.71E2,5E0,1E1,1E0,3E0,3E0,3E0,1.3E1,5.6E1,5.81E2,2.2E1,2E0,-9.7660524E-1,3.1675243E-1,1.7444815E-1,3E0,1E0,6.5E1,2E0,2.8519661E0,2E0,3E0,3.348418E0,3.111E3,1.08E2,2.1E1,2.6E1,1E0,1E0,2E0,6E0,8.59E2,7.294295E-1,-7.2131056E-1,-1.1138552E0,-1.19562194E-1,6.3E1,6E0,7E1,1.1E1,3.78E2,1.06E2,9.4E1,5.7E1,3.06E2,2.13E2,6E0,3.6546574E0,1.269E3,1.149E3,8.6E1,3.7E1,2.586E3,8E0,1.043754E0,9E0,-1.19562194E-1,2.4475534E0,-9.268993E-1,-1.19562194E-1,1.3645345E0,-6.142611E-1,3.8E1,2.73E2,7.3E1,2.38E2,-6.901291E-1,6E0,1.1E1,2.395663E-1,2E0,6.08E2,5.54E2,2.1E1,1E0,2.7057538E0,1.1908224E0,4.0415087E0,1E0,7.47E2,6.51E2,4.7E1,1.8723952E-2,1.55E2,4E0,7.294295E-1,6E0,5.54E2,1E1,-9.365712E-1,6E0,5.5E1,-4.720573E-1,6.9708073E-1,-4.390778E-1,8.3135176E-1,8.521806E-1,1.919975E0,2.6803666E-1,2.5695345E0,1.4055979E0,2.9370885E0,3.3696997E0,1.043754E0,2.2401254E0,6.9959503E-1,8.698356E-1,3.5390363E0,-3.6513746E-1,1.8592334E0,1.5732299E0,2.8177145E0,-5.6372064E-1,1.571161E0,-1.1067168E0,-8.626075E-2,5.4556805E-1,-9.938447E-1,-1.1044852E0,-1.2006485E0,2.6605735E0,4.3301515E-2,-6.2636065E-1,-1.2430984E-1,-4.7744828E-1,-1.1451577E0,-3.7943906E-1,-1.0150282E0,3.751367E-1,-7.960076E-1,1.4389294E0,-6.5474904E-1,7.294295E-1,3.2286468E0,1.3645345E0,-1.05625E-1,-9.0697986E-1,1.6978298E-1,9.153363E-1,-5.269617E-1,1.9369901E0,4.914566E-1,3.6164887E0,6.067368E-1,-1.6459298E-1,1.5886046E0,-1.142115E0,-7.031711E-1,-4.5186406E-1,8.698356E-1,-6.890986E-1,3.484147E-1,9.634226E-1,-2.7136838E-1,-1.19562194E-1,2.1590176E0,6.802532E-1,-6.142611E-1,1.3573841E0,-6.901291E-1,3.438612E0,1.4320654E0,-6.058325E-1,6.9708073E-1,2.6151812E0,4.3200153E-1,-7.489989E-1,7.3358494E-1,3.1692367E0,8.698356E-1,-6.901291E-1,1.3645345E0,1.4843343E0,-1.9335619E-1,2.6336715E0,-1.19562194E-1,1.8165084E0,5.222172E-1,-2.3887621E-1,7.3853725E-1,1.0584676E0,2.5488074E0,5.82902E-2,2.2606378E0,1.5781769E0,3.9140177E-1,2.6068884E-1,2.4254313E0,6.067368E-1,-6.5474904E-1,8.9782715E-1,1.9598101E0,1.1582572E0,-5.9788194E-2,1.7444815E-1,2.5317957E0,3.4033031E0,1.3914753E0,-7.53455E-1,6.7035884E-1,2.395663E-1,1.7201287E0,-6.901291E-1,8.698356E-1,-5.448561E-1,9.0524256E-1,-8.0646235E-1,9.196601E-2],"split_indices":[11,10,11,13,11,8,8,0,15,11,15,11,11,15,11,11,11,6,11,9,0,11,13,13,13,10,5,13,12,5,10,10,8,5,11,11,13,11,13,0,0,0,1,6,9,9,0,10,15,9,10,0,12,5,1,0,5,11,0,5,0,1,2,6,6,6,11,12,5,9,5,11,13,13,11,11,11,0,11,11,15,0,0,0,13,1,6,10,5,6,9,13,5,1,6,1,3,1,9,5,5,9,2,0,0,0,9,5,0,12,0,10,12,0,5,11,9,0,8,10,2,10,5,0,0,0,0,0,12,5,9,13,13,13,0,11,11,1,0,5,5,13,0,5,10,0,1,0,0,0,0,0,0,0,11,0,13,0,1,1,0,12,11,11,9,6,0,0,0,10,11,11,0,0,13,12,0,9,11,9,0,1,0,0,0,0,0,0,0,0,0,0,0,0,0,0,0,0,0,0,0,0,0,0,0,0,0,0,0,0,0,0,0,0,0,0,0,0,0,0,0,0,0,0,0,0,0,0,0,0,0,0,0,0,0,0,0,0,0,0,0,0,0,0,0,0,0,0,0,0,0,0,0,0,0,0,0,0,0,0,0,0,0,0,0,0,0,0,0,0,0,0,0,0,0,0,0,0,0,0,0,0,0,0,0,0,0,0,0,0,0,0,0,0,0,0,0,0,0],"split_type":[0,0,0,0,0,0,0,0,0,0,0,0,0,0,0,0,0,0,0,0,0,0,0,0,0,0,0,0,0,0,0,0,0,0,0,0,0,0,0,0,0,0,0,0,0,0,0,0,0,0,0,0,0,0,0,0,0,0,0,0,0,0,0,0,0,0,0,0,0,0,0,0,0,0,0,0,0,0,0,0,0,0,0,0,0,0,0,0,0,0,0,0,0,0,0,0,0,0,0,0,0,0,0,0,0,0,0,0,0,0,0,0,0,0,0,0,0,0,0,0,0,0,0,0,0,0,0,0,0,0,0,0,0,0,0,0,0,0,0,0,0,0,0,0,0,0,0,0,0,0,0,0,0,0,0,0,0,0,0,0,0,0,0,0,0,0,0,0,0,0,0,0,0,0,0,0,0,0,0,0,0,0,0,0,0,0,0,0,0,0,0,0,0,0,0,0,0,0,0,0,0,0,0,0,0,0,0,0,0,0,0,0,0,0,0,0,0,0,0,0,0,0,0,0,0,0,0,0,0,0,0,0,0,0,0,0,0,0,0,0,0,0,0,0,0,0,0,0,0,0,0,0,0,0,0,0,0,0,0,0,0,0,0,0,0,0,0,0,0,0,0,0,0,0,0,0,0,0,0,0,0,0,0,0,0,0,0,0,0,0,0,0,0,0,0,0,0,0,0],"sum_hessian":[5.2775913E3,4.6987314E3,5.7885986E2,4.5659453E3,1.327861E2,3.515184E2,2.2734149E2,3.7886357E3,7.7730945E2,3.9398075E1,9.338803E1,2.5594157E2,9.557681E1,1.529229E2,7.441859E1,3.7274958E3,6.1139977E1,6.5853156E2,1.187779E2,1.4737799E1,2.4660278E1,2.6557222E1,6.683081E1,1.3599632E2,1.1994525E2,5.0050148E1,4.5526665E1,2.422252E1,1.2870038E2,3.2393974E1,4.2024616E1,3.124851E3,6.0264465E2,1.459188E1,4.65481E1,1.8050156E2,4.7803E2,3.4436836E1,8.4341064E1,1.3570449E1,1.1673504E0,1.70725E1,7.5877776E0,6.2745085E0,2.0282713E1,4.260829E1,2.422252E1,9.9224785E1,3.6771538E1,9.295028E1,2.6994978E1,1.9261282E1,3.0788868E1,3.9689915E1,5.836752E0,1.0214316E0,2.320109E1,1.27387115E2,1.3132693E0,3.0934786E1,1.459188E0,1.8677607E1,2.3347008E1,1.3132692E2,2.9935242E3,3.8157767E2,2.2106699E2,2.6265385E0,1.1965342E1,2.9913355E1,1.6634743E1,7.83584E1,1.0214316E2,4.7044223E2,7.5877776E0,1.7948013E1,1.6488825E1,6.829E1,1.6051067E1,1.3716368E1,3.3561325E0,1.0214316E0,6.566346E0,4.231645E0,2.0428631E0,8.755128E0,1.1527585E1,4.523483E0,3.808481E1,6.75604E1,3.166438E1,2.7432735E1,9.338803E0,4.100318E1,5.1947094E1,4.377564E0,2.2617414E1,1.3570449E1,5.690833E0,2.3347008E1,7.441859E0,1.0506154E1,2.918376E1,4.0857263E0,1.7510257E0,1.3132693E0,2.188782E1,4.742361E1,7.99635E1,2.5243952E1,5.690833E0,1.6051067E1,2.6265385E0,3.2102137E0,2.0136795E1,4.144094E1,8.988598E1,1.3649244E3,1.6285997E3,2.0676694E2,1.7481073E2,1.7568623E2,4.538075E1,1.1673504E0,1.459188E0,1.094391E1,1.0214316E0,2.918376E0,2.6994978E1,1.3716368E1,2.918376E0,6.653897E1,1.1819423E1,9.557681E1,6.566346E0,2.3492928E1,4.4694928E2,4.231645E0,3.3561325E0,7.441859E0,1.0506154E1,1.3716368E1,2.7724571E0,7.0041027E0,9.046966E0,1.7510257E0,1.1965342E1,1.0214316E0,2.3347008E0,3.2102137E0,1.0214316E0,1.0214316E0,1.0214316E0,4.9612393E0,3.7938888E0,9.192884E0,2.3347008E0,1.3132693E0,3.2102137E0,3.6187862E1,1.8969444E0,4.0565426E1,2.6994978E1,1.5905149E1,1.5759231E1,2.5827627E1,1.6051068E0,1.1673504E0,8.1714525E0,3.8522564E1,2.4806197E0,2.6994978E1,2.4952114E1,1.6051068E0,2.7724571E0,2.1450064E1,1.1673504E0,7.150021E0,6.4204273E0,2.3347008E0,3.3561325E0,5.253077E0,1.8093931E1,4.6694016E0,2.7724571E0,7.0041027E0,3.5020514E0,2.0866388E1,8.317371E0,1.1673504E0,2.072047E1,6.712265E0,4.0711346E1,7.821248E1,1.7510257E0,8.901047E0,1.6342905E1,1.0214316E0,1.5029636E1,1.6051068E0,1.0214316E0,1.7364338E1,2.7724571E0,1.00683975E1,3.1372541E1,8.361147E1,6.2745085E0,3.035111E1,1.3345734E3,7.476879E2,8.809118E2,1.29867735E1,1.9378017E2,1.2155036E2,5.326036E1,3.3561325E0,1.7233011E2,3.035111E1,1.5029636E1,1.0214316E0,1.8969444E0,2.5827627E1,1.1673504E0,1.1673504E0,1.2549017E1,1.0214316E0,1.8969444E0,6.449611E1,2.0428631E0,3.7938888E0,8.025534E0,1.6196987E1,7.937983E1,5.253077E0,1.3132693E0,2.0136795E1,3.3561325E0,3.011764E2,1.4577289E2,3.2102137E0,1.0214316E0,5.107158E0,2.3347008E0,5.982671E0,4.523483E0,1.0214316E0,1.2694936E1,1.7510257E0,1.0214316E0,5.690833E0,1.3132693E0,6.566346E0,2.4806197E0,9.192884E0,2.7724571E0,2.188782E0,2.7724571E0,1.6051068E0,2.188782E0,8.1714525E0,1.0214316E0,1.3132693E0,1.0214316E0,2.0428631E0,1.1673504E0,3.516643E1,1.0214316E0,1.094391E1,2.9621517E1,2.072047E1,6.2745085E0,5.690833E0,1.0214316E1,1.094391E1,4.8153205E0,8.025534E0,1.7802094E1,3.2102137E0,3.531235E1,1.3132693E0,1.1673504E0,5.253077E0,2.1741901E1,2.057455E1,4.377564E0,1.3132693E0,1.459188E0,1.8531689E1,2.918376E0,3.7938888E0,3.3561325E0,1.8969444E0,4.523483E0,1.3132693E0,1.0214316E0,3.7938888E0,1.459188E0,1.6634743E1,1.459188E0],"tree_param":{"num_deleted":"0","num_feature":"16","num_nodes":"299","size_leaf_vector":"1"}}]},"name":"gbtree"},"learner_model_param":{"base_score":"-1.5341738E0","boost_from_average":"1","num_class":"0","num_feature":"16","num_target":"1"},"objective":{"name":"binary:logitraw","reg_loss_param":{"scale_pos_weight":"1"}}},"version":[2,0,3]}