{"learner":{"attributes":{},"feature_names":[],"feature_types":[],"gradient_booster":{"model":{"gbtree_model_param":{"num_parallel_tree":"1","num_trees":"2"},"iteration_indptr":[0,1,2],"tree_info":[0,0],"trees":[{"base_weights":[-4.1746333E-1,-6.9257927E-1,1.8130559E0,-7.623296E-1,1.6936042E0,1.2018731E0,2.7486725E0,-9.0842336E-1,-5.0010506E-2,-4.1817915E-1,2.5795045E0,1.5562633E0,2.465767E-1,2.9956667E0,2.2081325E0,-9.420072E-1,1.1212778E0,-5.936535E-1,2.9438615E0,-1.0748496E0,8.625432E-4,1.4412245E0,3.0039182E0,1.1363683E0,2.0190167E0,-1.7321503E-1,7.0188236E-1,2.2422137E0,3.1190922E0,1.5458115E0,2.670877E0,-1.038333E0,-4.416426E-1,-8.811242E-1,1.7543195E0,2.0702966E-1,-8.957882E-1,9.068929E-1,3.7551925E0,-1.1322024E0,-1.9335619E-1,4.0094575E-1,-8.4119076E-1,-3.6119342E-1,1.9895793E0,2.2519553E0,4.184922E0,8.718302E-1,1.8082206E0,1.7456734E0,2.8642275E0,2.756654E-1,-4.538692E-1,9.032115E-1,-5.9902024E-1,-1.19562194E-1,2.3468354E0,3.1400652E0,6.067368E-1,1.6719896E0,-7.2131056E-1,3.1149554E0,2.202266E0,-3.7517267E-1,-1.0672911E0,-9.895693E-2,-1.0300338E0,-5.3193673E-2,-1.0447448E0,1.1527805E0,2.7093246E0,-7.4667734E-1,9.3880504E-1,-9.436691E-1,1.8370341E0,1.1514607E-1,1.7128439E0,4.069626E0,2.2572062E0,-4.580477E-2,1.818166E0,-1.19562194E-1,-9.228063E-1,-7.9212767E-1,4.9842083E-1,1.061695E0,2.5532994E0,4.5281237E-1,2.4485939E0,5.523784E-1,1.5156482E0,1.007706E0,3.8348186E0,2.1225805E0,1.4137009E0,1.2419164E0,3.1123435E0,6.522314E-1,-5.855727E-1,-5.90685E-1,-5.517176E-3,1.9847153E-2,1.2100292E0,-9.7660524E-1,3.1675243E-1,1.7444815E-1,2.4638617E0,2.753827E0,3.3322873E0,1.3074478E0,2.8519661E0,3.4301534E0,7.740415E-1,3.348418E0,1.8697741E0,1.0514139E0,-1.0372164E0,-9.592392E-1,-1.157205E0,2.1970345E-1,-4.749757E-1,-1.1351769E0,-6.072858E-1,7.294295E-1,-7.2131056E-1,-1.1138552E0,-1.19562194E-1,-3.9497906E-1,1.3282379E0,3.0799665E0,6.25852E-1,-8.718969E-1,-2.8713465E-2,7.539449E-1,3.1742835E0,1.4049785E-1,-1.0008425E0,-2.7549842E-2,3.6546574E0,-3.6088914E-1,4.5439723E-1,1.9927417E0,1.669223E-1,9.3521744E-1,3.085728E0,1.043754E0,-2.734578E-1,-1.19562194E-1,2.4475534E0,-9.268993E-1,-1.19562194E-1,1.3645345E0,-6.142611E-1,1.6722949E0,8.094065E-2,3.0241506E0,3.484147E-1,-6.901291E-1,9.7324175E-1,2.554834E0,2.395663E-1,9.0669817E-1,6.5723164E-3,2.109722E0,8.259655E-1,8.052543E-1,2.7057538E0,1.1908224E0,4.0415087E0,2.2561965E0,-4.4604335E-3,1.792607E0,9.5049536E-1,1.8723952E-2,1.7573975E0,3.2037582E0,7.294295E-1,-8.4884144E-2,1.3739251E0,4.8537713E-2,-9.365712E-1,-6.170047E-2,-7.329865E-1,-4.720573E-1,6.9708073E-1,-4.390778E-1,8.3135176E-1,8.521806E-1,1.919975E0,2.6803666E-1,2.5695345E0,1.4055979E0,2.9370885E0,3.3696997E0,1.043754E0,2.2401254E0,6.9959503E-1,8.698356E-1,3.5390363E0,-3.6513746E-1,1.8592334E0,1.5732299E0,2.8177145E0,-5.6372064E-1,1.571161E0,-1.1067168E0,-8.626075E-2,5.4556805E-1,-9.938447E-1,-1.1044852E0,-1.2006485E0,2.6605735E0,4.3301515E-2,-6.2636065E-1,-1.2430984E-1,-4.7744828E-1,-1.1451577E0,-3.7943906E-1,-1.0150282E0,3.751367E-1,-7.960076E-1,1.4389294E0,-6.5474904E-1,7.294295E-1,3.2286468E0,1.3645345E0,-1.05625E-1,-9.0697986E-1,1.6978298E-1,9.153363E-1,-5.269617E-1,1.9369901E0,4.914566E-1,3.6164887E0,6.067368E-1,-1.6459298E-1,1.5886046E0,-1.142115E0,-7.031711E-1,-4.5186406E-1,8.698356E-1,-6.890986E-1,3.484147E-1,9.634226E-1,-2.7136838E-1,-1.19562194E-1,2.1590176E0,6.802532E-1,-6.142611E-1,1.3573841E0,-6.901291E-1,3.438612E0,1.4320654E0,-6.058325E-1,6.9708073E-1,2.6151812E0,4.3200153E-1,-7.489989E-1,7.3358494E-1,3.1692367E0,8.698356E-1,-6.901291E-1,1.3645345E0,1.4843343E0,-1.9335619E-1,2.6336715E0,-1.19562194E-1,1.8165084E0,5.222172E-1,-2.3887621E-1,7.3853725E-1,1.0584676E0,2.5488074E0,5.82902E-2,2.2606378E0,1.5781769E0,3.9140177E-1,2.6068884E-1,2.4254313E0,6.067368E-1,-6.5474904E-1,8.9782715E-1,1.9598101E0,1.1582572E0,-5.9788194E-2,1.7444815E-1,2.5317957E0,3.4033031E0,1.3914753E0,-7.53455E-1,6.7035884E-1,2.395663E-1,1.7201287E0,-6.901291E-1,8.698356E-1,-5.448561E-1,9.0524256E-1,-8.0646235E-1,9.196601E-2],"categories":[],"categories_nodes":[],"categories_segments":[],"categories_sizes":[],"default_left":[0,0,0,0,0,0,0,0,0,0,0,0,0,0,0,0,0,0,0,0,0,0,0,0,0,0,0,0,0,0,0,0,0,0,0,0,0,0,0,0,0,0,0,0,0,0,0,0,0,0,0,0,0,0,0,0,0,0,0,0,0,0,0,0,0,0,0,0,0,0,0,0,0,0,0,0,0,0,0,0,0,0,0,0,0,0,0,0,0,0,0,0,0,0,0,0,0,0,0,0,0,0,0,0,0,0,0,0,0,0,0,0,0,0,0,0,0,0,0,0,0,0,0,0,0,0,0,0,0,0,0,0,0,0,0,0,0,0,0,0,0,0,0,0,0,0,0,0,0,0,0,0,0,0,0,0,0,0,0,0,0,0,0,0,0,0,0,0,0,0,0,0,0,0,0,0,0,0,0,0,0,0,0,0,0,0,0,0,0,0,0,0,0,0,0,0,0,0,0,0,0,0,0,0,0,0,0,0,0,0,0,0,0,0,0,0,0,0,0,0,0,0,0,0,0,0,0,0,0,0,0,0,0,0,0,0,0,0,0,0,0,0,0,0,0,0,0,0,0,0,0,0,0,0,0,0,0,0,0,0,0,0,0,0,0,0,0,0,0,0,0,0,0,0,0,0,0,0,0,0,0,0,0,0,0,0,0,0,0,0,0,0,0,0,0,0,0,0,0],"id":0,"left_children":[1,3,5,7,9,11,13,15,17,19,21,23,25,27,29,31,33,35,37,39,41,43,45,47,49,51,53,55,57,59,61,63,65,67,69,71,73,75,77,-1,-1,79,81,83,85,87,-1,89,91,93,95,97,99,101,103,-1,105,107,-1,109,-1,111,113,115,117,119,121,123,125,127,129,131,133,135,137,139,141,-1,143,145,147,-1,-1,149,151,153,155,157,159,161,163,165,167,169,171,173,175,177,179,181,183,185,187,-1,-1,-1,189,191,193,195,-1,197,199,-1,201,203,205,207,209,211,213,215,217,-1,-1,-1,-1,219,221,223,225,227,229,231,233,235,237,239,-1,241,243,245,247,249,251,-1,253,-1,-1,-1,-1,-1,-1,255,257,259,261,-1,263,265,-1,267,269,271,273,275,-1,-1,-1,277,279,281,283,-1,285,287,-1,289,291,293,-1,295,297,-1,-1,-1,-1,-1,-1,-1,-1,-1,-1,-1,-1,-1,-1,-1,-1,-1,-1,-1,-1,-1,-1,-1,-1,-1,-1,-1,-1,-1,-1,-1,-1,-1,-1,-1,-1,-1,-1,-1,-1,-1,-1,-1,-1,-1,-1,-1,-1,-1,-1,-1,-1,-1,-1,-1,-1,-1,-1,-1,-1,-1,-1,-1,-1,-1,-1,-1,-1,-1,-1,-1,-1,-1,-1,-1,-1,-1,-1,-1,-1,-1,-1,-1,-1,-1,-1,-1,-1,-1,-1,-1,-1,-1,-1,-1,-1,-1,-1,-1,-1,-1,-1,-1,-1,-1,-1,-1,-1,-1,-1,-1,-1,-1,-1,-1,-1],"loss_changes":[3.2404707E3,7.835E2,3.282793E2,4.7521558E2,2.5136966E2,1.189606E2,2.3871216E1,2.593772E2,1.2685222E3,1.1117359E1,4.1269714E1,4.763147E1,1.8580647E1,7.3203125E0,1.8985992E1,1.7924805E2,8.031466E1,1.5973549E2,1.9454602E2,5.767212E-1,8.9819975E0,2.7955208E1,5.081427E1,2.2771957E1,2.294223E1,6.5564218E0,1.2726826E1,6.5128937E0,4.928955E0,1.0758743E1,2.0934753E0,5.962793E1,1.2161289E2,2.0566044E0,2.4191833E1,1.27370804E2,6.441461E1,2.2415344E1,3.1011108E1,0E0,0E0,1.1525773E1,3.9545488E-1,3.0895617E0,8.421463E0,1.43190155E1,0E0,1.9775902E1,5.7413185E1,8.754669E0,7.403305E0,6.9529257E0,1.946722E0,1.100425E1,2.6733682E0,0E0,5.722763E0,3.5546875E-1,0E0,1.0007973E1,0E0,1.1864075E1,3.0175247E0,1.26068405E2,2.7982666E1,4.594569E1,9.181305E0,2.4224033E0,6.9582653E-1,8.91964E0,1.1690323E1,7.109539E0,4.0230766E1,2.936322E1,2.9205622E1,3.2240055E0,7.234783E0,0E0,1.5790138E1,3.9356902E0,5.605295E0,0E0,0E0,3.6338878E-1,3.7706149E0,5.7064857E0,1.1952133E1,3.9571424E0,8.560654E0,1.325293E1,1.1640762E1,7.595583E0,8.373108E-1,1.1947647E1,7.588951E0,3.3578253E0,2.8077393E0,7.867691E0,1.5346498E0,1.7875023E0,3.09622E0,4.650146E0,6.032112E0,0E0,0E0,0E0,4.6221313E0,7.8359985E0,3.414795E0,1.3311317E1,0E0,1.6750336E0,5.162103E0,0E0,1.5087738E0,3.6513233E1,5.911339E0,7.167224E1,2.40625E0,8.934388E1,9.255146E0,6.1312866E-1,3.9237595E0,0E0,0E0,0E0,0E0,1.5087566E0,7.0870285E0,2.7879944E0,2.261342E0,2.6222115E0,6.512233E0,2.9038578E1,6.3964386E0,1.1082549E1,1.8034393E1,2.3851187E0,0E0,2.2053585E0,4.5121965E0,5.4268913E0,1.9306296E0,6.428922E0,9.38591E-1,0E0,4.604707E0,0E0,0E0,0E0,0E0,0E0,0E0,5.8416424E0,3.1460898E0,4.291916E-1,4.4607644E0,0E0,2.7973018E0,8.155701E0,0E0,1.3591171E1,5.205989E0,5.1054306E0,1.8326216E1,7.963814E0,0E0,0E0,0E0,1.2714844E1,1.7806486E0,2.4287643E0,5.516556E0,0E0,4.1827345E0,3.3830566E0,0E0,4.620303E0,2.502058E0,2.6233468E0,0E0,3.4145641E0,1.2315283E0,0E0,0E0,0E0,0E0,0E0,0E0,0E0,0E0,0E0,0E0,0E0,0E0,0E0,0E0,0E0,0E0,0E0,0E0,0E0,0E0,0E0,0E0,0E0,0E0,0E0,0E0,0E0,0E0,0E0,0E0,0E0,0E0,0E0,0E0,0E0,0E0,0E0,0E0,0E0,0E0,0E0,0E0,0E0,0E0,0E0,0E0,0E0,0E0,0E0,0E0,0E0,0E0,0E0,0E0,0E0,0E0,0E0,0E0,0E0,0E0,0E0,0E0,0E0,0E0,0E0,0E0,0E0,0E0,0E0,0E0,0E0,0E0,0E0,0E0,0E0,0E0,0E0,0E0,0E0,0E0,0E0,0E0,0E0,0E0,0E0,0E0,0E0,0E0,0E0,0E0,0E0,0E0,0E0,0E0,0E0,0E0,0E0,0E0,0E0,0E0,0E0,0E0,0E0,0E0,0E0,0E0,0E0,0E0,0E0,0E0,0E0,0E0,0E0,0E0,0E0,0E0],"parents":[2147483647,0,0,1,1,2,2,3,3,4,4,5,5,6,6,7,7,8,8,9,9,10,10,11,11,12,12,13,13,14,14,15,15,16,16,17,17,18,18,19,19,20,20,21,21,22,22,23,23,24,24,25,25,26,26,27,27,28,28,29,29,30,30,31,31,32,32,33,33,34,34,35,35,36,36,37,37,38,38,41,41,42,42,43,43,44,44,45,45,47,47,48,48,49,49,50,50,51,51,52,52,53,53,54,54,56,56,57,57,59,59,61,61,62,62,63,63,64,64,65,65,66,66,67,67,68,68,69,69,70,70,71,71,72,72,73,73,74,74,75,75,76,76,78,78,79,79,80,80,83,83,84,84,85,85,86,86,87,87,88,88,89,89,90,90,91,91,92,92,93,93,94,94,95,95,96,96,97,97,98,98,99,99,100,100,101,101,102,102,106,106,107,107,108,108,109,109,111,111,112,112,114,114,115,115,116,116,117,117,118,118,119,119,120,120,121,121,122,122,127,127,128,128,129,129,130,130,131,131,132,132,133,133,134,134,135,135,136,136,137,137,139,139,140,140,141,141,142,142,143,143,144,144,146,146,153,153,154,154,155,155,156,156,158,158,159,159,161,161,162,162,163,163,164,164,165,165,169,169,170,170,171,171,172,172,174,174,175,175,177,177,178,178,179,179,181,181,182,182],"right_children":[2,4,6,8,10,12,14,16,18,20,22,24,26,28,30,32,34,36,38,40,42,44,46,48,50,52,54,56,58,60,62,64,66,68,70,72,74,76,78,-1,-1,80,82,84,86,88,-1,90,92,94,96,98,100,102,104,-1,106,108,-1,110,-1,112,114,116,118,120,122,124,126,128,130,132,134,136,138,140,142,-1,144,146,148,-1,-1,150,152,154,156,158,160,162,164,166,168,170,172,174,176,178,180,182,184,186,188,-1,-1,-1,190,192,194,196,-1,198,200,-1,202,204,206,208,210,212,214,216,218,-1,-1,-1,-1,220,222,224,226,228,230,232,234,236,238,240,-1,242,244,246,248,250,252,-1,254,-1,-1,-1,-1,-1,-1,256,258,260,262,-1,264,266,-1,268,270,272,274,276,-1,-1,-1,278,280,282,284,-1,286,288,-1,290,292,294,-1,296,298,-1,-1,-1,-1,-1,-1,-1,-1,-1,-1,-1,-1,-1,-1,-1,-1,-1,-1,-1,-1,-1,-1,-1,-1,-1,-1,-1,-1,-1,-1,-1,-1,-1,-1,-1,-1,-1,-1,-1,-1,-1,-1,-1,-1,-1,-1,-1,-1,-1,-1,-1,-1,-1,-1,-1,-1,-1,-1,-1,-1,-1,-1,-1,-1,-1,-1,-1,-1,-1,-1,-1,-1,-1,-1,-1,-1,-1,-1,-1,-1,-1,-1,-1,-1,-1,-1,-1,-1,-1,-1,-1,-1,-1,-1,-1,-1,-1,-1,-1,-1,-1,-1,-1,-1,-1,-1,-1,-1,-1,-1,-1,-1,-1,-1,-1,-1],"split_conditions":[5.23E2,1E1,7.99E2,1.5E1,1.3E2,2E0,1E0,6.1E1,2E0,7.9E1,2E0,6.35E2,6.35E2,2E0,1.002E3,3.13E2,1.26E2,1E0,1.62E2,2.9E1,5.5E1,1.7E2,7.1E1,5E0,9E0,7E0,2.651E3,3.6E1,1.3E1,6.7E3,7E0,1E0,2E0,1.98E2,2.99E2,1.59E2,3.78E2,1.18E2,2.03E2,-1.1322024E0,-1.9335619E-1,4.7E1,2E0,1E0,1.3E1,5E0,4.184922E0,6E0,2E0,1.6E1,1E0,4.8E1,3E0,4.5E1,5E0,-1.19562194E-1,-1.64E2,9.49E2,6.067368E-1,1.802E3,-7.2131056E-1,9E0,1E0,1E0,1E0,1E0,4.55E2,2E0,6.332E3,4E0,3.698E3,1.44E2,3.73E2,1E2,2.11E2,8E1,1.56E2,4.069626E0,2.73E2,8.5E1,2E0,-1.19562194E-1,-9.228063E-1,6.2E1,1.64E2,5E0,1E0,1.1E1,9.618E3,1E0,1.7E1,3.71E2,5E0,1E1,1E0,3E0,3E0,3E0,1.3E1,5.6E1,5.81E2,2.2E1,2E0,-9.7660524E-1,3.1675243E-1,1.7444815E-1,3E0,1E0,6.5E1,2E0,2.8519661E0,2E0,3E0,3.348418E0,3.111E3,1.08E2,2.1E1,2.6E1,1E0,1E0,2E0,6E0,8.59E2,7.294295E-1,-7.2131056E-1,-1.1138552E0,-1.19562194E-1,6.3E1,6E0,7E1,1.1E1,3.78E2,1.06E2,9.4E1,5.7E1,3.06E2,2.13E2,6E0,3.6546574E0,1.269E3,1.149E3,8.6E1,3.7E1,2.586E3,8E0,1.043754E0,9E0,-1.19562194E-1,2.4475534E0,-9.268993E-1,-1.19562194E-1,1.3645345E0,-6.142611E-1,3.8E1,2.73E2,7.3E1,2.38E2,-6.901291E-1,6E0,1.1E1,2.395663E-1,2E0,6.08E2,5.54E2,2.1E1,1E0,2.7057538E0,1.1908224E0,4.0415087E0,1E0,7.47E2,6.51E2,4.7E1,1.8723952E-2,1.55E2,4E0,7.294295E-1,6E0,5.54E2,1E1,-9.365712E-1,6E0,5.5E1,-4.720573E-1,6.9708073E-1,-4.390778E-1,8.3135176E-1,8.521806E-1,1.919975E0,2.6803666E-1,2.5695345E0,1.4055979E0,2.9370885E0,3.3696997E0,1.043754E0,2.2401254E0,6.9959503E-1,8.698356E-1,3.5390363E0,-3.6513746E-1,1.8592334E0,1.5732299E0,2.8177145E0,-5.6372064E-1,1.571161E0,-1.1067168E0,-8.626075E-2,5.4556805E-1,-9.938447E-1,-1.1044852E0,-1.2006485E0,2.6605735E0,4.3301515E-2,-6.2636065E-1,-1.2430984E-1,-4.7744828E-1,-1.1451577E0,-3.7943906E-1,-1.0150282E0,3.751367E-1,-7.960076E-1,1.4389294E0,-6.5474904E-1,7.294295E-1,3.2286468E0,1.3645345E0,-1.05625E-1,-9.0697986E-1,1.6978298E-1,9.153363E-1,-5.269617E-1,1.9369901E0,4.914566E-1,3.6164887E0,6.067368E-1,-1.6459298E-1,1.5886046E0,-1.142115E0,-7.031711E-1,-4.5186406E-1,8.698356E-1,-6.890986E-1,3.484147E-1,9.634226E-1,-2.7136838E-1,-1.19562194E-1,2.1590176E0,6.802532E-1,-6.142611E-1,1.3573841E0,-6.901291E-1,3.438612E0,1.4320654E0,-6.058325E-1,6.9708073E-1,2.6151812E0,4.3200153E-1,-7.489989E-1,7.3358494E-1,3.1692367E0,8.698356E-1,-6.901291E-1,1.3645345E0,1.4843343E0,-1.9335619E-1,2.6336715E0,-1.19562194E-1,1.8165084E0,5.222172E-1,-2.3887621E-1,7.3853725E-1,1.0584676E0,2.5488074E0,5.82902E-2,2.2606378E0,1.5781769E0,3.9140177E-1,2.6068884E-1,2.4254313E0,6.067368E-1,-6.5474904E-1,8.9782715E-1,1.9598101E0,1.1582572E0,-5.9788194E-2,1.7444815E-1,2.5317957E0,3.4033031E0,1.3914753E0,-7.53455E-1,6.7035884E-1,2.395663E-1,1.7201287E0,-6.901291E-1,8.698356E-1,-5.448561E-1,9.0524256E-1,-8.0646235E-1,9.196601E-2],"split_indices":[11,10,11,13,11,8,8,0,15,11,15,11,11,15,11,11,11,6,11,9,0,11,13,13,13,10,5,13,12,5,10,10,8,5,11,11,13,11,13,0,0,0,1,6,9,9,0,10,15,9,10,0,12,5,1,0,5,11,0,5,0,1,2,6,6,6,11,12,5,9,5,11,13,13,11,11,11,0,11,11,15,0,0,0,13,1,6,10,5,6,9,13,5,1,6,1,3,1,9,5,5,9,2,0,0,0,9,5,0,12,0,10,12,0,5,11,9,0,8,10,2,10,5,0,0,0,0,0,12,5,9,13,13,13,0,11,11,1,0,5,5,13,0,5,10,0,1,0,0,0,0,0,0,0,11,0,13,0,1,1,0,12,11,11,9,6,0,0,0,10,11,11,0,0,13,12,0,9,11,9,0,1,0,0,0,0,0,0,0,0,0,0,0,0,0,0,0,0,0,0,0,0,0,0,0,0,0,0,0,0,0,0,0,0,0,0,0,0,0,0,0,0,0,0,0,0,0,0,0,0,0,0,0,0,0,0,0,0,0,0,0,0,0,0,0,0,0,0,0,0,0,0,0,0,0,0,0,0,0,0,0,0,0,0,0,0,0,0,0,0,0,0,0,0,0,0,0,0,0,0,0,0,0,0,0,0,0,0,0,0,0,0,0,0,0,0,0,0,0],"split_type":[0,0,0,0,0,0,0,0,0,0,0,0,0,0,0,0,0,0,0,0,0,0,0,0,0,0,0,0,0,0,0,0,0,0,0,0,0,0,0,0,0,0,0,0,0,0,0,0,0,0,0,0,0,0,0,0,0,0,0,0,0,0,0,0,0,0,0,0,0,0,0,0,0,0,0,0,0,0,0,0,0,0,0,0,0,0,0,0,0,0,0,0,0,0,0,0,0,0,0,0,0,0,0,0,0,0,0,0,0,0,0,0,0,0,0,0,0,0,0,0,0,0,0,0,0,0,0,0,0,0,0,0,0,0,0,0,0,0,0,0,0,0,0,0,0,0,0,0,0,0,0,0,0,0,0,0,0,0,0,0,0,0,0,0,0,0,0,0,0,0,0,0,0,0,0,0,0,0,0,0,0,0,0,0,0,0,0,0,0,0,0,0,0,0,0,0,0,0,0,0,0,0,0,0,0,0,0,0,0,0,0,0,0,0,0,0,0,0,0,0,0,0,0,0,0,0,0,0,0,0,0,0,0,0,0,0,0,0,0,0,0,0,0,0,0,0,0,0,0,0,0,0,0,0,0,0,0,0,0,0,0,0,0,0,0,0,0,0,0,0,0,0,0,0,0,0,0,0,0,0,0,0,0,0,0,0,0,0,0,0,0,0,0,0,0,0,0,0,0],"sum_hessian":[5.2775913E3,4.6987314E3,5.7885986E2,4.5659453E3,1.327861E2,3.515184E2,2.2734149E2,3.7886357E3,7.7730945E2,3.9398075E1,9.338803E1,2.5594157E2,9.557681E1,1.529229E2,7.441859E1,3.7274958E3,6.1139977E1,6.5853156E2,1.187779E2,1.4737799E1,2.4660278E1,2.6557222E1,6.683081E1,1.3599632E2,1.1994525E2,5.0050148E1,4.5526665E1,2.422252E1,1.2870038E2,3.2393974E1,4.2024616E1,3.124851E3,6.0264465E2,1.459188E1,4.65481E1,1.8050156E2,4.7803E2,3.4436836E1,8.4341064E1,1.3570449E1,1.1673504E0,1.70725E1,7.5877776E0,6.2745085E0,2.0282713E1,4.260829E1,2.422252E1,9.9224785E1,3.6771538E1,9.295028E1,2.6994978E1,1.9261282E1,3.0788868E1,3.9689915E1,5.836752E0,1.0214316E0,2.320109E1,1.27387115E2,1.3132693E0,3.0934786E1,1.459188E0,1.8677607E1,2.3347008E1,1.3132692E2,2.9935242E3,3.8157767E2,2.2106699E2,2.6265385E0,1.1965342E1,2.9913355E1,1.6634743E1,7.83584E1,1.0214316E2,4.7044223E2,7.5877776E0,1.7948013E1,1.6488825E1,6.829E1,1.6051067E1,1.3716368E1,3.3561325E0,1.0214316E0,6.566346E0,4.231645E0,2.0428631E0,8.755128E0,1.1527585E1,4.523483E0,3.808481E1,6.75604E1,3.166438E1,2.7432735E1,9.338803E0,4.100318E1,5.1947094E1,4.377564E0,2.2617414E1,1.3570449E1,5.690833E0,2.3347008E1,7.441859E0,1.0506154E1,2.918376E1,4.0857263E0,1.7510257E0,1.3132693E0,2.188782E1,4.742361E1,7.99635E1,2.5243952E1,5.690833E0,1.6051067E1,2.6265385E0,3.2102137E0,2.0136795E1,4.144094E1,8.988598E1,1.3649244E3,1.6285997E3,2.0676694E2,1.7481073E2,1.7568623E2,4.538075E1,1.1673504E0,1.459188E0,1.094391E1,1.0214316E0,2.918376E0,2.6994978E1,1.3716368E1,2.918376E0,6.653897E1,1.1819423E1,9.557681E1,6.566346E0,2.3492928E1,4.4694928E2,4.231645E0,3.3561325E0,7.441859E0,1.0506154E1,1.3716368E1,2.7724571E0,7.0041027E0,9.046966E0,1.7510257E0,1.1965342E1,1.0214316E0,2.3347008E0,3.2102137E0,1.0214316E0,1.0214316E0,1.0214316E0,4.9612393E0,3.7938888E0,9.192884E0,2.3347008E0,1.3132693E0,3.2102137E0,3.6187862E1,1.8969444E0,4.0565426E1,2.6994978E1,1.5905149E1,1.5759231E1,2.5827627E1,1.6051068E0,1.1673504E0,8.1714525E0,3.8522564E1,2.4806197E0,2.6994978E1,2.4952114E1,1.6051068E0,2.7724571E0,2.1450064E1,1.1673504E0,7.150021E0,6.4204273E0,2.3347008E0,3.3561325E0,5.253077E0,1.8093931E1,4.6694016E0,2.7724571E0,7.0041027E0,3.5020514E0,2.0866388E1,8.317371E0,1.1673504E0,2.072047E1,6.712265E0,4.0711346E1,7.821248E1,1.7510257E0,8.901047E0,1.6342905E1,1.0214316E0,1.5029636E1,1.6051068E0,1.0214316E0,1.7364338E1,2.7724571E0,1.00683975E1,3.1372541E1,8.361147E1,6.2745085E0,3.035111E1,1.3345734E3,7.476879E2,8.809118E2,1.29867735E1,1.9378017E2,1.2155036E2,5.326036E1,3.3561325E0,1.7233011E2,3.035111E1,1.5029636E1,1.0214316E0,1.8969444E0,2.5827627E1,1.1673504E0,1.1673504E0,1.2549017E1,1.0214316E0,1.8969444E0,6.449611E1,2.0428631E0,3.7938888E0,8.025534E0,1.6196987E1,7.937983E1,5.253077E0,1.3132693E0,2.0136795E1,3.3561325E0,3.011764E2,1.4577289E2,3.2102137E0,1.0214316E0,5.107158E0,2.3347008E0,5.982671E0,4.523483E0,1.0214316E0,1.2694936E1,1.7510257E0,1.0214316E0,5.690833E0,1.3132693E0,6.566346E0,2.4806197E0,9.192884E0,2.7724571E0,2.188782E0,2.7724571E0,1.6051068E0,2.188782E0,8.1714525E0,1.0214316E0,1.3132693E0,1.0214316E0,2.0428631E0,1.1673504E0,3.516643E1,1.0214316E0,1.094391E1,2.9621517E1,2.072047E1,6.2745085E0,5.690833E0,1.0214316E1,1.094391E1,4.8153205E0,8.025534E0,1.7802094E1,3.2102137E0,3.531235E1,1.3132693E0,1.1673504E0,5.253077E0,2.1741901E1,2.057455E1,4.377564E0,1.3132693E0,1.459188E0,1.8531689E1,2.918376E0,3.7938888E0,3.3561325E0,1.8969444E0,4.523483E0,1.3132693E0,1.0214316E0,3.7938888E0,1.459188E0,1.6634743E1,1.459188E0],"tree_param":{"num_deleted":"0","num_feature":"64","num_nodes":"299","size_leaf_vector":"1"}},{"base_weights":[-5.798394E-1,-7.981443E-1,-4.040485E-1,-9.900791E-1,-7.0553553E-1,-3.2243264E-1,-8.5412806E-1,-9.988714E-1,5.1234916E-2,-5.9056824E-1,-9.678846E-1,-4.4905794E-1,-7.647678E-2,-1.2366797E0,-5.6038034E-1,-1.0077685E0,-5.529811E-1,1.6430824E0,-8.93327E-1,2.184833E-2,-6.5669554E-1,-1.0165787E0,-1.7691013E-1,-6.283712E-1,-2.731127E-1,5.6152004E-1,-1.5459646E-1,-1.3243802E0,-3.0922398E-1,-6.33607E-1,5.4021037E-1,-1.0617048E0,-9.3635356E-1,8.510007E-1,-8.0827785E-1,-4.2805597E-1,7.0848256E-1,-1.13712E-1,-7.083845E-1,-1.0220027E0,-1.8316372E-1,5.0013447E-1,-1.2451088E0,-5.1538306E-1,-1.0065078E0,-3.6982355E-1,-2.2718318E-2,1.4080012E0,9.335799E-2,8.897146E-3,-4.2355406E-1,-1.502733E0,-7.282135E-1,7.266282E-1,-7.236987E-1,-4.8245722E-1,-1.1669109E0,9.09209E-1,-2.0923837E-1,-7.9107076E-1,-9.9865615E-1,-1.0082963E0,-1.3392827E-1,-2.630956E-1,-8.733847E-1,1.4843308E0,-3.9127356E-1,4.550563E-2,-9.535329E-1,-5.331041E-1,-8.209813E-1,-8.007993E-1,-1.0409138E0,1.8907348E0,-1.02908656E-1,-1.3802996E-1,-1.4123906E0,1.912078E-1,-5.931901E-1,-5.417292E-1,-1.0174605E0,-3.9687103E-1,3.003168E-1,-5.841052E-2,1.5129246E0,1.7094643E0,-4.8988816E-1,-4.1195056E-1,5.40707E-1,-7.019532E-2,2.8515851E0,-6.650392E-1,-7.578865E-2,-1.7739838E0,-1.1298505E0,-8.983684E-1,6.4793694E-1,8.391905E-1,2.2488631E-1,2.6671228E-1,-1.5705218E0,-6.726018E-1,-1.4951089E-1,-1.6024843E0,-3.9328006E-3,2.3571984E-1,1.3161498E0,-9.843153E-1,3.663165E-1,-9.405372E-1,-1.12972036E-1,-1.0110028E0,-3.8480693E-1,3.8050002E-1,-6.804304E-1,-4.843632E-1,3.6525875E-1,-1.1212983E0,5.509135E-1,2.4131305E0,2.9828668E-1,-1.0681645E0,-4.4767458E-2,2.905391E-1,-6.853331E-1,-1.2791057E0,-2.1608407E-2,-9.1578346E-1,-3.634693E-1,-8.371218E-1,3.2605347E-1,-8.942464E-1,4.8493302E-1,-2.8791556E-1,-1.0442328E0,2.7941543E-1,3.0754523E0,8.384853E-1,-6.90665E-1,-6.659973E-1,1.5200746E0,9.0413153E-1,-6.242983E-1,-7.777547E-1,1.2880512E-1,-3.6281028E-1,-9.275948E-1,-2.199741E-1,1.1743124E0,7.232805E-2,-3.9294133E-1,4.852972E-1,2.1604238E0,-6.5278584E-1,-3.7398495E-2,-6.12241E-1,7.647983E-1,9.9420995E-1,-4.4129398E-1,-1.9997472E-1,2.9148993E-1,4.726835E0,4.8507518E-1,-7.7763534E-1,-2.0481096E-1,4.1948926E-1,-4.44292E-1,-1.2768018E0,-2.2532582E0,-1.3918124E0,-6.998776E-1,-1.1727856E0,-2.4699766E-2,-1.2928553E-1,1.0421386E0,8.286594E-1,-8.338439E-1,3.5146303E-2,-7.657112E-1,-3.290098E-1,5.382527E-1,-1.7003019E0,2.7641147E-2,6.1559176E-1,-1.260402E0,-2.3584262E-1,7.209612E-1,1.5958879E0,2.8633E-1,7.999809E-1,-2.8925654E-1,-4.5961204E-1,-9.8448485E-1,-7.834481E-1,1.513426E0,3.7893894E-1,-7.516042E-1,-6.6906905E-1,5.4401547E-1,9.187686E-1,-8.9419913E-1,3.4072185E0,7.702304E-1,9.136465E-1,-9.0746456E-1,-3.0852368E-1,-1.3791889E0,3.157908E-1,-6.7450005E-1,-2.9205966E-1,6.6855776E-1,-1.0155071E0,1.6385207E-1,2.2519284E-1,-2.620396E-1,-9.63982E-1,-2.1668695E-1,-9.302713E-2,-7.020704E-1,-8.120842E-1,-1.8033664E0,-8.691122E-1,1.6907535E0,-1.0009832E0,-2.4691577E-1,2.1185547E-1,1.0168247E0,-1.1359359E0,4.5972303E-1,-8.870906E-1,-9.41638E-2,3.04827E0,-3.664304E-1,9.380426E-2,1.7451471E0,-7.315966E-1,-3.7590972E-1,-5.8674093E-2,-4.219736E-1,-1.1351663E0,-2.9709885E-1,6.009562E-1,-6.268502E-1,-3.7778485E-1,1.846549E0,-7.614173E-1,1.4806424E-1,-8.4258604E-1,3.5001978E-1,-3.535175E-1,1.1952417E0,2.5281794E0,-6.8423755E-2,-9.768788E-1,9.2257045E-2,1.1391072E0,1.7401207E-2,1.2754601E0,-5.592351E-1,5.322384E-1,-7.32611E-1,-1.8418545E-2,-4.0033337E-1,5.106215E-1,-4.5368743E-1,5.7843566E0,8.909341E-1,-8.118269E-1,1.3652241E0,-1.3957748E-2,-9.2490566E-1,-3.988589E-1,1.1065298E0,8.196754E-1,-3.6150044E-1,5.910167E-1,-6.06274E-1,-1.4505624E0,-2.2671785E-2,-4.342973E-2,-2.374197E0,-5.3551E-1,-1.6540909E0,-2.3784262E-1,-1.2310212E0,-1.1956698E-1,-1.5136188E0,8.4501046E-1,-7.352749E-1,9.65008E-1,2.3635736E-1,-5.644203E-1,7.439003E-1,1.3661252E-2,-8.371991E-1,9.123036E-2,-6.667568E-1,-1.6272853E-1,9.7547305E-1],"categories":[],"categories_nodes":[],"categories_segments":[],"categories_sizes":[],"default_left":[0,0,0,0,0,0,0,0,0,0,0,0,0,0,0,0,0,0,0,0,0,0,0,0,0,0,0,0,0,0,0,0,0,0,0,0,0,0,0,0,0,0,0,0,0,0,0,0,0,0,0,0,0,0,0,0,0,0,0,0,0,0,0,0,0,0,0,0,0,0,0,0,0,0,0,0,0,0,0,0,0,0,0,0,0,0,0,0,0,0,0,0,0,0,0,0,0,0,0,0,0,0,0,0,0,0,0,0,0,0,0,0,0,0,0,0,0,0,0,0,0,0,0,0,0,0,0,0,0,0,0,0,0,0,0,0,0,0,0,0,0,0,0,0,0,0,0,0,0,0,0,0,0,0,0,0,0,0,0,0,0,0,0,0,0,0,0,0,0,0,0,0,0,0,0,0,0,0,0,0,0,0,0,0,0,0,0,0,0,0,0,0,0,0,0,0,0,0,0,0,0,0,0,0,0,0,0,0,0,0,0,0,0,0,0,0,0,0,0,0,0,0,0,0,0,0,0,0,0,0,0,0,0,0,0,0,0,0,0,0,0,0,0,0,0,0,0,0,0,0,0,0,0,0,0,0,0,0,0,0,0,0,0,0,0,0,0,0,0,0,0,0,0,0,0,0,0,0,0,0,0,0,0,0,0,0,0,0,0,0,0,0,0,0,0,0,0,0,0],"id":1,"left_children":[1,3,5,7,9,11,13,15,17,19,21,23,25,27,29,31,33,-1,-1,35,37,39,41,43,45,47,49,51,53,55,57,-1,59,-1,61,63,65,67,69,71,-1,73,75,77,79,81,83,85,87,89,91,93,95,97,99,101,103,105,107,109,111,-1,113,115,117,119,121,123,125,127,129,131,133,135,137,-1,-1,139,141,143,-1,145,147,149,-1,151,153,155,157,159,161,163,165,167,169,171,173,-1,-1,175,-1,177,179,181,183,185,187,-1,189,191,193,-1,195,-1,-1,197,199,-1,-1,201,203,205,207,209,211,-1,213,215,217,219,221,223,-1,-1,-1,-1,-1,225,227,229,231,233,235,-1,-1,237,239,241,243,245,247,249,251,-1,-1,253,255,257,259,261,263,265,267,269,271,273,275,277,279,281,283,285,287,-1,-1,289,-1,291,293,295,297,-1,-1,-1,-1,-1,-1,-1,-1,-1,-1,-1,-1,-1,-1,-1,-1,-1,-1,-1,-1,-1,-1,-1,-1,-1,-1,-1,-1,-1,-1,-1,-1,-1,-1,-1,-1,-1,-1,-1,-1,-1,-1,-1,-1,-1,-1,-1,-1,-1,-1,-1,-1,-1,-1,-1,-1,-1,-1,-1,-1,-1,-1,-1,-1,-1,-1,-1,-1,-1,-1,-1,-1,-1,-1,-1,-1,-1,-1,-1,-1,-1,-1,-1,-1,-1,-1,-1,-1,-1,-1,-1,-1,-1,-1,-1,-1,-1,-1,-1,-1,-1,-1,-1,-1,-1,-1,-1,-1,-1,-1,-1,-1,-1,-1,-1,-1,-1,-1],"loss_changes":[1.25526E2,2.528418E1,6.652792E1,4.3842163E0,2.9273102E1,4.79601E1,3.0608536E1,1.3047485E0,8.856196E0,2.7980423E1,1.1372253E1,3.1917053E1,2.6249968E1,9.363892E0,1.3188011E1,7.737427E-1,4.773315E0,0E0,0E0,2.1392118E1,1.7413055E1,1.0890198E0,1.4077683E1,2.0970108E1,1.2466103E1,2.2647604E1,2.0603336E1,1.0545685E1,5.5427094E0,1.1520889E1,3.0893025E0,0E0,1.074173E0,0E0,1.235004E0,2.8457742E0,2.3959862E1,7.4469166E0,1.0790741E1,3.3892822E-1,0E0,1.0341892E1,1.1947193E0,2.1516068E1,3.249359E-2,6.853653E0,8.013624E0,1.2508392E1,8.831168E0,6.5926895E1,1.4824854E1,6.423416E0,6.9392843E0,2.8058529E-2,7.8387094E0,7.401943E0,1.640615E1,1.666244E0,2.266092E0,6.6462135E0,6.745148E-1,0E0,1.2363403E0,4.6233683E0,4.461364E0,1.7208332E1,2.7961931E0,8.705164E0,2.6634884E0,1.4297562E1,6.6518707E0,3.606718E0,3.3636475E-1,6.226326E0,5.7739406E0,0E0,0E0,4.5861286E1,1.6910164E1,8.5644925E-1,0E0,6.1270294E0,7.0717225E0,6.2508497E0,0E0,8.792038E0,2.3897165E-1,4.816787E0,9.626961E0,1.3454552E1,3.2931976E1,5.251213E0,1.3640915E1,8.198883E0,3.2883453E0,5.864231E0,1.228045E0,0E0,0E0,3.7415109E0,0E0,4.978775E0,5.653921E0,3.8051796E0,8.428262E0,1.0703098E0,7.7522516E-1,0E0,1.1354823E0,6.9843674E-1,1.55463295E1,0E0,1.5122061E0,0E0,0E0,4.938303E0,7.025188E0,0E0,0E0,1.2051636E1,6.978983E0,5.341511E-1,2.2709804E0,8.184082E0,3.5938096E0,0E0,2.5563303E-1,2.1013565E0,1.4385946E1,6.7621765E0,1.0441431E1,1.4782505E0,0E0,0E0,0E0,0E0,0E0,2.3833656E-1,3.763778E0,3.0302324E0,4.6503788E1,4.9821863E0,8.903152E0,0E0,0E0,6.0506287E0,2.4007664E0,3.7951727E0,6.6959114E0,6.625413E0,1.3702192E1,4.0482874E0,1.0613056E1,0E0,0E0,4.2830224E0,8.5531044E-1,7.0140495E0,2.4348967E0,7.654402E0,1.2604337E1,1.2346535E1,6.38584E0,9.381329E0,6.009145E0,1.0286388E1,7.5283566E0,5.4416428E0,5.8724747E0,4.1684036E0,3.7167616E0,6.5259895E0,4.8835077E0,0E0,0E0,7.612038E-2,0E0,4.5386767E0,3.7138443E0,5.142429E0,3.0891511E0,0E0,0E0,0E0,0E0,0E0,0E0,0E0,0E0,0E0,0E0,0E0,0E0,0E0,0E0,0E0,0E0,0E0,0E0,0E0,0E0,0E0,0E0,0E0,0E0,0E0,0E0,0E0,0E0,0E0,0E0,0E0,0E0,0E0,0E0,0E0,0E0,0E0,0E0,0E0,0E0,0E0,0E0,0E0,0E0,0E0,0E0,0E0,0E0,0E0,0E0,0E0,0E0,0E0,0E0,0E0,0E0,0E0,0E0,0E0,0E0,0E0,0E0,0E0,0E0,0E0,0E0,0E0,0E0,0E0,0E0,0E0,0E0,0E0,0E0,0E0,0E0,0E0,0E0,0E0,0E0,0E0,0E0,0E0,0E0,0E0,0E0,0E0,0E0,0E0,0E0,0E0,0E0,0E0,0E0,0E0,0E0,0E0,0E0,0E0,0E0,0E0,0E0,0E0,0E0,0E0,0E0,0E0,0E0,0E0,0E0,0E0,0E0,0E0,0E0,0E0,0E0,0E0,0E0],"parents":[2147483647,0,0,1,1,2,2,3,3,4,4,5,5,6,6,7,7,8,8,9,9,10,10,11,11,12,12,13,13,14,14,15,15,16,16,19,19,20,20,21,21,22,22,23,23,24,24,25,25,26,26,27,27,28,28,29,29,30,30,32,32,34,34,35,35,36,36,37,37,38,38,39,39,41,41,42,42,43,43,44,44,45,45,46,46,47,47,48,48,49,49,50,50,51,51,52,52,53,53,54,54,55,55,56,56,57,57,58,58,59,59,60,60,62,62,63,63,64,64,65,65,66,66,67,67,68,68,69,69,70,70,71,71,72,72,73,73,74,74,77,77,78,78,79,79,81,81,82,82,83,83,85,85,86,86,87,87,88,88,89,89,90,90,91,91,92,92,93,93,94,94,95,95,96,96,99,99,101,101,102,102,103,103,104,104,105,105,106,106,108,108,109,109,110,110,112,112,115,115,116,116,119,119,120,120,121,121,122,122,123,123,124,124,126,126,127,127,128,128,129,129,130,130,131,131,137,137,138,138,139,139,140,140,141,141,142,142,145,145,146,146,147,147,148,148,149,149,150,150,151,151,152,152,155,155,156,156,157,157,158,158,159,159,160,160,161,161,162,162,163,163,164,164,165,165,166,166,167,167,168,168,169,169,170,170,171,171,172,172,175,175,177,177,178,178,179,179,180,180],"right_children":[2,4,6,8,10,12,14,16,18,20,22,24,26,28,30,32,34,-1,-1,36,38,40,42,44,46,48,50,52,54,56,58,-1,60,-1,62,64,66,68,70,72,-1,74,76,78,80,82,84,86,88,90,92,94,96,98,100,102,104,106,108,110,112,-1,114,116,118,120,122,124,126,128,130,132,134,136,138,-1,-1,140,142,144,-1,146,148,150,-1,152,154,156,158,160,162,164,166,168,170,172,174,-1,-1,176,-1,178,180,182,184,186,188,-1,190,192,194,-1,196,-1,-1,198,200,-1,-1,202,204,206,208,210,212,-1,214,216,218,220,222,224,-1,-1,-1,-1,-1,226,228,230,232,234,236,-1,-1,238,240,242,244,246,248,250,252,-1,-1,254,256,258,260,262,264,266,268,270,272,274,276,278,280,282,284,286,288,-1,-1,290,-1,292,294,296,298,-1,-1,-1,-1,-1,-1,-1,-1,-1,-1,-1,-1,-1,-1,-1,-1,-1,-1,-1,-1,-1,-1,-1,-1,-1,-1,-1,-1,-1,-1,-1,-1,-1,-1,-1,-1,-1,-1,-1,-1,-1,-1,-1,-1,-1,-1,-1,-1,-1,-1,-1,-1,-1,-1,-1,-1,-1,-1,-1,-1,-1,-1,-1,-1,-1,-1,-1,-1,-1,-1,-1,-1,-1,-1,-1,-1,-1,-1,-1,-1,-1,-1,-1,-1,-1,-1,-1,-1,-1,-1,-1,-1,-1,-1,-1,-1,-1,-1,-1,-1,-1,-1,-1,-1,-1,-1,-1,-1,-1,-1,-1,-1,-1,-1,-1,-1,-1,-1],"split_conditions":[2.06E2,8.9E1,7.72E2,3.78E2,1E0,2E0,6E0,1E1,4.26E2,5E0,9E0,3.7E2,5E0,3E1,2.8E1,6.3E1,1E0,1.6430824E0,-8.93327E-1,6E0,2.8E1,8.3E1,2E0,2E0,2E0,3.02E2,8E0,4E0,2E0,9E0,1.149E3,-1.0617048E0,4E0,8.510007E-1,8.2E1,1.85E2,8E0,2.8E1,2E0,5E0,-1.8316372E-1,1.5E1,1E0,5E0,2.09E2,3.4E2,3.64E2,2E0,4E0,7E0,4.09E2,5E0,5.7E1,4.8E1,3.9E2,1.6E1,1E1,1.6E2,1.559E3,2E0,8.692E3,-1.0082963E0,1.5E1,1E0,2.76E2,2E0,3.3E1,1E0,9.71E2,1.71E2,1.1E1,1.96E2,2.3E1,1.39E2,4.1E1,-1.3802996E-1,-1.4123906E0,4E0,2.3E1,1.386E3,-1.0174605E0,1.96E2,4.6E1,3.6E1,1.5129246E0,2.6E2,7.67E2,5.7E1,1E0,1.802E3,2E0,2.876E3,5.43E2,1.5E1,4.1E1,1.222E3,1.59E3,8.391905E-1,2.2488631E-1,8E0,-1.5705218E0,1E0,8E0,1.83E2,1.365E3,8.65E2,5E0,-9.843153E-1,1.002E3,6.6E1,8E0,-1.0110028E0,1.6E1,3.8050002E-1,-6.804304E-1,1.83E2,6E0,-1.1212983E0,5.509135E-1,5.7E1,3.3E1,2E0,4E0,1.2E1,8.4E2,-1.2791057E0,1.54E2,5.9E1,8E0,1E1,9.8E1,1E0,4.8493302E-1,-2.8791556E-1,-1.0442328E0,2.7941543E-1,3.0754523E0,2.3E1,3.371E3,5.3E1,2E0,1.6E1,1.17E3,-7.777547E-1,1.2880512E-1,1E0,8E0,1.82E2,3.69E2,4E0,7.39E2,2E0,1E1,-6.5278584E-1,-3.7398495E-2,1E0,5.23E2,5.3E1,1E2,4E0,5.32E2,3.45E2,2.66E2,3E1,5.7E1,1E0,7E0,1.3E1,-1.64E2,3E1,5.6E1,4.9E1,1.365E3,-1.2928553E-1,1.0421386E0,1E0,-8.338439E-1,2E0,4E0,2E0,4.62E2,-1.7003019E0,2.7641147E-2,6.1559176E-1,-1.260402E0,-2.3584262E-1,7.209612E-1,1.5958879E0,2.8633E-1,7.999809E-1,-2.8925654E-1,-4.5961204E-1,-9.8448485E-1,-7.834481E-1,1.513426E0,3.7893894E-1,-7.516042E-1,-6.6906905E-1,5.4401547E-1,9.187686E-1,-8.9419913E-1,3.4072185E0,7.702304E-1,9.136465E-1,-9.0746456E-1,-3.0852368E-1,-1.3791889E0,3.157908E-1,-6.7450005E-1,-2.9205966E-1,6.6855776E-1,-1.0155071E0,1.6385207E-1,2.2519284E-1,-2.620396E-1,-9.63982E-1,-2.1668695E-1,-9.302713E-2,-7.020704E-1,-8.120842E-1,-1.8033664E0,-8.691122E-1,1.6907535E0,-1.0009832E0,-2.4691577E-1,2.1185547E-1,1.0168247E0,-1.1359359E0,4.5972303E-1,-8.870906E-1,-9.41638E-2,3.04827E0,-3.664304E-1,9.380426E-2,1.7451471E0,-7.315966E-1,-3.7590972E-1,-5.8674093E-2,-4.219736E-1,-1.1351663E0,-2.9709885E-1,6.009562E-1,-6.268502E-1,-3.7778485E-1,1.846549E0,-7.614173E-1,1.4806424E-1,-8.4258604E-1,3.5001978E-1,-3.535175E-1,1.1952417E0,2.5281794E0,-6.8423755E-2,-9.768788E-1,9.2257045E-2,1.1391072E0,1.7401207E-2,1.2754601E0,-5.592351E-1,5.322384E-1,-7.32611E-1,-1.8418545E-2,-4.0033337E-1,5.106215E-1,-4.5368743E-1,5.7843566E0,8.909341E-1,-8.118269E-1,1.3652241E0,-1.3957748E-2,-9.2490566E-1,-3.988589E-1,1.1065298E0,8.196754E-1,-3.6150044E-1,5.910167E-1,-6.06274E-1,-1.4505624E0,-2.2671785E-2,-4.342973E-2,-2.374197E0,-5.3551E-1,-1.6540909E0,-2.3784262E-1,-1.2310212E0,-1.1956698E-1,-1.5136188E0,8.4501046E-1,-7.352749E-1,9.65008E-1,2.3635736E-1,-5.644203E-1,7.439003E-1,1.3661252E-2,-8.371991E-1,9.123036E-2,-6.667568E-1,-1.6272853E-1,9.7547305E-1],"split_indices":[11,11,11,13,8,3,10,10,13,9,10,11,9,9,9,11,2,0,0,10,0,0,12,8,2,11,10,12,10,10,5,0,10,0,11,13,10,9,12,10,0,9,2,9,11,13,13,8,10,10,11,1,0,0,5,9,10,5,5,10,5,0,9,14,13,2,0,6,5,5,10,11,0,11,0,0,0,10,0,5,0,13,0,0,0,5,5,0,8,5,13,5,11,9,0,11,5,0,0,1,0,2,1,13,11,11,1,0,11,11,9,0,9,0,0,11,1,0,0,13,0,3,9,9,5,0,11,0,10,10,13,6,0,0,0,0,0,9,5,0,13,9,5,0,0,2,10,5,5,9,5,12,10,0,0,6,11,0,5,10,11,11,11,0,0,8,5,9,5,0,0,5,11,0,0,6,0,12,9,1,5,0,0,0,0,0,0,0,0,0,0,0,0,0,0,0,0,0,0,0,0,0,0,0,0,0,0,0,0,0,0,0,0,0,0,0,0,0,0,0,0,0,0,0,0,0,0,0,0,0,0,0,0,0,0,0,0,0,0,0,0,0,0,0,0,0,0,0,0,0,0,0,0,0,0,0,0,0,0,0,0,0,0,0,0,0,0,0,0,0,0,0,0,0,0,0,0,0,0,0,0,0,0,0,0,0,0,0,0,0,0,0,0,0,0,0,0,0,0],"split_type":[0,0,0,0,0,0,0,0,0,0,0,0,0,0,0,0,0,0,0,0,0,0,0,0,0,0,0,0,0,0,0,0,0,0,0,0,0,0,0,0,0,0,0,0,0,0,0,0,0,0,0,0,0,0,0,0,0,0,0,0,0,0,0,0,0,0,0,0,0,0,0,0,0,0,0,0,0,0,0,0,0,0,0,0,0,0,0,0,0,0,0,0,0,0,0,0,0,0,0,0,0,0,0,0,0,0,0,0,0,0,0,0,0,0,0,0,0,0,0,0,0,0,0,0,0,0,0,0,0,0,0,0,0,0,0,0,0,0,0,0,0,0,0,0,0,0,0,0,0,0,0,0,0,0,0,0,0,0,0,0,0,0,0,0,0,0,0,0,0,0,0,0,0,0,0,0,0,0,0,0,0,0,0,0,0,0,0,0,0,0,0,0,0,0,0,0,0,0,0,0,0,0,0,0,0,0,0,0,0,0,0,0,0,0,0,0,0,0,0,0,0,0,0,0,0,0,0,0,0,0,0,0,0,0,0,0,0,0,0,0,0,0,0,0,0,0,0,0,0,0,0,0,0,0,0,0,0,0,0,0,0,0,0,0,0,0,0,0,0,0,0,0,0,0,0,0,0,0,0,0,0,0,0,0,0,0,0,0,0,0,0,0,0,0,0,0,0,0,0],"sum_hessian":[3.278354E3,1.4607677E3,1.8175864E3,4.722736E2,9.884941E2,1.5400376E3,2.7754877E2,4.683598E2,3.9138029E0,6.895631E2,2.9893097E2,1.0160958E3,5.2394183E2,1.1915787E2,1.583909E2,4.579616E2,1.0398171E1,1.1821076E0,2.7316954E0,6.726643E1,6.2229663E2,2.813267E2,1.760429E1,5.019579E2,5.1413794E2,5.6480705E1,4.674611E2,1.08472694E2,1.0685177E1,1.4890778E2,9.483123E0,2.5300941E2,2.0495221E2,1.2408501E0,9.157322E0,4.0866203E1,2.6400232E1,5.4368248E1,5.679284E2,2.7928278E2,2.0439217E0,1.1100426E1,6.503864E0,3.8829684E2,1.1366105E2,3.705442E2,1.4359377E2,1.9398636E1,3.708207E1,2.9133292E2,1.7612817E2,8.23236E1,2.614909E1,2.838382E0,7.8467946E0,1.1750812E2,3.1399666E1,6.2116055E0,3.2715175E0,6.562324E1,1.3932898E2,6.6805844E0,2.476737E0,3.0980923E1,9.8852825E0,1.52746725E1,1.112556E1,4.649861E1,7.8696346E0,2.2437556E2,3.4355283E2,2.5409683E1,2.5387308E2,2.7117908E0,8.388636E0,1.0933241E0,5.4105396E0,3.837185E1,3.49925E2,3.7785623E0,1.0988249E2,3.5656085E2,1.3983342E1,1.412722E2,2.3215582E0,1.6825357E1,2.5732803E0,1.745016E1,1.963191E1,2.8439545E2,6.9374633E0,1.0340935E2,7.271883E1,4.548115E1,3.684245E1,2.3580637E1,2.568454E0,1.7689712E0,1.0694108E0,3.9325192E0,3.9142754E0,7.4144356E1,4.3363758E1,2.2568941E1,8.830724E0,2.9344027E0,3.277203E0,1.0914725E0,2.1800451E0,5.3453907E1,1.216933E1,1.3594762E2,3.381361E0,1.432275E0,1.0444621E0,2.3082016E1,7.8989058E0,8.600938E0,1.2843446E0,7.986098E0,7.2885747E0,3.0617793E0,8.063781E0,3.527438E1,1.1224232E1,5.556055E0,2.3135798E0,6.756255E1,1.5681302E2,3.3905206E2,4.500762E0,2.397189E1,1.4377931E0,1.4991887E0,2.5237389E2,1.6726671E0,1.0391235E0,3.0603561E0,5.328279E0,2.3628658E1,1.4743192E1,6.55085E0,3.4337415E2,2.676531E0,1.1020314E0,3.3663965E2,1.9921227E1,9.234401E0,4.7489414E0,1.0213891E2,3.9133297E1,5.0884576E0,1.1736899E1,1.5666338E0,1.0066464E0,1.5321975E1,2.1281836E0,1.3421312E1,6.210598E0,2.0962515E2,7.477031E1,3.3140144E0,3.6234488E0,8.252878E1,2.0880573E1,3.0964025E1,4.17548E1,2.4121944E1,2.1359207E1,2.1504074E1,1.5338375E1,1.7683823E1,5.896814E0,1.0904717E0,1.4779823E0,2.7668247E0,1.1656946E0,8.692554E0,6.5451805E1,3.4802345E1,8.561415E0,2.125072E1,1.3182225E0,6.2561026E0,2.5746212E0,1.7488352E0,1.1855674E0,2.1448925E0,1.1323107E0,1.1795142E0,1.0005308E0,5.435094E0,4.801881E1,8.984003E0,3.1853266E0,1.0863208E0,2.2950404E0,1.9863714E1,3.218303E0,5.6752405E0,2.223665E0,4.3064446E0,3.6796532E0,4.986139E0,2.3024359E0,1.468093E0,1.5936861E0,5.444832E0,2.6189487E0,1.397053E1,2.130385E1,7.9408627E0,3.2833693E0,1.1729414E0,1.1406384E0,6.285049E1,4.712065E0,8.788979E1,6.892322E1,3.3228235E2,6.769731E0,2.593018E0,1.9077442E0,2.010972E1,3.8621693E0,1.162749E0,1.8976071E0,3.8504722E0,1.4778068E0,1.6642649E1,6.986011E0,7.804884E0,6.938308E0,3.9023917E0,2.6484582E0,2.3843158E2,1.0494255E2,5.5146114E1,2.8149353E2,1.4384979E1,5.5362477E0,2.9020674E0,6.3323336E0,1.5675995E0,3.181342E0,7.7515917E0,9.438732E1,2.4295448E1,1.483785E1,2.5626638E0,2.5257938E0,9.95933E0,1.777569E0,9.841518E0,5.4804564E0,1.0688077E0,1.0593758E0,1.1515404E1,1.9059086E0,1.2399354E0,4.9706626E0,1.1054557E2,9.907958E1,5.8022587E1,1.6747723E1,2.1996412E0,1.1143731E0,1.4962887E0,2.1271603E0,1.3519178E1,6.90096E1,1.8795164E1,2.0854082E0,2.0440565E1,1.0523462E1,5.290688E0,3.646411E1,2.104897E1,3.0729759E0,1.1788063E0,2.01804E1,5.7553673E0,1.5748707E1,8.977102E0,6.361273E0,4.6537967E0,1.30300255E1,2.5664315E0,3.3303826E0,1.7375816E0,1.029243E0,4.8193207E0,3.8732336E0,5.5671177E0,5.9884686E1,1.5832595E1,1.896975E1,3.5298812E0,5.0315332E0],"tree_param":{"num_deleted":"0","num_feature":"64","num_nodes":"299","size_leaf_vector":"1"}}]},"name":"gbtree"},"learner_model_param":{"base_score":"-1.5341738E0","boost_from_average":"1","num_class":"0","num_feature":"64","num_target":"1"},"objective":{"name":"binary:logitraw","reg_loss_param":{"scale_pos_weight":"1"}}},"version":[2,0,3]}